<?xml version="1.0" encoding="ISO-8859-1"?>
<!-- This network was created in GeNIe Academic, which can be used for educational and research purposes only -->
<smile version="1.0" id="Unnamed" numsamples="10000" discsamples="10000">
	<nodes>
		<cpt id="county_name">
			<state id="SAbbeville_County" />
			<state id="SAiken_County" />
			<state id="SAllendale_County" />
			<state id="SAnderson_County" />
			<state id="SBamberg_County" />
			<state id="SBarnwell_County" />
			<state id="SBeaufort_County" />
			<state id="SBerkeley_County" />
			<state id="SCalhoun_County" />
			<state id="SCharleston_County" />
			<state id="SCherokee_County" />
			<state id="SChester_County" />
			<state id="SChesterfield_County" />
			<state id="SColleton_County" />
			<state id="SDarlington_County" />
			<state id="SDorchester_County" />
			<state id="SEdgefield_County" />
			<state id="SFairfield_County" />
			<state id="SFlorence_County" />
			<state id="SGeorgetown_County" />
			<state id="SGreenville_County" />
			<state id="SGreenwood_County" />
			<state id="SHampton_County" />
			<state id="SHorry_County" />
			<state id="SJasper_County" />
			<state id="SKershaw_County" />
			<state id="SLancaster_County" />
			<state id="SLaurens_County" />
			<state id="SLee_County" />
			<state id="SLexington_County" />
			<state id="SMarion_County" />
			<state id="SMarlboro_County" />
			<state id="SMccormick_County" />
			<state id="SNewberry_County" />
			<state id="SOconee_County" />
			<state id="SOrangeburg_County" />
			<state id="SPickens_County" />
			<state id="SRichland_County" />
			<state id="SSaluda_County" />
			<state id="SSpartanburg_County" />
			<state id="SSumter_County" />
			<state id="SUnion_County" />
			<state id="SWilliamsburg_County" />
			<state id="SYork_County" />
			<probabilities>0.004670379635634893 0.03367752075247674 0.004004653221738369 0.05519352392325615 0.007034737878803477 0.007683306395434627 0.01826972900817062 0.02544859322400321 0.00502726389875468 0.01716132884482741 0.0257505722158738 0.0161112655321865 0.01052808576203369 0.01624509713085642 0.02204446640655294 0.02676631973398396 0.007837727470822996 0.01154383328014385 0.03276128903850575 0.01699318145162674 0.08157207517904266 0.02350631925356284 0.005703285051010428 0.07029933667569173 0.01155069643905001 0.02174248741468236 0.01795745527794078 0.02306707708356925 0.007093074729505749 0.04867009138296084 0.01097419109093343 0.008239222266832755 0.002676631973398396 0.01704465514342286 0.01824227637254599 0.02951501487589693 0.02134442419812567 0.05508371338075776 0.008458843351829547 0.06075611421669052 0.02082282412125829 0.007546043217311632 0.009292717158926741 0.05408855533936605</probabilities>
		</cpt>
		<cpt id="driver_race">
			<state id="Black" />
			<state id="Hispanic" />
			<state id="Other" />
			<state id="White" />
			<parents>county_name</parents>
			<probabilities>0.3644379132990448 0.01396032329169733 0.004408523144746562 0.6171932402645113 0.3551049521092317 0.04391685347462809 0.008966782147951905 0.5920114122681883 0.5946872322193657 0.0128534704370181 0.00514138817480731 0.3873179091688089 0.2171723451877642 0.03531459835861726 0.01206167619995026 0.7354513802536682 0.544390243902439 0.01073170731707318 0.004878048780487811 0.4399999999999999 0.4988834301027244 0.007146047342563648 0.003126395712371598 0.4908441268423404 0.2913223140495868 0.09034560480841473 0.01051840721262209 0.6078136739293764 0.3334681769147788 0.04341963322545847 0.008090614886731391 0.6150215749730312 0.4853242320819113 0.02252559726962461 0.006143344709897647 0.4860068259385665 0.3939212157568486 0.04739052189562087 0.01139772045590882 0.5472905418916216 0.2622601279317697 0.0310501066098081 0.01146055437100213 0.6952292110874201 0.4121405750798722 0.01959531416400426 0.01064962726304579 0.5576144834930777 0.3702737940026075 0.02314211212516298 0.005867014341590614 0.6007170795306388 0.3261512463033376 0.03591043514997887 0.01394169835234474 0.6239966201943388 0.4162515566625156 0.01400996264009963 0.008872976338729764 0.5608655043586551 0.366923076923077 0.05102564102564103 0.01435897435897436 0.5676923076923077 0.425569176882662 0.03152364273204904 0.002626970227670757 0.5402802101576182 0.5181331747919143 0.02318668252080856 0.008620689655172414 0.4500594530321046 0.424007541636116 0.02712894102859537 0.009846024929297162 0.5390174924059914 0.3366316639741519 0.02140549273021002 0.004442649434571891 0.6375201938610663 0.2442051238904548 0.08779605401539692 0.01367212149257499 0.6543267006015734 0.3505109489051095 0.03386861313868613 0.005547445255474452 0.6100729927007299 0.5517448856799038 0.01143200962695549 0.0042117930204573 0.4326113116726835 0.1797813140681441 0.04481109050082983 0.009958020111295518 0.7654495753197305 0.3832442067736185 0.09209744503862151 0.009506833036244802 0.5151515151515151 0.3781565656565656 0.02793560606060606 0.005523989898989899 0.5883838383838383 0.2721192432639021 0.02637110643990063 0.00630613414867189 0.6952035161475253 0.3025885153228206 0.03525736387979768 0.01071109788753347 0.6514430229098482 0.5495887760038703 0.01306240928882439 0.008224479922593137 0.4291243347847121 0.2816047380666996 0.04166960445603892 0.01269125008813368 0.6640344073891279 0.3821138211382114 0.02689180737961226 0.0115697310819262 0.5794246404002501 0.4160766347355269 0.01082882132444815 0.01832569762598918 0.5547688463140359 0.4666666666666659 0.007692307692308525 0.006410256410257248 0.5192307692307683 0.3523253472921281 0.03623917857861889 0.007851822025367425 0.6035836521038856 0.09048156508653123 0.03818660647103085 0.006395786305492853 0.8649360421369451 0.6089989536100454 0.02023020579002442 0.00476688757121265 0.3660039530287176 0.0954983922829582 0.03810289389067525 0.008681672025723473 0.8577170418006431 0.5056067779715924 0.03276850236730625 0.0157612758534762 0.4458634438076252 0.3359026369168357 0.1006085192697769 0.003651115618661261 0.5598377281947262 0.2218582321378142 0.05218864727478113 0.01750917819824908 0.7084439423891556 0.5421885299934081 0.02488464073829927 0.007910349373764008 0.4250164798945287 0.3506139154160983 0.008640291041382451 0.002728512960436567 0.6380172805820827 0.6554652880354505 0.009231905465288036 0.003692762186115216 0.3316100443131462 0.259294505773379 0.03045298819946707 0.01167364547646238 0.6985788605506915</probabilities>
		</cpt>
		<cpt id="driver_gender">
			<state id="F" />
			<state id="M" />
			<parents>driver_race</parents>
			<probabilities>0.3840587244484186 0.6159412755515815 0.1653315152548151 0.834668484745185 0.2675409836065574 0.7324590163934427 0.3409938542191976 0.6590061457808023</probabilities>
		</cpt>
		<cpt id="driver_age">
			<state id="S10s" />
			<state id="S20s" />
			<state id="S30s" />
			<state id="S40s" />
			<state id="S50s" />
			<state id="S60s" />
			<state id="S70s" />
			<state id="S80s" />
			<state id="S90s" />
			<parents>driver_gender driver_race</parents>
			<probabilities>0.07604634793437585 0.3717310087173112 0.2477123829119069 0.1661432670962153 0.09288537549407075 0.03538361578861862 0.008446586171422217 0.00157019871135413 8.121717472521365e-05 0.08247422680393605 0.4030927835202164 0.3149484536168961 0.1510309278181022 0.0365979381393357 0.00979381443166092 0.001546391752376375 0.0005154639174658065 1.052237296212008e-14 0.07965686260318748 0.3174019608052112 0.280637255289658 0.1715686271405291 0.107843137360689 0.02818627446227619 0.01348039213630154 0.001225490197989324 4.15810298024032e-12 0.1099915491126566 0.3123252941558862 0.210134564129234 0.1789800429045052 0.1134044074627835 0.05405317558343609 0.01730806734707139 0.003607878827276849 0.0001950204771500999 0.07554017555705585 0.3135550303848753 0.2304186360567186 0.1842336259284268 0.1201553004726535 0.05683659689399042 0.01639095205941925 0.002768399729912213 0.0001012829169480076 0.06769450684090382 0.4394527261589805 0.2999795793342818 0.1322238104961728 0.04768225444147288 0.01031243618540987 0.002042066571368053 0.0004084133142736109 0.0002042066571368055 0.06356311548681737 0.2958818263284339 0.2694717994570783 0.2032229185434232 0.1101163831616414 0.04521038495567019 0.01163831691928605 0.0008952551476431305 6.220208258120905e-15 0.09425061177123537 0.2745612486019661 0.206076507143638 0.1870800642464913 0.1348924039456091 0.07129342314387344 0.02590041793856217 0.005533271105056465 0.0004120521035680346</probabilities>
		</cpt>
		<cpt id="officer_age">
			<state id="S0s" />
			<state id="S10s" />
			<state id="S20s" />
			<state id="S30s" />
			<state id="S40s" />
			<state id="S50s" />
			<state id="S60s" />
			<state id="S70s" />
			<parents>county_name</parents>
			<probabilities>4.346230097467476e-13 0.00220426157202237 0.2968405583954997 0.4019103600499477 0.1528288023848481 0.09184423216299989 0.0543717854341457 1.018647683554403e-13 1.161376745655288e-15 1.393652094474992e-15 0.3649887915221964 0.4433462400652241 0.1519258202568669 0.03892398614225039 0.000815162013459444 2.721976759548595e-16 6.891527751426839e-13 8.269833299864657e-13 0.3333333332827904 0.3933161954107409 0.2673521850714353 0.005998286227342846 6.012857955983749e-12 1.615201823813325e-13 2.638644254206656e-16 3.166373104340593e-16 0.184717731907502 0.4124595871673812 0.2647973141009634 0.08921909972642517 0.04551106689877276 0.003295200198954754 1.272761578511314e-13 1.527313893872362e-13 0.3331707316980014 0.3648780487908002 0.2960975609688541 0.005853658540923964 1.110484475933178e-12 2.983034962698031e-14 9.770121906985477e-14 1.17241462857633e-13 0.339883876722935 0.3608753908077362 0.2903081732869773 0.008932559181261063 8.52443135372788e-13 2.289872331976634e-14 0.04395191585245849 8.727029565903887e-15 0.3688955672419058 0.2960180315562669 0.2338467317806424 0.05540946656641107 0.001878287002304958 1.704497969935072e-15 0.0006742179072286549 0.000269687162893615 0.2850593311757569 0.4754584681768618 0.2292340884574104 0.008629989212598421 0.000674217907249445 6.307692126702286e-16 3.485315733217363e-13 4.182378878926458e-13 0.2662116040913056 0.3911262798833894 0.2341296928339332 0.1010238907666573 0.00750853242386597 8.168708785497408e-14 0.001599680063983195 0.0001999600080073318 0.3091381723650767 0.4265146970608064 0.248350329933929 0.01379724055212525 0.000399920016070161 2.056478921648856e-15 2.597717666656806e-15 3.117261199291744e-15 0.1784381663114766 0.569829424306762 0.2385394456289962 0.01252665245209835 0.0006663113006607478 6.08840080788683e-16 1.060375715265438e-14 1.27245085803425e-14 0.1797657082009182 0.40000000000052 0.3035143769961707 0.1156549520759785 0.001064962726386813 2.485255593535829e-15 3.798860731762566e-14 4.558632877096641e-14 0.3252933507145715 0.5482398956942575 0.120599739247862 0.005867014342885109 3.314505984529123e-13 8.903579879055585e-15 0.0002112378538317593 1.24126735471055e-14 0.2268694550065814 0.4516265314744612 0.2893958597375791 0.03147444021979863 0.0004224757077330811 2.424350313326429e-15 4.140231656355529e-15 0.0004669987546731951 0.1044520547950799 0.6027397260268359 0.2661892901617859 0.02070361145712126 0.005448318804498769 9.703667987073775e-16 0.0005128205128217457 0.008461538461523414 0.2314102564103014 0.4729487179486778 0.2208974358974715 0.06525641025636397 0.0005128205128396143 5.421313111233762e-16 9.204186806752595e-14 1.104502416563556e-13 0.1598073555244318 0.4938704027987472 0.2898423817819786 0.05604203152257353 0.000437828372044826 2.157231292278742e-14 2.881965861170309e-14 3.458359032631744e-14 0.1640903686111272 0.3382877526784194 0.4348989298402495 0.06242568370936687 0.0002972651607668365 6.754607516695044e-15 1.261556793665684e-15 0.003037603435632255 0.1874934534409465 0.5570336231275655 0.1952445794490905 0.03948884466324936 0.01770189588351429 2.956773748101093e-16 9.037307376360829e-15 0.001009693053314328 0.2425282714055773 0.4705169628431585 0.2370759289176151 0.04725363489495927 0.001615508885364424 2.118118925609406e-15 8.174230367735274e-17 9.809076439090896e-17 0.2458457784695643 0.5093601447141434 0.1985192040721918 0.03596819654200551 0.01030667620209494 1.91583525082703e-17 3.414932589152746e-15 0.001167883211679298 0.1913868613140596 0.5077372262772046 0.2135766423358418 0.08540145985388363 0.0007299270073267953 8.003748290873629e-16 2.387631445673197e-13 2.865157734167735e-13 0.3586040914330713 0.3026474127885924 0.31829121538563 0.0204572803900419 2.083208433877475e-12 5.596011225300416e-14 1.277053040350876e-16 0.001073904129649545 0.2151225226984326 0.4813043053792803 0.2292297178560979 0.06955969930684065 0.003709850629699014 0 0.02020202020151972 3.452199890655996e-14 0.2522281639928848 0.2795603089766397 0.3550207961941961 0.08496732026034592 0.008021390374372408 6.742577942468298e-15 4.315120384559059e-15 5.178144460314029e-15 0.2872474747473394 0.5067866161614081 0.1786616161618486 0.02730429292935573 3.764942531059476e-14 1.011356344559565e-15 7.658485294244463e-15 9.190182351040191e-15 0.2358111981656067 0.4966558379511634 0.2189948404358278 0.0418497993502871 0.005159564303489655 0.001528759793608561 3.613721702453247e-15 0.0327283546562489 0.2026182683726733 0.4803629872061014 0.2151145492413719 0.03778637310326118 0.03138946742033882 8.469660277211817e-16 1.241630677687254e-13 1.489956812891836e-13 0.2685050798240585 0.5466860183736346 0.1794871794937743 0.005321722307147003 1.083322764996422e-12 2.91007191357215e-14 3.848113472004629e-16 4.617736165373913e-16 0.3884227596417772 0.3742508637101034 0.1926249735599115 0.03722766692519426 0.007473736163012795 9.019015989503393e-17 3.35429548351042e-14 0.001563477173225764 0.1078799249575224 0.3930581613527012 0.2589118198867851 0.1438398999343894 0.09474671669533472 7.861630073902119e-15 7.923645341213183e-14 9.508374407331568e-14 0.08912952937457538 0.6043315285189209 0.2807163681768292 0.01582673886079022 0.009995835068691431 1.857104384978744e-14 2.305106185160423e-12 2.766127421574532e-12 0.2051282052282711 0.4089743590685613 0.2987179485900967 0.08589743580798728 0.001282051299472094 5.40259264512666e-13 8.95569462017797e-15 0.003422589087963506 0.1648882625334329 0.51117374672794 0.2858868532309347 0.02597141131481808 0.008657137104899824 2.098990935795291e-15 7.305400949491286e-15 8.766481137431036e-15 0.2878103837469454 0.3196012039136095 0.3199774266360222 0.07129420616986634 0.001316779533538802 1.712203355034431e-15 1.725224921351063e-15 2.070269905158759e-15 0.4562260202298862 0.3465876060924834 0.1431228926870456 0.0487152656667744 0.005348215323806208 4.043495927122246e-16 4.561035301952036e-15 5.473242361119675e-15 0.2528938906752408 0.4786173633439486 0.2271704180064751 0.04083601286174651 0.0004823151125779847 1.068992653575923e-15 2.654455325718739e-16 3.185346390150854e-16 0.3866184899077673 0.3620109643658333 0.2220907052080776 0.01520059805632376 0.01407924246199742 6.221379696895527e-17 7.322591731851785e-14 8.787110076259028e-14 0.09290060852993233 0.4766734279903646 0.3152129817392605 0.1135902636869954 0.001622718053269024 1.716232444667816e-14 1.978256758064396e-16 2.373908109146924e-16 0.1834510025416674 0.4690765320530896 0.3123411465687524 0.01671844111833294 0.01762214063823634 0.0007907370799208302 4.912387586094986e-15 5.894865101997021e-15 0.2593935398813152 0.5207646671058311 0.2150626235993107 0.004614370468202002 0.0001647989453288735 1.151340845532513e-15 1.03127857479619e-13 1.237534289478953e-13 0.1664392905947406 0.6020918599224127 0.1459754433919808 0.07094133696875338 0.01455206912186147 2.41705917026241e-14 5.523533884699234e-14 0.001107828655845122 0.2296898079775286 0.6041358936408896 0.132200886268237 0.02991137370820598 0.002954209749225501 1.294578259895093e-14 2.803673333809868e-16 3.364407999820204e-16 0.2492069534323064 0.4093389163811812 0.3113818043395321 0.02924755741657508 0.0008247684304044687 2.220446049250313e-16</probabilities>
		</cpt>
		<cpt id="search_conducted">
			<state id="FALSE" />
			<state id="TRUE" />
			<parents>driver_gender driver_race officer_age</parents>
			<probabilities>0.9999999904801571 9.519842922591775e-09 0.9999999927895664 7.210433635911492e-09 0.9864433811802232 0.01355661881977671 0.9882139619220308 0.01178603807796917 0.9909719779575565 0.009028022042443429 0.9944250871080138 0.005574912891986144 0.9999999999998413 1.586845305008659e-13 0.9999986533546283 1.346645371714522e-06 0.9979423868312757 0.00205761316872428 0.984375 0.015625 0.9613970588235199 0.03860294117648019 0.9823943661971819 0.01760563380281797 0.9889867841409441 0.01101321585905591 0.947368420887355 0.05263157911264515 0.9999968953933848 3.104606615295776e-06 0.984375 0.015625 0.9979423868312757 0.00205761316872428 0.5 0.5 0.9857142857131245 0.01428571428687565 0.9943502824857882 0.005649717514211973 0.9903381642499482 0.009661835750051714 0.9999999756230136 2.437698638920716e-08 0.9999995231628418 4.76837158203125e-07 0.5 0.5 0.9999999989110668 1.088933115254005e-09 0.9999999969681577 3.031842397749781e-09 0.9849113029293821 0.01508869707061782 0.9871298041028194 0.01287019589718064 0.9911193584730599 0.008880641526940155 0.9909407665505227 0.009059233449477355 0.9983792544570448 0.001620745542955285 0.9999998775740364 1.224259635106967e-07 0.9999999989110668 1.088933115254005e-09 0.9894736841504956 0.01052631584950435 0.9566825476429287 0.04331745235707121 0.9572675180704844 0.04273248192951575 0.9697956766360675 0.03020432336393249 0.9752827817343945 0.02471721826560537 0.983082706766906 0.01691729323309394 0.9999986533546283 1.346645371714522e-06 0.9032257944345474 0.09677420556545258 0.9565216817973572 0.04347831820264275 0.9101841413002631 0.08981585869973695 0.9125056230319388 0.08749437696806117 0.9293253786140432 0.07067462138595687 0.8974999999999617 0.1025000000000383 0.8823529401708186 0.1176470598291814 0.99951171875 0.00048828125 0.984375 0.015625 0.99951171875 0.00048828125 0.9857651245551515 0.01423487544484845 0.9829659318637269 0.01703406813627303 0.9766187050359624 0.02338129496403767 0.9999999998804433 1.195566049909147e-10 0.9999999850988388 1.490116119384766e-08 0.5 0.5 0.9861111111035272 0.01388888889647284 0.9945355191233383 0.005464480876661753 0.973615230737394 0.02638476926260605 0.974038426079581 0.02596157392041892 0.9814448035025539 0.01855519649744606 0.9833177132146205 0.01668228678537957 0.9893529893529892 0.01064701064701083 0.999999970947745 2.905225501279228e-08</probabilities>
		</cpt>
		<cpt id="stop_outcome">
			<state id="Arrest" />
			<state id="Citation" />
			<state id="SFelony_Arrest" />
			<state id="Warning" />
			<parents>county_name search_conducted driver_age</parents>
			<probabilities>3.72175271416553e-10 0.6708860554862901 3.474052752884842e-14 0.3291139441414999 2.814332149939866e-11 0.6266666659511386 2.627025249640499e-15 0.3733333340207153 8.917004602148642e-11 0.6117647045034811 8.323536453046433e-15 0.3882352954073406 0.008097165559126047 0.5303643762896535 9.155303363211221e-15 0.4615384581512113 3.391621210408516e-10 0.5398773116664086 3.165893036879042e-14 0.4601226879943976 1.496025122832418e-09 0.5151515886310749 1.396457689566339e-13 0.4848484098727603 3.806292292978878e-08 0.5757579032941907 3.552965829346474e-12 0.4242420586393334 2.921924068032067e-06 0.1437277950681059 2.727456424934255e-10 0.8562692827350804 0.001496025122832418 0.5886310748702411 1.396457689566339e-07 0.4098727603611575 0.97905 0.02085 5e-05 4.999999999999449e-05 0.8749415637860083 0.1250573388203018 5.486968449931415e-07 5.486968449597285e-07 0.85709453125 0.14290390625 7.812500000000002e-07 7.812500000259348e-07 0.80015 0.1998462962962963 1.851851851851852e-06 1.851851851863984e-06 0.66925625 0.33073125 6.250000000000002e-06 6.249999999985434e-06 0.8324000000000001 0.1668 0.0004000000000000001 0.0003999999999998449 0.8324000000000001 0.1668 0.0004000000000000001 0.0003999999999998449 0.8324000000000001 0.1668 0.0004000000000000001 0.0003999999999998449 0.8324000000000001 0.1668 0.0004000000000000001 0.0003999999999998449 0.003901170351079587 0.685305591630229 6.049807263395462e-18 0.3107932380186914 0.004337671004321035 0.6913580246903325 1.02498811335356e-19 0.3043043043053465 0.005649717513940847 0.6902071563060913 2.878305657647907e-19 0.3041431261799679 0.002908667830326539 0.6375799883704665 5.427856704794314e-19 0.359511343799207 0.0008756567445751449 0.6269702276953656 1.849588103241129e-18 0.3721541155600593 0.003558718863063099 0.5996441284729596 1.547706227088734e-17 0.3967971526639773 0.006249999434358053 0.5187500347384519 6.618142079049364e-16 0.4749999658271894 7.678552512996999e-08 0.4444487734847177 5.452661558801494e-14 0.5555511497297027 3.111533763526696e-05 0.2533097865712342 2.209549327503776e-11 0.7466590980690351 0.7142876815019484 0.2142842378583135 0.07141922056699918 8.860072738814395e-06 0.7053571536464966 0.2321428413135323 0.03571428859399779 0.02678571644597327 0.6666667902688738 0.2399999300708281 0.03999999970252047 0.0533332799577777 0.7460316502573741 0.1746033069716332 0.06349197337880563 0.01587306939218713 0.8076878994598931 0.1538489713342381 2.025576061688236e-06 0.03846110362980715 0.9089820168223819 0.09097760577072236 2.307257732766756e-05 1.730482956807666e-05 0.7209250690759177 0.209302771808254 0.03986941362220955 0.02990274549361871 0.7209250690759177 0.209302771808254 0.03986941362220955 0.02990274549361871 0.7209250690759177 0.209302771808254 0.03986941362220955 0.02990274549361871 7.676162841192767e-13 0.6874999096348677 7.676162841192767e-13 0.312500090363597 1.082997387922443e-14 0.7276119369628742 1.082997387922443e-14 0.2723880630371041 1.563699790540955e-14 0.670886075340923 1.563699790540955e-14 0.3291139246590457 1.802215321770876e-14 0.6460177005398249 1.802215321770876e-14 0.3539822994601391 4.445866360490574e-14 0.6107784540604323 4.445866360490574e-14 0.3892215459394789 2.239783402602831e-13 0.6185567479148523 2.239783402602831e-13 0.3814432520846999 1.19940044393637e-11 0.5600058422550948 1.19940044393637e-11 0.4399941577209173 1.686452976210051e-09 0.2533014678043478 1.686452976210051e-09 0.7466985288227462 2.108066220262564e-07 0.6626834755434805 2.108066220262564e-07 0.3373161028432754 0.1392578125 0.8480078125000001 3.906250000000001e-05 0.01269531249999989 0.3635065149377893 0.6364861156322339 2.260561342592593e-08 7.346824363319016e-06 0.2727163029351936 0.6818318408656612 3.210528478671818e-09 0.04545185298861676 7.923180046654532e-06 0.9999913522879211 2.222490896677288e-09 7.223095414010672e-07 0.05883732129843965 0.9411604951667524 6.697959533607683e-09 2.176836848444275e-06 0.0011140625 0.9987840625 3.125e-07 0.0001015625000000409 0.1392578125 0.8480078125000001 3.906250000000001e-05 0.01269531249999989 0.1392578125 0.8480078125000001 3.906250000000001e-05 0.01269531249999989 0.1392578125 0.8480078125000001 3.906250000000001e-05 0.01269531249999989 0.003253090436241201 0.5478204294065783 3.489361984405973e-14 0.4489264801571456 0.005369415807550966 0.5616408934706046 0.0002147766323015359 0.4327749140895428 0.004195804195809602 0.5787412587404744 0.0002797202797169389 0.4167832167839991 0.004476584022037198 0.539256198347255 5.178173781848709e-15 0.4562672176307025 0.00530222693518496 0.5106044538754285 1.889293068180373e-14 0.4840933191893676 0.002436053596792548 0.4518879416985332 2.285596587854823e-13 0.5456760047044457 1.64556849874801e-10 0.3478260941805658 4.701660514376211e-12 0.6521739056501756 1.19037073115452e-08 0.3098597792225987 3.401085441533716e-10 0.6901402085335855 1.295345465486771e-05 0.1677634847711658 3.70101556525241e-07 0.8322231916726228 0.6818206001450732 0.3181679080379925 7.24479188954633e-06 4.247025044756825e-06 0.6491228478618987 0.1754385790660628 0.105263146640837 0.07017542643120156 0.7282608484068207 0.1413043573153442 0.08695652321964367 0.04347827105819146 0.7878785330707737 0.06060635429590161 0.1212120112759313 0.03030310135739345 0.7857112321934112 0.107144570794139 0.03571643558091436 0.07142776143153551 0.5717016444630969 0.2854471427700299 0.0001721628572658402 0.1426790499096074 0.7112419651056014 0.1489370982552801 0.08814738292011019 0.05167355371900839 0.7112419651056014 0.1489370982552801 0.08814738292011019 0.05167355371900839 0.7112419651056014 0.1489370982552801 0.08814738292011019 0.05167355371900839 1.071001787763542e-10 0.6927710600279681 1.333916786353895e-14 0.3072289398649184 3.294260828246608e-12 0.6372180447319391 4.102952831294816e-16 0.3627819552647662 0.002544529228639582 0.590330788627825 1.015756209265749e-15 0.4071246821435345 8.948485124513914e-12 0.5249343841818943 1.114520503738188e-15 0.4750656158091561 2.3469308948337e-11 0.5688405802140734 2.923067498858762e-15 0.4311594197624544 7.878153237822127e-11 0.5000000125640797 9.812122602842352e-15 0.499999987357129 2.30932925900118e-09 0.3389841645881495 2.876235221075077e-13 0.6610158331022336 1.81783935839743e-07 0.4615814690380097 2.264091864986213e-11 0.5384183491554135 6.235188999303188e-05 0.9474438800373555 7.765835096902712e-09 0.05249376030681641 0.6621518342391304 0.3368032992674858 0.001043020439508507 1.846053875209641e-06 0.4999081272661941 0.3001918941796537 0.1998998897882258 8.876592638706882e-08 0.416648938275514 0.5833206241024665 3.038384530202295e-05 5.377671741246814e-08 0.3333777173913044 0.6665554111531191 6.675330812854444e-05 1.181474479361455e-07 0.1672819749017619 0.8325230645863532 0.000194616058683803 3.444532011842583e-07 0.003021739130434783 0.7484432892249527 0.2485340264650283 9.451795841552979e-07 0.9222146739130436 0.06942639413988659 0.008344163516068055 1.476843100178815e-05 0.3777173913043478 0.5554111531190926 0.06675330812854442 0.0001181474480150824 0.3777173913043478 0.5554111531190926 0.06675330812854442 0.0001181474480150824 1.110070213414606e-10 0.6119402914754776 6.341446520506172e-15 0.3880597084135091 0.001515151513073342 0.6136363634298 1.809831172157508e-16 0.3848484850571264 0.001968503929018786 0.5570866141496691 3.963593391008219e-16 0.4409448819213116 1.680687336481081e-11 0.5105820113791789 9.601184441480038e-16 0.4894179886040132 4.753354181495402e-11 0.4531835258357395 2.715426553267867e-15 0.5468164741167243 4.798875713098258e-10 0.4715447586833106 2.741431427076983e-14 0.5284552408367744 1.234970792518391e-08 0.5365856006344935 7.054960254318142e-13 0.4634143870150931 1.787041329611378e-06 0.8565507418131983 1.02087479555063e-10 0.1434474710433846 0.0001143706450951282 0.06924747604469109 6.533598691524032e-09 0.930638146776615 0.9961647483710563 0.003537862225651577 1.339591906721536e-06 0.0002960498113854237 0.8420943179869685 0.1579033028978052 1.071673525377229e-08 2.368398490992796e-06 0.7692254168716282 0.2307676469323768 3.124412610429239e-08 6.904951869057818e-06 0.6667545438957476 0.3332264231824417 8.573388203017834e-08 1.89471879286085e-05 0.6669228685007218 0.3330216419313169 2.499530088343391e-07 5.523961495235152e-05 0.5094275516943555 0.008386043794137071 3.175328964080678e-06 0.4821832291825433 0.09431798696844994 0.9033028978052127 1.071673525377229e-05 0.002368398491083612 0.7545438957475995 0.2264231824417009 8.573388203017832e-05 0.01894718792866945 0.7545438957475995 0.2264231824417009 8.573388203017832e-05 0.01894718792866945 0.002544529258565963 0.6921119588217893 3.173631727307397e-12 0.305343511916471 0.001849568434144249 0.7176325523918063 4.540353165416438e-14 0.2805178791740039 0.002887391722314166 0.682386910474178 0.0009624639069204001 0.3137632338965874 0.002234636871639844 0.6547486033642963 2.698492191403596e-13 0.343016759763794 0.004385964905881695 0.5847953218826843 6.039117509239524e-13 0.41081871321083 5.623139198834063e-11 0.5652173936801144 4.686157686852979e-12 0.4347826062589681 7.640171795001223e-10 0.5555555910043908 6.367092920880552e-11 0.4444444081679211 8.626673606865039e-08 0.41380235650966 7.189214317007213e-09 0.5861975500343897 0.0002911502342316951 0.9579532201025489 2.426359831989935e-05 0.04173136606489958 0.7272791410736892 0.2727073914823725 6.733721969154158e-06 6.733721969132134e-06 0.7236842426632364 0.2631578404463238 0.01315789140296881 2.548747102260052e-08 0.7999995352901623 0.1600005908171181 0.01999993694635972 0.01999993694635982 0.7000041416451069 0.249998744464047 1.256437918442758e-06 0.04999585745292756 0.6923244736790579 0.3076670453649926 4.240477974744308e-06 4.240477974759571e-06 0.09229447191686993 0.9047965601924555 0.001454483945337298 0.001454483945337315 0.9672944719168699 0.02979656019245547 0.001454483945337298 0.001454483945337315 0.7383557753349594 0.2383724815396438 0.01163587156269839 0.01163587156269841 0.7383557753349594 0.2383724815396438 0.01163587156269839 0.01163587156269841 9.234956318279788e-12 0.8100147274142782 1.519764656422914e-17 0.1899852725764869 0.002892561983471864 0.8086776859477106 3.367586114648938e-19 0.1884297520688175 0.004869141813313002 0.7821059038317981 1.075468361944481e-18 0.2130249543548889 0.003236245954516903 0.7508090614989844 2.524608148311838e-18 0.2459546925464987 0.001207729471575984 0.7185990339072189 8.387634296446753e-18 0.2801932366212051 0.003289473670616159 0.6282894786903332 1.684238382766381e-16 0.3684210476390504 2.657357038921295e-09 0.5490198103701268 4.373120097228033e-15 0.4509801869725119 3.135477578090216e-07 0.4500345887396056 5.159946446910373e-13 0.5499650977121207 0.00290376578506935 0.7703263174878479 4.778626404483697e-09 0.2267699119484564 0.500070849227606 0.4284975851527203 2.254578903227552e-05 0.07140901983064141 0.729729751979006 0.2027026473478885 0.06756758777371967 1.289938589277284e-08 0.803921107733153 0.1176474976522704 0.07843135591174033 3.87028363801889e-08 0.7499977846821027 0.1874983411134604 0.06250276654548828 1.107658948673595e-06 0.7368423895178963 0.1578974187363039 0.105259511504748 6.802410518202961e-07 0.7999542570572279 0.0001347482272208652 0.1999069061141878 4.088601363472222e-06 0.7391161431701972 0.1793498904309715 0.07609203798392988 0.005441928414901431 0.7391161431701972 0.1793498904309715 0.07609203798392988 0.005441928414901431 0.7391161431701972 0.1793498904309715 0.07609203798392988 0.005441928414901431 6.450332688730798e-10 0.8627449340775609 1.134623164244643e-13 0.1372550652772924 1.143674668812607e-11 0.7487309634098686 2.011740842238536e-15 0.2512690365786927 2.255080904936668e-11 0.6751592359381963 3.966721028912346e-15 0.3248407640392489 0.00366300351920007 0.6373626396093696 6.027144884403058e-15 0.3589743568714243 9.653584427224673e-11 0.6062176271758575 1.698079934428263e-14 0.3937823727275896 5.753636964546337e-10 0.6320755137409634 1.012073344687131e-13 0.3679244856835717 1.643953979698831e-08 0.470593203026726 2.8917396300771e-12 0.5294067805308424 1.101320732493553e-05 0.3388059339199812 1.937239634993058e-09 0.6611830509354543 0.0007048452687958739 0.6835797708787938 1.239833366395556e-07 0.3157152598690737 0.5080436933085191 0.491143134986503 0.0008089800982512618 4.19160672671115e-06 0.6315896474649163 0.3684076080805795 2.730307831598009e-06 1.414667261112612e-08 0.8571013865835052 0.07148470063544758 0.07141387924819341 3.353285382701188e-08 0.8568694916393165 0.1430876262590539 4.266105986871888e-05 2.210417608949911e-07 0.3393309331145314 0.660326010072431 0.0003412884789497511 1.768334087826062e-06 0.9646474649162518 0.03260808057944771 0.002730307831598008 1.414667270249748e-05 0.7171797193300136 0.2608646446355817 0.02184246265278407 0.0001131733816206459 0.7171797193300136 0.2608646446355817 0.02184246265278407 0.0001131733816206459 0.7171797193300136 0.2608646446355817 0.02184246265278407 0.0001131733816206459 0.005524861831889328 0.806629833725157 4.309051469435499e-12 0.1878453044386447 0.003779697624114296 0.8034557235386387 3.239479967696313e-14 0.1927645788372145 0.001809954752230834 0.7900452488623344 1.523477960136271e-13 0.2081447963852825 0.0037174721181632 0.7695167286469243 0.00123915737102804 0.2255266418638844 0.00417536533653085 0.7327766183930778 1.863707893126129e-12 0.2630480162685276 5.208172796518362e-10 0.7336956596967232 3.255265169946181e-11 0.2663043397499069 2.21499607614041e-08 0.5000018896623735 1.384439391689817e-09 0.4999980868032264 2.47755049457217e-06 0.4002864968182993 1.548543826571035e-07 0.5997108707768235 0.0004122024635344447 0.9726659081445348 2.57638979145756e-05 0.02689612549401621 0.4547173932613169 0.2726665444958848 0.2726121720679013 3.890174896881149e-06 0.6923080909445755 0.1923075276160111 0.09615369622798238 0.01923068521143101 0.7755100132444445 0.1836733423111111 0.04081659066666667 5.377777778647896e-08 0.8499893807964103 0.1000073198238731 0.05000257351617896 7.258635376095057e-07 0.928519009053498 0.07145712263374487 2.187654320987655e-05 1.991769547293742e-06 0.9961196180555556 0.00262170138888889 0.001153645833333334 0.0001050347222222303 0.7516555555555556 0.1677888888888889 0.07383333333333333 0.006722222222222185 0.7516555555555556 0.1677888888888889 0.07383333333333333 0.006722222222222185 0.7516555555555556 0.1677888888888889 0.07383333333333333 0.006722222222222185 0.002666666672353598 0.6106666666580003 1.110314473738124e-17 0.3866666666696461 0.004799301919743672 0.6575043629975559 3.900799677308627e-19 0.3376963350827005 0.005421686746912398 0.6246987951768599 1.026258848915398e-18 0.3698795180762278 0.007674597082480918 0.5863392172004134 2.120962734607082e-18 0.4059861857171057 0.002604166672100967 0.5312500001665635 1.034157754484849e-17 0.4661458331613355 0.008196721248331238 0.4836065598732492 9.514097975602501e-17 0.5081967188784193 3.517541739715323e-09 0.5000000741535108 3.259346118264745e-15 0.4999999223289443 1.183778524457148e-07 0.4705914168134824 1.096886469039264e-13 0.5294084648085555 2.34974556648612e-05 0.4009583142502685 2.177268859261965e-11 0.599018188272294 0.6666859678586464 0.3333072179151228 4.769642961196837e-06 2.044583269689149e-06 0.7702703384972859 0.2027025877515374 0.01351355902810328 0.01351351472307349 0.8524587923095165 0.08196751622839039 0.04918025878193528 0.0163934326801578 0.7837840620633922 0.1621620171978391 0.05405366516586002 2.555729086139991e-07 0.894724881692807 0.05264427595997836 4.08937263385614e-06 0.05262675297458086 0.7999956182521082 0.0007139244436432107 0.1992255323197725 6.492498447607797e-05 0.7990535424553812 0.1542076798269335 0.03271498107084911 0.01402379664683617 0.7990535424553812 0.1542076798269335 0.03271498107084911 0.01402379664683617 0.7990535424553812 0.1542076798269335 0.03271498107084911 0.01402379664683617 5.074287143357169e-11 0.7086614153009038 3.903493704553734e-12 0.2913385846444498 0.003591954022706085 0.6221264367719263 8.049895132086939e-14 0.3742816092052872 0.00304568527896131 0.6060913705477992 2.269931894937681e-13 0.3908629441730125 0.003529411763568678 0.56235294123099 3.530651825097006e-13 0.4341176470050883 1.60205176354553e-11 0.5660714287406731 1.23240936050611e-12 0.433928571242074 0.006410256293452879 0.5064102593303537 0.003205128107701028 0.4839743562684924 3.099202297591469e-09 0.4791667946274145 2.384121417650573e-10 0.5208332020349711 3.054268716714933e-07 0.3500265579296231 2.349555389927008e-08 0.6499731131479514 0.0028285582585497 0.5959529862402342 0.0002175923246611402 0.401000863176555 0.4020760416666667 0.3986158564814815 0.0001403935185185185 0.1991677083333333 0.8571426702889231 0.08571461387602881 0.05714228234310699 4.334919410098337e-07 0.8064528938293457 0.1612884834289551 9.25445556640625e-07 0.03225769729614258 0.9999810531250001 1.2628125e-05 3.790625000000001e-06 2.52812499990096e-06 0.833377332361516 0.0002945335276967929 0.1662691690962099 5.896501457725023e-05 0.9943861111111111 0.003741666666666667 0.001123148148148148 0.0007490740740740964 0.981053125 0.012628125 0.003790625000000001 0.002528124999999992 0.848425 0.101025 0.030325 0.02022499999999994 0.848425 0.101025 0.030325 0.02022499999999994 1.039087086151294e-10 0.5714285721076806 1.082010440318739e-15 0.4285714277884096 0.001226993867682042 0.6147239263327717 5.11242586017277e-17 0.3840490797995463 0.007342143891284285 0.6328928045601705 8.756778716978026e-17 0.3597650515485451 0.001733102257872279 0.5632582323682996 1.438513639141632e-16 0.435008665373828 0.002770083100332361 0.515235458615792 5.85560519797108e-16 0.4819944582838751 3.542825657959978e-10 0.5743589762852475 3.689175239719658e-15 0.4256410233604663 1.11929078133217e-08 0.5081970597786104 1.165527247229775e-13 0.4918029290283652 6.512654622395835e-07 0.7999484528605143 6.781684027777779e-12 0.2000508958672418 0.002667583333333334 0.5888629166666667 2.777777777777778e-08 0.4084694722222223 0.5008658594633189 0.3328263521151901 8.46373534836675e-05 0.1662231510680073 0.7692321795354327 0.1538464379807707 0.07692064373379287 7.38750003836941e-07 0.8461359292259176 0.1538481919735824 1.057966918545844e-05 5.299131314417949e-06 0.8749841216763522 0.125007009724305 5.908937969651528e-06 2.959661373203026e-06 0.9996034956951531 0.0003114038584183674 5.670041454081634e-05 2.84000318877542e-05 0.09962372448979591 0.8949298469387755 0.003628826530612245 0.001817602040816269 0.7969897959183673 0.1594387755102041 0.02903061224489796 0.01454081632653059 0.7969897959183673 0.1594387755102041 0.02903061224489796 0.01454081632653059 0.7969897959183673 0.1594387755102041 0.02903061224489796 0.01454081632653059 8.324942692501659e-11 0.7539936071184917 3.723390519266345e-16 0.2460063927982585 0.002553191489376545 0.7268085105959046 7.08770392716698e-18 0.2706382979147189 0.004935834153710203 0.685093780822843 1.1056398104202e-17 0.3099703850234468 0.001107419714060567 0.6677740863653189 1.560350776378095e-17 0.3311184939206205 0.002869440458251501 0.5523672886889788 3.389700012290513e-17 0.4447632708527697 5.006582501786103e-11 0.5336927247839891 2.239230047537224e-16 0.4663072751659448 0.006756755493307483 0.5472973307208805 3.484726737147444e-15 0.4459459137858086 5.524114789285548e-08 0.3428638944788653 2.470700086895609e-13 0.6571360502797398 0.0003221663745111331 0.08223260074201681 1.440912290677519e-09 0.9174452314425597 0.3342302127892153 0.4994019376239978 0.16625561800246 0.0001122315843269384 0.6799977789591888 0.3199985699024256 1.460911176819245e-06 2.190227208820339e-06 0.5000205515361861 0.3888751807267868 0.05555119944231574 0.05555306829471129 0.8234981075080078 0.1176774459199299 4.402773464296132e-06 0.05882004379859807 0.7141425058334001 0.1431540324317017 5.015034149174812e-05 0.1426533113934065 0.6001896434569484 0.3995132620603299 0.0001188748835359955 0.000178219599185736 0.6409629867008493 0.294864605031245 0.02567697484377504 0.03849543342413064 0.6409629867008493 0.294864605031245 0.02567697484377504 0.03849543342413064 0.6409629867008493 0.294864605031245 0.02567697484377504 0.03849543342413064 0.00539568346937783 0.7248201438251261 9.287398294044729e-13 0.2697841727045674 0.008479366873886975 0.7597512718968693 2.894275426414543e-14 0.2317693612292148 0.01072194424496534 0.733380986411987 5.848918223630829e-14 0.2558970693429892 0.006896551724961183 0.6965517241493949 1.025564542179784e-13 0.2965517241255413 0.009210526313462239 0.6539473685584322 0.001315789471062776 0.3355263156570428 0.004950495098193602 0.6460396049908388 2.415986964595203e-12 0.3490098999085517 0.006756757188483942 0.6148648949823725 4.851777220762168e-11 0.3783783477806258 1.909011840859386e-07 0.6176493175986912 3.74330766312373e-09 0.382350487756817 0.001023111033460577 0.9643115054862497 2.006178950705374e-05 0.03464532169078272 0.6672607866917322 0.3326787523080532 4.533606710528069e-05 1.512493310928953e-05 0.827586415601572 0.1206895973397556 0.05172396179877697 2.525989550861141e-08 0.8928570218627878 0.1071428661560732 8.396792004617494e-08 2.801321896672704e-08 0.871794850778676 0.102564200188151 2.429729846423638e-07 0.02564070606018842 0.9199971808053746 0.08000163928320791 8.847445958756987e-07 2.951668215400716e-07 0.9998704498352642 0.0001088120416622383 1.555027101711127e-05 5.187852056498521e-06 0.8704498352641089 0.1088120416622383 0.01555027101711128 0.005187852056541487 0.8704498352641089 0.1088120416622383 0.01555027101711128 0.005187852056541487 0.8704498352641089 0.1088120416622383 0.01555027101711128 0.005187852056541487 1.985973147950218e-11 0.7519379844981766 3.088907852480442e-17 0.2480620154819636 0.006636038794786875 0.7452782031658022 5.669024944399105e-19 0.2480857580394109 0.001098297638932226 0.7611202635899621 7.057184378309821e-19 0.2377814387711057 0.002366863905403519 0.7591715976316988 8.82766328052013e-19 0.2384615384628976 0.0009090909104660388 0.7763636363455475 3.198266323174193e-18 0.2227272727439864 0.002304147470786129 0.7096774198716985 5.185716985799737e-17 0.2880184326575154 2.061896901396356e-09 0.5963303923528421 3.206996799680771e-15 0.4036696055852578 2.255596922625585e-07 0.5000207299772192 3.508270518924226e-13 0.4999790444627377 0.0003430480969698187 0.9690277041032479 5.335640925468882e-10 0.03062924726621818 0.4000801992424178 0.4998984670856536 1.523712846745351e-05 0.1000060965434613 0.5185184477547207 0.3703703372483306 0.01851852910964983 0.09259268588729885 0.5897422928936197 0.282052575932672 3.168846560965723e-07 0.1282048142890523 0.5384599271041842 0.3461547965092214 0.0384606147750846 0.07692466161150979 0.3750268156302988 0.4374852146735202 0.06249140659841038 0.1249965630977706 0.06334314895725418 0.9206074613756137 0.002535077248772578 0.01351431241835954 0.01876834043177902 0.4949948033705522 0.0007511339996363193 0.4854857221980324 0.5067451916580334 0.3648596910049097 0.02028061799018062 0.1081144993468762 0.5067451916580334 0.3648596910049097 0.02028061799018062 0.1081144993468762 0.005128205222754909 0.6717948595987847 6.694703702201741e-15 0.3230769351784537 0.006399999997717708 0.6287999998009248 2.054833204518813e-16 0.3648000002013573 0.006160164268293323 0.595482546067698 4.337506200190396e-16 0.3983572896640082 0.01190476182348657 0.5238095245620785 6.755434494295093e-16 0.4642857136144343 2.078744448826144e-10 0.5412541267903881 1.794232932689561e-15 0.4587458730017356 2.321694797394427e-09 0.4666667117071396 2.003931395940192e-14 0.5333332859711455 3.922782638201062e-08 0.4807698970559225 3.385883147501715e-13 0.5192300637159126 8.011140066220299e-06 0.500109689978827 6.914679360090714e-11 0.49988229881196 0.0007300151385343245 0.9474954993206007 6.301001566882661e-09 0.05177447923986334 0.6010528716737421 0.1996329944566802 0.0001599290327385702 0.1991542048368391 0.7916689548980178 0.1666637265153691 0.04166621085894857 1.107727664373392e-06 0.93330747565467 0.0666798649420515 8.433757585823039e-06 4.22564569269035e-06 0.8001269457478163 0.0005589203826061051 0.1992340031068127 8.013076276491837e-05 0.8749347328964723 0.1249941382752303 4.738638007068747e-05 2.374244822667126e-05 0.9784275351910371 0.01509085033036484 0.004318083883941396 0.002163530594656682 0.8274202815282965 0.1207268026429187 0.03454467107153117 0.01730824475725368 0.8274202815282965 0.1207268026429187 0.03454467107153117 0.01730824475725368 0.8274202815282965 0.1207268026429187 0.03454467107153117 0.01730824475725368 0.003891050707231645 0.6614785943709096 1.315149999241824e-15 0.3346303549218574 0.004044489385244395 0.6643073811043524 2.327709736254439e-17 0.3316481295104032 0.006361323154502208 0.5865139948938276 4.633511122475785e-17 0.4071246819516702 0.0112903225586099 0.4903225810119904 9.431040424934046e-17 0.4983870964293995 0.005115089528977137 0.531969310229939 3.749524587866282e-16 0.4629156002410836 7.630449343406685e-10 0.4343434525943966 2.86599334565551e-15 0.5656565466425556 0.01470585589207951 0.4705885627850339 6.87522846977692e-14 0.5147055813228179 1.223946905459014e-06 0.2500667966514766 4.597139078725719e-12 0.7499319793970208 0.0007516563933150172 0.9472714935880427 2.823218036722433e-09 0.05197684719542428 0.5146041834076023 0.4844096232985122 0.0009801056809603816 6.087612925087527e-06 0.941168435005488 0.05882699928481822 4.537526300742509e-06 2.818339306376316e-08 0.8888943129520053 0.1110790598290598 2.646285338593031e-05 1.643655489491636e-07 0.9983486398750822 0.001235309829059829 0.000413482084155161 2.568211702858036e-06 0.9991545036160421 0.0006324786324786325 0.0002117028270874425 1.314924391815353e-06 0.5146041834076023 0.002928141817030706 0.4824615871624419 6.087612925087527e-06 0.9867891190006575 0.009882478632478632 0.003307856673241288 2.054569362264225e-05 0.8943129520052596 0.07905982905982906 0.0264628533859303 0.0001643655489809159 0.8943129520052596 0.07905982905982906 0.0264628533859303 0.0001643655489809159 0.002395209584557433 0.7580838322888233 5.060782924245553e-18 0.2395209581266193 0.005147058823500679 0.7522058823518842 1.467746036167761e-19 0.2426470588246151 0.006852667645351676 0.7537934410154312 3.462532569141078e-19 0.2393538913392171 0.002412545235695267 0.7328106151986191 6.475858988600144e-19 0.2647768395656857 0.00706090026307441 0.6910856134430208 2.027670476985486e-18 0.3018534862939048 2.329253033615114e-11 0.6534482762570416 1.507676426305102e-17 0.3465517237196659 6.874981267484203e-10 0.5775401300337261 4.450030562882958e-16 0.4224598692787753 1.065469283465348e-07 0.3823610708211851 6.896558246141721e-14 0.6176388226318177 3.654559642286144e-05 0.7498472916664819 2.36551947842661e-11 0.2501161627134401 0.6666760337067892 0.1250001587027993 0.1249945383510486 0.0833292692393629 0.7846153972533446 0.1615384463883941 0.03076923472481102 0.02307692163345032 0.8315789263991389 0.1157894868974827 0.04210526039602223 0.01052632630735617 0.8636361953653494 0.1060606772765641 0.03030306141957333 6.593851320513267e-08 0.8387088936361261 0.09677513060703245 0.03225829045822552 0.03225768529861595 0.9994548882465942 0.0003716610240216522 0.0001156318808559251 5.781884852817942e-05 0.8130266685818252 0.1274797312394267 0.0396617351335823 0.01983186504516588 0.9766283335727282 0.01593496640492834 0.004957716891697788 0.002478983130645762 0.8130266685818252 0.1274797312394267 0.0396617351335823 0.01983186504516588 0.002155172419155287 0.7327586204019775 2.061419108233013e-12 0.2650862071768058 0.004421518053842379 0.7288135593120596 0.0007369196755438507 0.2660280029585541 0.003051881993520938 0.7283825025174696 2.175403689570536e-13 0.268565615488792 0.001103752761513607 0.6986754966956555 2.777814847463727e-13 0.300220750542553 0.001675041880813245 0.6549413737629727 9.692182967972881e-13 0.3433835843552449 0.002680965147708198 0.6380697063509532 3.961962398267852e-12 0.3592493284973767 1.598846836734522e-09 0.6525424033187239 1.229940980080352e-10 0.3474575949594352 1.532948985289435e-07 0.4400150110478724 1.179247901713261e-08 0.55998482386475 9.978930135350782e-05 0.5075494139779703 7.676467081671211e-06 0.4923431202535946 0.4292722046375275 0.5706508457660675 7.69197940826416e-05 2.980232238769531e-08 0.6938782989501954 0.2857133858642578 0.02040831506347656 1.22070242802863e-10 0.8529396470851176 0.08823727657218022 0.05882307598681213 3.558900951716737e-10 0.857136304355223 0.04763084457477711 0.09523284963698067 1.433019258811896e-09 0.9999225104863025 6.313157151113794e-05 1.435238140317511e-05 5.560783167268823e-09 0.9966776371002197 0.002706766128540039 0.0006153583526611328 2.384185791015625e-07 0.7873687744140625 0.1732330322265625 0.0393829345703125 1.52587890625e-05 0.7873687744140625 0.1732330322265625 0.0393829345703125 1.52587890625e-05 0.7873687744140625 0.1732330322265625 0.0393829345703125 1.52587890625e-05 0.001014713343649665 0.6128868594572641 0.001014713343370482 0.3850837138557158 0.003426011332188782 0.6226116747923539 0.0001317696666228338 0.3738305442088344 0.002361060661096692 0.5824555030874964 1.025544824776708e-15 0.415183436251406 0.002205882352942741 0.5473039215690353 0.0002450980392146001 0.4502450980388074 0.0007716049383599724 0.5084876543248038 9.824089865540817e-15 0.4907407407368265 0.001715265866584876 0.4639794168794715 1.077673760546131e-13 0.5343053172538359 5.439466273918813e-11 0.4511494282013547 4.029244260417285e-12 0.5488505717402214 2.7838703687854e-09 0.3763443252208904 2.062131308536126e-10 0.623655671789026 2.312238186387252e-06 0.5555750192680519 1.712773270769169e-07 0.4444224972164347 0.2963151343614491 0.5925744462884213 0.03703786247223276 0.07407255687789682 0.7135135129410048 0.1891891899748687 0.05945945879084014 0.03783783829328635 0.7113402045804709 0.1855670195294089 0.06185566298586309 0.04123711290425713 0.7848099801357472 0.1012660043846161 0.06329112335349699 0.05063289212613975 0.8399925938497116 0.1600019483911824 3.138199274778975e-06 2.319559831209794e-06 0.9976786360202375 0.001553959387376663 0.0004412559236281222 0.0003261486687576864 0.709829502529704 0.1942449234220828 0.05515699045351526 0.04076858359469793 0.709829502529704 0.1942449234220828 0.05515699045351526 0.04076858359469793 0.709829502529704 0.1942449234220828 0.05515699045351526 0.04076858359469793 0.001133786854735769 0.6043083899829153 8.228665210003062e-18 0.394557823162349 0.007585899151998747 0.614904060683824 5.026951312884883e-19 0.3775100401641773 0.006627393224970313 0.5883652429998641 2.2571121241207e-18 0.4050073637751656 0.005439709882348797 0.5494106981165567 4.210215091182302e-18 0.4451495920010945 0.004846526659566538 0.5169628435472737 2.377039700873668e-17 0.4781906297931597 0.00628930815859898 0.4371069225464539 1.745176895157836e-16 0.556603769294947 4.670182073854047e-09 0.4716981991119094 4.624450879110523e-15 0.528301796217904 1.695162624681596e-06 0.4286153880446895 1.678563312088354e-12 0.5713829167910074 0.000715146732287548 0.9471168313533668 7.081438972872742e-10 0.05216802120620179 0.684229565629221 0.31576923104439 7.154140244042032e-10 1.202610974915252e-06 0.7701150399796819 0.2183907098873543 8.398455395428756e-12 0.01149425012456529 0.9024381347186288 0.09756173534654897 7.72501915996332e-11 1.298575720287687e-07 0.9749979908160612 2.232242061491781e-06 8.304163020318371e-11 0.02499977685883559 0.8823450831676556 0.1176532661788615 9.813635451360807e-10 1.64967211935263e-06 0.7506922002701404 0.2492307868409606 4.5786497561869e-08 7.696710240145954e-05 0.8365250337675418 0.1538483551200751 5.723312195233625e-06 0.009620887800187772 0.8365250337675418 0.1538483551200751 5.723312195233625e-06 0.009620887800187772 0.8365250337675418 0.1538483551200751 5.723312195233625e-06 0.009620887800187772 0.007246374345846069 0.5579710154527475 3.622668236330713e-14 0.4347826102013702 8.609874841679326e-12 0.6177884607490819 1.341728976418782e-15 0.3822115392423069 1.212763684000411e-11 0.5525606470554507 1.889923147889062e-15 0.4474393529324198 2.075505249563315e-11 0.5645161289003795 3.234385615651106e-15 0.4354838710788622 5.943915937461856e-11 0.522935783397564 9.262764434255658e-15 0.4770642165429877 6.243167734857719e-10 0.4747475605491925 9.729106646186253e-14 0.5252524388263934 1.137769305813114e-08 0.5675674396630797 1.77305486335221e-12 0.4324325489574543 2.275206900458352e-07 0.1539943692392506 3.545592801088284e-11 0.8460054032046034 0.0006243167734857717 0.5605491925036067 9.729106646186248e-08 0.4388263934318412 0.201311438084147 0.7985336603063692 7.745080474185552e-05 7.745080474186317e-05 0.7058441822061344 0.2353366376245157 0.0588163116210261 2.868548323764486e-06 0.4761911411181607 0.4761911411181607 1.571128270495943e-06 0.04761614663540803 0.3751485193774702 0.6248055838493495 2.294838659017942e-05 2.294838659011589e-05 0.4999512263153812 0.4999512263153812 4.877368461877783e-05 4.877368461875253e-05 0.007551103533996238 0.9919261035339962 0.0002613964660037624 0.0002613964660037604 0.4832706261757592 0.4832706261757592 0.0167293738242408 0.01672937382424078 0.4832706261757592 0.4832706261757592 0.0167293738242408 0.01672937382424078 0.4832706261757592 0.4832706261757592 0.0167293738242408 0.01672937382424078 0.00320512820535543 0.7825854700791943 7.688411948796295e-15 0.2142094017154426 0.00616990982438905 0.7770922322415924 1.999339299200078e-16 0.2167378579340183 0.006453154875693074 0.7421128107074465 0.0002390057361350957 0.2511950286807253 0.0023959269242906 0.7238694219830987 1.355846663355262e-15 0.2737346510926094 0.003536693191965825 0.7060123784292206 4.359094812585445e-15 0.2904509283788093 0.004016064257380718 0.6594377510463597 2.611534996905406e-14 0.3365461846962334 3.826998871223128e-11 0.6270161299635831 4.115103956533121e-13 0.3729838699977354 1.159397450788776e-08 0.6164386644148032 1.246679499388109e-10 0.3835613238665543 7.340869884350483e-05 0.6678335753782368 7.893507085313235e-07 0.332092226572211 0.7727287186269967 0.20454389277417 0.02272730918706967 7.941176360937163e-08 0.8877192989622864 0.08421052537615524 0.021052631792554 0.007017543869004328 0.9189189166758177 0.04324324619370601 0.02702702687514246 0.01081081025533381 0.972477013136653 0.01834865682122182 0.009174324605313092 5.4368121116255e-09 0.890909168212948 3.543472476469944e-07 0.09090872158386323 0.01818175585594117 0.9999447250492253 3.601217953864269e-05 1.507504150641085e-05 4.187729729654421e-06 0.996462403150419 0.002304779490473132 0.0009648026564102946 0.0002680147026975499 0.9044848850613119 0.06222904624277457 0.02604967172307796 0.007236396972835624 0.9044848850613119 0.06222904624277457 0.02604967172307796 0.007236396972835624 1.786052198864104e-10 0.6386554623539068 1.700079194022392e-15 0.3613445374674863 0.004158004156078524 0.6881496880968511 2.598866636841559e-17 0.3076923077470705 0.002614379084575568 0.6627450979907527 5.163884814508585e-17 0.3346405229246718 0.003502626964540643 0.6164623468909856 1.240151574126495e-16 0.3800350261444737 3.386942769951613e-11 0.621686747255711 3.223909658520243e-16 0.3783132527104192 1.763819440730951e-10 0.5271966609492973 1.678916626908202e-15 0.4728033388743191 5.13811762434141e-09 0.5324677610948531 4.890790356036636e-14 0.4675322337669804 8.88594750315767e-07 0.3847088057888862 8.458215543141026e-12 0.6152903056079053 0.0003047879993583081 0.08012038558796322 2.901167931297372e-09 0.9195748235115105 0.500705516495403 0.2508234180638183 0.2483766901027583 9.437533802048037e-05 0.6562481061179822 0.3125011249480473 0.03125044066735801 3.282666124482247e-07 0.6896514144282194 0.2413834417502954 0.06896470689862388 4.369228612244314e-07 0.5000401409021054 0.4166376546463256 2.143207230076512e-05 0.08330077237926836 0.1256353766281555 0.8742838508339881 6.459020966362273e-05 1.618232819278198e-05 0.5881895619253651 0.352927257977285 0.04708626284478096 0.01179691725256893 0.5881895619253651 0.352927257977285 0.04708626284478096 0.01179691725256893 0.5881895619253651 0.352927257977285 0.04708626284478096 0.01179691725256893 0.5881895619253651 0.352927257977285 0.04708626284478096 0.01179691725256893 2.468611056015766e-11 0.587734241533388 1.592682434570056e-12 0.4122657584403331 0.003172924378908162 0.5600211528220378 0.00105764145943686 0.4357482813396172 0.005162241887848132 0.5508849557364813 1.295751217487541e-13 0.443952802375541 0.01413760602443194 0.4590009425509622 2.703258755687742e-13 0.5268614514243355 0.002463054191947836 0.432266009999805 6.025450621613968e-13 0.5652709358076446 1.265672986467016e-10 0.382352944435394 8.165786702378634e-12 0.6176470554298729 0.009433958659919587 0.3113209181842527 2.643077121757341e-10 0.6792451228915201 4.124783324067194e-07 0.2727469035252291 2.661200892963737e-08 0.7272526573844296 0.0001858749581626872 0.9819101922764081 1.199215972766289e-05 0.01789194060570154 0.6667353608969618 0.3332474548034252 8.592149806554394e-06 8.592149806530003e-06 0.7826090325639851 0.1956516827504804 0.02173910286692857 1.818186059487914e-07 0.7400005849024178 0.1799997335730837 0.01999999153382278 0.05999968999067573 0.9473662332117976 0.02631778449068806 0.02631566406974367 3.182277705793268e-07 0.9997497776277434 0.0001984337491426612 2.58943115569273e-05 2.589431155697319e-05 0.9991554994936342 0.0006697139033564814 8.739330150462962e-05 8.739330150464575e-05 0.817587890625 0.144658203125 0.018876953125 0.01887695312499993 0.817587890625 0.144658203125 0.018876953125 0.01887695312499993 0.817587890625 0.144658203125 0.018876953125 0.01887695312499993 0.003724394770815837 0.5921787706275131 6.270355268801905e-17 0.4040968346016709 0.001375515818434564 0.5722145804578678 3.16993235768919e-18 0.4264099037236977 0.0009372071231406414 0.5932521086739574 8.015400307853925e-18 0.405810684202902 0.0009881422928706251 0.4861660079588544 9.393136617026265e-18 0.512845849748275 0.001757469242269861 0.4780316347918352 5.272473528738274e-17 0.5202108959658949 5.389771584402791e-11 0.4693877579306292 3.803408099981506e-16 0.5306122420154726 1.098411678853044e-09 0.4859813528841015 7.75117796931066e-15 0.514018646017479 1.729602965989158e-07 0.2631927505421601 1.220531487759534e-12 0.7368070764963228 0.001383682372791326 0.542004337280695 9.764251902076271e-09 0.4566119705822619 0.4737298826530611 0.5262679602040816 2.156122448979592e-06 1.020408202379031e-09 0.8823528093940334 0.1029413004868441 0.01470589009427319 2.48494558263701e-11 0.9032238483039701 0.09677562504982462 5.263970822704082e-07 2.491230555179413e-10 0.8611106757985605 0.08333452473955448 0.05555479930072437 1.611606403884025e-10 0.8571374996220711 0.1428573871504157 5.110808767951626e-06 2.418745204124662e-09 0.9940393046107332 0.005321541950113379 0.0006388510959939533 3.023431595083892e-07 0.9987124897959184 0.00114945306122449 0.0001379918367346939 6.5306122398745e-08 0.8390612244897959 0.1436816326530612 0.01724897959183674 8.163265306171397e-06 0.8390612244897959 0.1436816326530612 0.01724897959183674 8.163265306171397e-06 1.083477011706181e-11 0.7614814811381095 1.87258060685374e-17 0.2385185188510557 0.004863813229397715 0.6974708171157898 6.646266233640741e-19 0.2976653696548125 0.00359971202294407 0.646508279340967 2.153952929617991e-18 0.3498920086360889 0.003384094754630744 0.6379018612626892 3.494027954479281e-18 0.35871404398268 0.003816793892166045 0.5826972011669804 1.186742271468949e-17 0.4134860049408535 7.609141720500047e-11 0.5255681847699714 1.315093081501768e-16 0.4744318151539371 2.656981451707818e-09 0.5046730168550272 4.592078913980131e-15 0.4953269804879868 1.700468129093003e-07 0.4230887267428692 2.938930504947283e-13 0.576911103210024 0.003347031418493759 0.655408479893643 5.78469691288774e-09 0.3412444829031662 0.7777785 0.2221812111111111 2.685555555555556e-05 1.343333333325702e-05 0.7368423187707573 0.210526165541387 0.03508767710625464 0.01754383858160102 0.8222217730336155 0.1333338252148343 0.0222222698236578 0.02222213192789235 0.7999987767410105 0.1600012068224347 0.03999925213675214 7.642998026691217e-07 0.7000589782118708 0.2999107521495951 2.017697637532348e-05 1.009266215878935e-05 0.9965390625 0.002831423611111111 0.0004196180555555556 0.0002098958333333067 0.7785000000000001 0.1812111111111111 0.02685555555555556 0.0134333333333333 0.7785000000000001 0.1812111111111111 0.02685555555555556 0.0134333333333333 0.7785000000000001 0.1812111111111111 0.02685555555555556 0.0134333333333333 0.005464481182704615 0.6393442513476418 9.719392762889657e-15 0.3551912674696438 0.01043219075002019 0.6378539491095416 1.99519240204349e-16 0.3517138601404379 0.01116071424400882 0.5825892855878796 6.688882676136568e-16 0.406250000168111 0.0028169015097114 0.5408450710941531 1.341969383006384e-15 0.4563380273961342 5.91453813269851e-10 0.4545454638831751 4.848737207186783e-15 0.5454545355253662 7.611656953723815e-09 0.4489797177438505 6.240034885534479e-14 0.5510202746444302 1.582986782094749e-07 0.2571495873444003 1.297732255100998e-12 0.7428502543556237 0.1110073855831306 0.3335711471403412 6.054699609399218e-11 0.5554214672159812 0.0009231978913176578 0.9463933925426444 7.568374511749024e-09 0.05268340199766341 0.08676497443389336 0.9097196859021184 0.003492512783053324 2.282688093491192e-05 0.6999993650572801 0.2999975982601465 3.016963855353265e-06 1.971871799177904e-08 0.6666941197954711 0.2222777574872169 0.1110279401022644 1.826150476391675e-07 0.5071896220544869 0.4917687958228498 0.00103481860238617 6.763520277064394e-06 0.9886711035359683 0.01028731434136839 0.00103481860238617 6.763520277064394e-06 0.9886711035359683 0.01028731434136839 0.00103481860238617 6.763520277064394e-06 0.6941197954711469 0.2777574872169467 0.02794010226442659 0.0001826150474799615 0.6941197954711469 0.2777574872169467 0.02794010226442659 0.0001826150474799615 0.6941197954711469 0.2777574872169467 0.02794010226442659 0.0001826150474799615 0.001703577514324463 0.7359454854726154 8.957920987742511e-14 0.2623509370129705 0.005286141116971597 0.683750861870543 0.0002298322224765661 0.3107331647900089 0.00545921644183421 0.6653821451507446 0.0003211303789280304 0.3288375080284932 0.00509404388709446 0.6289184952996579 8.733098989271989e-15 0.3659874608132389 0.0006250000008746282 0.6200000000096839 3.54117045034957e-14 0.379374999989406 0.00281690141233829 0.5929577466646757 4.043077117392357e-13 0.4042253519225817 4.422903201336106e-10 0.5687203886996354 1.525152407151736e-11 0.4312796108428227 3.371359026715216e-08 0.5918372779190411 1.162547788387989e-09 0.4081626872048209 0.0001560814364220007 0.9873977733381589 5.382165686981427e-06 0.01244076305973207 0.3714363282451635 0.5428499983718684 5.613798639346925e-07 0.08571311200310405 0.7025316532316651 0.2151898720081972 0.04430379296250744 0.03797468179763031 0.7706421738021084 0.174311953060885 0.02752293477966862 0.02752293835733799 0.8780485273897558 0.1097562720454258 4.580681080846017e-08 0.01219515475800759 0.7333333332417963 0.2333325341223152 0.03333309361011486 1.039025773641455e-06 0.9992225382109317 0.0006108572533291836 7.636075490302339e-05 9.024378083610785e-05 0.7333306063495466 0.2095240378919099 0.02619173893173701 0.03095361682680653 0.7333306063495466 0.2095240378919099 0.02619173893173701 0.03095361682680653 0.7333306063495466 0.2095240378919099 0.02619173893173701 0.03095361682680653 6.33226844045243e-11 0.8333333262835906 1.677288808956223e-15 0.1666666736530851 0.002257336341247837 0.7889390518301229 3.621828231157166e-17 0.2088036118286293 0.001501501499657207 0.7207207207422157 8.517677789421248e-17 0.277777777758127 5.179804612051663e-12 0.7218309859440903 1.372024636996176e-16 0.2781690140507297 1.191841124509573e-11 0.6627906984776423 3.156944148834724e-16 0.3372093015104389 5.069968572767487e-11 0.6264150996891568 1.342931309503215e-15 0.3735849002601422 2.17374902557406e-09 0.4933338658586994 5.757817989495035e-14 0.5066661319674941 1.86371807080156e-06 0.5717326156023548 4.936609198743306e-11 0.4282655206302084 0.0001192779565312998 0.09088739855070632 3.159429887195716e-09 0.9089933203333325 0.9930268595041323 0.006952479338842976 1.033057851239669e-05 1.033057851229646e-05 0.8333494991800603 0.1666504767217832 1.2049078305755e-08 1.20490782906657e-08 0.9999834710743801 1.647995102540557e-05 2.448729721456994e-08 2.448729730097909e-08 0.9999834710743801 1.647995102540557e-05 2.448729721456994e-08 2.448729730097909e-08 0.99974173553719 0.000257499234771962 3.826140189776552e-07 3.826140190232863e-07 0.9979338842975206 0.002059993878175696 3.060912151821242e-06 3.060912151853223e-06 0.9442148760330579 0.0556198347107438 8.264462809917356e-05 8.264462809914885e-05 0.9442148760330579 0.0556198347107438 8.264462809917356e-05 8.264462809914885e-05 0.9442148760330579 0.0556198347107438 8.264462809917356e-05 8.264462809914885e-05 7.387749271915288e-10 0.7089201928107728 4.623093267198133e-15 0.2910798064504476 0.009817671802175718 0.7854137446654716 1.244741988700397e-16 0.2047685835323525 0.01158301155194711 0.7683397682664638 3.240946795564721e-16 0.2200772201815888 0.007159904535690645 0.7708830547199533 6.115417390485051e-16 0.2219570407443554 0.003460207767446325 0.7197231849642012 1.8577188225276e-15 0.2768166072683506 2.326456306874743e-09 0.7034482934203071 1.455845900135008e-14 0.296551704253222 1.050514128502479e-07 0.7749997546742082 6.573889578303511e-13 0.2250001402737215 5.439705803945859e-06 0.6001187767852016 3.40404991454738e-11 0.3998757834749539 0.0009050310531314921 0.9697614876379196 5.663488045328203e-09 0.02933347564546096 0.1131794410150892 0.8867991255144033 1.071673525377229e-05 1.071673525376848e-05 0.8636397990900074 0.1363601868171378 7.046427388031424e-09 7.046427330514859e-09 0.9999054355281208 9.439300411522636e-05 8.573388203017833e-08 8.573388199373255e-08 0.9230704939971286 0.07692944351461924 3.124412610429239e-08 3.124412606414495e-08 0.9995622015190774 0.0004370046486816034 3.969161205100848e-07 3.969161205263916e-07 0.9985224301268861 0.001474890689300412 1.339591906721536e-06 1.339591906734938e-06 0.9054355281207134 0.09439300411522634 8.573388203017833e-05 8.573388203014787e-05 0.9054355281207134 0.09439300411522634 8.573388203017833e-05 8.573388203014787e-05 0.9054355281207134 0.09439300411522634 8.573388203017833e-05 8.573388203014787e-05 8.714805908946916e-09 0.7115374544609178 2.817590012591955e-12 0.2884625368214587 1.952593234558892e-10 0.6417112178912334 6.312942885738415e-14 0.358288781913444 4.62836914858404e-10 0.5500000041408716 1.496401276619476e-13 0.4499999953961419 0.006493505098166335 0.4805195022947274 1.126445834794811e-13 0.5129869926069937 5.905480925381385e-10 0.5193798641819655 1.909305181177299e-13 0.4806201352272955 2.841928533767088e-09 0.5263158667780381 9.188259081044578e-13 0.4736841303791145 5.910323247568743e-08 0.5925911811123388 1.91087075576099e-11 0.40740875976532 6.006639626418011e-06 0.2016741100836165 1.942010871780799e-09 0.7983198813347462 0.0001621792699132863 0.9452009722576444 5.243429353808156e-08 0.05463679603814875 0.6625000000000001 0.3325 0.0025 0.002499999999999947 0.5060185185185184 0.4937962962962963 9.25925925925926e-05 9.259259259264407e-05 0.6625000000000001 0.3325 0.0025 0.002499999999999947 0.799363425925926 0.200613425925926 1.157407407407408e-05 1.157407407403888e-05 0.5060185185185184 0.4937962962962963 9.25925925925926e-05 9.259259259264407e-05 0.6625000000000001 0.3325 0.0025 0.002499999999999947 0.6625000000000001 0.3325 0.0025 0.002499999999999947 0.6625000000000001 0.3325 0.0025 0.002499999999999947 0.6625000000000001 0.3325 0.0025 0.002499999999999947 3.639550837254315e-11 0.7367088598278982 1.6988432610867e-16 0.263291140135706 0.002164502164538003 0.7085137085025941 3.953752561935464e-18 0.2893217893328679 0.002929687499378249 0.6855468749937884 9.79641722787832e-18 0.3115234375068333 0.003080082134638957 0.6611909651114632 1.138216881206025e-17 0.3357289527538978 0.00309597522911202 0.6656346749714226 3.89516650989601e-17 0.3312693497994654 6.404892082668969e-11 0.5840978620125759 2.989629280968726e-16 0.4159021379233749 2.129770623869868e-09 0.5742575243096494 9.941189541815226e-15 0.42574247356057 8.236623994955156e-07 0.3847226157413976 3.844631877292511e-12 0.6152765605923582 0.000282516203026962 0.9598571992993837 1.318708733911332e-09 0.03986028317888057 0.5023195765121067 0.4973600627389472 0.0002401725321046956 8.018821684141475e-05 0.7560980178580069 0.2439014416348446 4.052149675127815e-07 1.352921810138241e-07 0.7692318217275829 0.1153873905320514 0.0769206940794855 0.03846009366088021 0.9411505396200298 0.05884259393730597 5.147730883588298e-06 1.718711780673843e-06 0.7777899470640133 0.1111700078423684 0.1110300215665131 1.002352710521848e-05 0.9967179228752084 0.002656372537006176 0.0004690869767669837 0.0001566176110184836 0.789947064013332 0.1700078423683953 0.03002156651308695 0.01002352710518573 0.789947064013332 0.1700078423683953 0.03002156651308695 0.01002352710518573 0.789947064013332 0.1700078423683953 0.03002156651308695 0.01002352710518573 8.228842453196096e-12 0.5422794114888319 5.590360165761595e-17 0.4577205885029392 0.0006821282403150074 0.5184174624763597 2.86641424892841e-18 0.4809004092833253 0.001740644038025527 0.5378590078064412 5.950257693027098e-18 0.4604003481555332 0.00341296928022292 0.5073947667660906 1.327948641893224e-17 0.4891922639536864 0.001464128842925559 0.4494875550552432 2.827880091235959e-17 0.5490483161018311 3.002745109324103e-11 0.368271957589999 2.039949937379229e-16 0.6317280423799734 4.280255431205481e-10 0.3655172838273469 2.907841485360083e-15 0.6344827157446247 3.706691436861759e-08 0.1562594991597538 2.518184091293817e-13 0.84374046377308 1.065658961332008e-05 0.2519809704325737 7.239678535106071e-11 0.7480083729054162 0.9984604659859522 0.001025339815296566 1.01619406867846e-06 0.0005131780046826462 0.8461566564966265 0.07692250275609303 3.304192470427344e-09 0.07692083744308797 0.9000011042998505 0.09997417111057776 4.886282524073738e-08 2.467572674658136e-05 0.9999759447810305 1.602093461400884e-05 1.587803232310093e-08 8.018406323140326e-06 0.857229433248244 0.1427062924769121 1.270242585848075e-07 6.414725058545567e-05 0.9014698231009365 0.06562174817898023 6.503642039542143e-05 0.0328433922996878 0.9014698231009365 0.06562174817898023 6.503642039542143e-05 0.0328433922996878 0.9014698231009365 0.06562174817898023 6.503642039542143e-05 0.0328433922996878 0.9014698231009365 0.06562174817898023 6.503642039542143e-05 0.0328433922996878 4.811414304854424e-12 0.762390670354077 3.701190397746102e-13 0.2376093296407414 0.002547307132412448 0.7485443959218557 0.0003639010189111128 0.2485443959268206 0.001669449081784187 0.6900389538132075 2.064631626908337e-14 0.3082915971049877 0.002201027145748893 0.6698459281107118 4.728991430190406e-14 0.3279530447434921 1.514184669779865e-12 0.6541129831938316 1.164789686589493e-13 0.3458870168045377 1.071977657590174e-11 0.5942857149955408 8.246210285545462e-13 0.4057142849929147 3.065897459223057e-10 0.5614035355353729 2.358447956789264e-11 0.4385964641344529 4.760943540829054e-08 0.3871062496306479 3.662365658211796e-09 0.6128936990975511 2.437603092904475e-05 0.01089981089174853 1.875131217004439e-06 0.9890739379461054 0.5000171935711226 0.4166526567626208 0.04166519423446331 0.04166495543179327 0.7378641050380746 0.2330096774027047 0.02912620428773033 1.327149035112996e-08 0.8124998403260766 0.1562501511585469 0.01562501105111876 0.01562499746425772 0.7954542512982034 0.20454538010333 2.04772713188593e-07 1.638257534075649e-07 0.9545301758485074 1.625395873668112e-05 1.533649501874788e-06 0.04545203654325403 0.8999013144619009 0.0001485814545072872 1.401946918806202e-05 0.09993608461440373 0.9710811935987618 0.0247202394936499 0.002332489186163818 0.001866077721424553 0.7686495487900942 0.1977619159491992 0.01865991348931054 0.01492862177139609 0.7686495487900942 0.1977619159491992 0.01865991348931054 0.01492862177139609 5.715369106535475e-12 0.5851063828382596 1.549128209262586e-17 0.4148936171560251 0.0004708097930489301 0.5621468926515101 6.892796993599617e-19 0.437382297555441 0.009113504552966643 0.5385252692550382 3.752074803723202e-18 0.4523612261919951 0.001040582727898881 0.4953173777650213 7.429285957290642e-18 0.5036420395070798 0.003124999997399984 0.4359375003386685 2.511297720614365e-17 0.5609374996639316 6.852381244781292e-11 0.4146341494444137 1.857310855877035e-16 0.5853658504870624 1.523602323695464e-09 0.3793104358757107 4.12966388581227e-15 0.620689562600683 3.050276610576079e-07 0.4736906417755664 8.267654206434307e-13 0.5263090531959458 0.002440221288460863 0.5251342045315529 6.614123365147444e-09 0.4724255675658628 0.8181918457731381 0.1817763973855613 2.380442097502909e-05 7.952420325585408e-06 0.7916694726077428 0.208327015339664 2.632578524470417e-06 8.794740686823843e-07 0.7368544386869978 0.05263870183528124 0.1578801417549306 0.05262671772279037 0.999904808736101 6.343442259827394e-05 2.380442097502909e-05 7.95242032569643e-06 0.9996787294843408 0.0002140911762691745 8.033992079072316e-05 2.683941859937811e-05 0.9794386869978087 0.01370183528122717 0.005141754930606283 0.001717722790357867 0.8355094959824688 0.1096146822498174 0.04113403944485026 0.01374178232286349 0.8355094959824688 0.1096146822498174 0.04113403944485026 0.01374178232286349 0.8355094959824688 0.1096146822498174 0.04113403944485026 0.01374178232286349 0.001628664496722625 0.7100977198414653 5.531821310346268e-19 0.2882736156618121 0.005771737106676581 0.6842301247438243 6.62393069252562e-21 0.3099981381494992 0.00486130969401769 0.6542750929368825 2.399188528709322e-20 0.3408635973690999 0.005160339107971236 0.6472539624037648 5.136818981520523e-20 0.347585698488264 0.00294985250771592 0.6371681415971233 2.104971634673508e-19 0.3598820058951607 0.003592814373006621 0.5497005989871903 1.757538953545298e-18 0.4467065866398031 3.997854648663189e-10 0.511111123807875 8.89607579043036e-17 0.4888888757923394 1.076336789083087e-07 0.4411815200487848 2.395077983866514e-14 0.5588183723175124 3.691835186554988e-05 0.2532613767331747 8.215117484662142e-12 0.7467017049067447 0.5428624161145297 0.4285658150522198 0.0285714353990046 3.33434245880504e-07 0.7611940332104695 0.1940298474265138 0.03980099370110968 0.004975125661907054 0.8275861827334315 0.1379310524246971 0.0172413865833856 0.01724137825848582 0.8732392106219979 0.0704227930680844 0.02816901601609642 0.0281689802938212 0.9047510223741076 1.565243016213275e-05 2.713183316944051e-06 0.09523061201241334 0.9993845079868726 0.0004859098436337887 8.422733515691037e-05 4.535483433665277e-05 0.7888862394973477 0.1666670763663896 0.02888997595882026 0.01555670817744248 0.7888862394973477 0.1666670763663896 0.02888997595882026 0.01555670817744248 0.7888862394973477 0.1666670763663896 0.02888997595882026 0.01555670817744248 5.377035197313576e-10 0.61864406339127 3.326611603354167e-15 0.3813559360710231 0.01331360944761709 0.6065088755897559 1.427187817814374e-16 0.380177514962627 0.005940594068802344 0.574257425632524 3.418185169231827e-16 0.4198019802986733 0.004878048813326677 0.5341463418358026 6.378545685116496e-16 0.4609756093508701 0.01052631564548687 0.5333333344732412 1.892993124899574e-15 0.4561403498812701 1.358751925380442e-09 0.4450867270156599 8.406193664695844e-15 0.5549132716255798 1.630598883071142e-08 0.4000003644844936 1.008802986365215e-13 0.5999996192094167 1.747543396716401e-06 0.4000390624865937 1.081153075543595e-11 0.5999591899591981 0.007157937752950379 0.5599999450878028 4.428402997426566e-08 0.4328420728752168 0.9989570439862335 0.001042012589059292 4.717123535804855e-07 4.717123535113998e-07 0.9487177070439863 0.05128229201258906 4.717123535804857e-10 4.717123358588537e-10 0.9523791557865438 0.04762083854298457 2.835235784105098e-09 2.835235823894777e-09 0.8001001133096312 0.1998998413265964 2.268188627284078e-08 2.268188625809131e-08 0.9411751115938132 0.05882487805310353 5.176541603078031e-09 5.176541639784205e-09 0.933250815118947 0.06668880569979471 3.018959062915107e-05 3.018959062905946e-05 0.933250815118947 0.06668880569979471 3.018959062915107e-05 3.018959062905946e-05 0.933250815118947 0.06668880569979471 3.018959062915107e-05 3.018959062905946e-05 0.933250815118947 0.06668880569979471 3.018959062915107e-05 3.018959062905946e-05 0.001091107474474122 0.6322967812216902 1.851819114702631e-14 0.3666121113038171 0.003057519587237831 0.6067265430916106 0.0001910949742016424 0.3900248423469499 0.004678970626441208 0.5744736158043187 2.004893770966752e-15 0.4208474135692382 0.005384859043335278 0.5321507760541891 0.0003167564143109596 0.4621476084881646 0.002453385672349263 0.5039254170825127 1.347549971794213e-14 0.4936211972451245 0.001003009029577304 0.4373119359336949 1.149224650150173e-13 0.5616850550366128 0.006042296002601339 0.4048338411754623 3.121636323248641e-12 0.5891238628188147 1.10806862805291e-08 0.447761559982509 3.633036980177834e-10 0.552238428573501 1.613019605814502e-05 0.5998279093531143 5.288625387737392e-07 0.4001554315882888 0.5000639182698666 0.4284925744538539 0.07142545734184343 1.804993443599301e-05 0.6842105953439529 0.1710526127109799 0.06578946301478474 0.07894732893028256 0.7037037759528824 0.1481482340422645 0.05555558778980448 0.09259240221504861 0.7419346839648682 0.1290332775507128 0.09677309932033452 0.03225893916408451 0.9444110984342907 0.05557113847233663 8.881546686333144e-06 8.88154668632346e-06 0.9977257932863993 0.001299510254055709 0.0004873482297724722 0.0004873482297724774 0.7157241607999184 0.1624387817569636 0.06091852872155903 0.06091852872155901 0.7157241607999184 0.1624387817569636 0.06091852872155903 0.06091852872155901 0.7157241607999184 0.1624387817569636 0.06091852872155903 0.06091852872155901 0.008474576256736198 0.6999999995561333 8.314021677725428e-13 0.291525424186299 0.004522613065449417 0.6402010050210931 2.174502018300961e-14 0.3552763819134357 0.005063291139497302 0.5915611814446778 1.028772929796144e-13 0.4033755274157219 0.01155462184173455 0.5703781513044045 0.00105042016705189 0.4170168066868091 0.00151745069667642 0.5660091048514581 5.969552672454611e-13 0.4324734444512686 1.67592891731069e-10 0.542319751232141 5.237495468505893e-12 0.4576802485950285 4.610923678811762e-09 0.4857143887024157 1.440973517668957e-10 0.5142856065425633 2.790064459809821e-07 0.6153842592489144 8.719313697708737e-09 0.384615453025326 0.0006864604845304589 0.9510468495477657 2.145278143900014e-05 0.04824523718626483 0.8000879046271007 0.1998840320383087 2.182525621599975e-05 6.238078374631861e-06 0.8738739045709522 0.08108105585954796 0.03603603106309791 0.009009008506401961 0.9531248684608418 1.662144487532704e-07 0.03124999198694957 0.01562497333775992 0.9642837755159569 1.871607814542084e-06 0.03571401244069144 3.404355370939527e-07 0.9999922052083651 4.28687481112574e-06 2.728157026999969e-06 7.797597968428605e-07 0.9997580205792153 0.0001330805918042766 8.46921749956142e-05 2.420665398483735e-05 0.989625132333857 0.00570583037360836 0.003631177002936958 0.001037860289597736 0.9170010586708559 0.04564664298886688 0.02904941602349567 0.008302882316781557 0.9170010586708559 0.04564664298886688 0.02904941602349567 0.008302882316781557 1.140024279302008e-10 0.7681660865510405 2.199078488651855e-15 0.2318339133349548 0.00309597523103299 0.729102167019434 1.980258481211623e-16 0.2678018577495328 2.54580071745744e-11 0.6645702307940493 4.910786283940201e-16 0.3354297691804923 0.008522727142181314 0.6505681825985298 1.219300095565333e-15 0.3409090902592877 0.004347825959796767 0.6260869612925086 4.351097191362023e-15 0.3695652127476903 2.088959590375408e-09 0.5963303417680891 4.029551108920368e-14 0.4036696561429111 2.514110618118552e-08 0.5531926802420296 4.849656870273627e-13 0.4468072946163792 3.81399892289392e-06 0.5002536259623238 7.357109089126213e-11 0.4997425599651822 0.002780405214789668 0.684893326534058 5.36333252597301e-08 0.3123262146178272 0.9664292800453513 0.03353528911564625 1.771541950113378e-05 1.771541950124078e-05 0.8888659329698736 0.1111340257053397 2.066239335312295e-08 2.066239335185571e-08 0.7777314342403628 0.2222682823129252 1.417233560090703e-07 1.417233559397602e-07 0.5003174680937762 0.4996821430904323 1.944078957600415e-07 1.944078957816231e-07 0.3395536600056689 0.6604419111394557 2.214427437641723e-06 2.21442743764122e-06 0.508571638531956 0.491417863441673 5.249013185521122e-06 5.249013185548712e-06 0.7314342403628119 0.2682823129251701 0.0001417233560090703 0.0001417233560090381 0.7314342403628119 0.2682823129251701 0.0001417233560090703 0.0001417233560090381 0.7314342403628119 0.2682823129251701 0.0001417233560090703 0.0001417233560090381 4.728254542872806e-10 0.7720207206258163 5.034074573194365e-15 0.2279792789013533 0.001436781615147693 0.7945402297158521 1.085491683011159e-16 0.204022988669 0.003738317755151847 0.7476635513342174 2.386879340492464e-16 0.2485981309106305 0.00209643607111462 0.71278826018201 3.365434517257994e-16 0.285115303746875 0.01275510188755342 0.6887755110026241 6.055460609736452e-16 0.2984693871098218 3.113088371012036e-10 0.6621621689328181 3.314440639885053e-15 0.3378378307558697 7.561951067558937e-09 0.6842106424854388 8.051052507382421e-14 0.3157893499525296 7.026827206850973e-07 0.6875101253419194 7.481317228481207e-12 0.3124891719678786 0.003452280206725883 0.7372458048501073 3.675571154352818e-08 0.2593018781874553 0.3400363592128028 0.6594988255718954 0.000464439758746636 3.754565550684319e-07 0.7000020921415737 0.2999969092959821 9.977558510887418e-07 8.065932366463358e-10 0.6400069598878937 0.2399981750589782 0.1199948636859672 1.367160828991132e-09 0.9090788466334857 0.09091870837812126 2.443013442901677e-06 1.974950203376125e-09 0.8666411931127 0.1333515441495609 7.256871230416187e-06 5.866508723251229e-09 0.9988996619889786 0.0009626149842653111 0.0001376117803693736 1.112463866581592e-07 0.9702908737024221 0.0259906045751634 0.003715518069973087 3.003652441435634e-06 0.7623269896193772 0.2079248366013072 0.0297241445597847 2.402921953092996e-05 0.7623269896193772 0.2079248366013072 0.0297241445597847 2.402921953092996e-05 5.836933780624562e-13 0.6776669224759466 4.720906712809648e-19 0.3223330775234697 0.001565645269511615 0.6752404383804392 1.170449844354057e-20 0.3231939163500491 0.00167457437900374 0.659503209600776 2.273810092912706e-20 0.3388222160202202 0.00128040973111441 0.6478873239438659 3.430110633294393e-20 0.3508322663250196 0.001636661211073789 0.6213857064973948 1.696915430548699e-19 0.3769776322915315 2.271715539771905e-12 0.6002415459882763 1.837361454553907e-18 0.399758454009452 7.536304240702135e-11 0.5953307427224244 6.095355989442046e-17 0.4046692572022125 8.693405382520402e-09 0.5576929553421172 7.031218336543242e-15 0.4423070359644705 4.793511530124037e-05 0.5057078691992022 3.876987749220549e-11 0.4942441956467267 0.6153954413933267 0.3076832521004223 0.03846122871128617 0.03846007779496485 0.7522124408542338 0.1681415668053683 0.06194688268773944 0.01769910965265853 0.9315065950509962 0.05479470478326212 0.01369867620063038 2.396511133984092e-08 0.8571427477758211 0.126984136394854 0.01587307878389071 3.704543416471751e-08 0.9999902408366436 7.365219197306705e-06 1.841415808237228e-06 5.525283508500678e-07 0.8333191631045164 0.1665581664507634 9.435779663433679e-05 2.831264808578204e-05 0.9973198897632675 0.002022673322060354 0.0005056988163371488 0.0001517380983350192 0.8284729448491155 0.1294510926118627 0.03236472424557752 0.009711238293444335 0.8284729448491155 0.1294510926118627 0.03236472424557752 0.009711238293444335</probabilities>
		</cpt>
		<cpt id="officer_race">
			<state id="Amerindian" />
			<state id="Asian" />
			<state id="Black" />
			<state id="Hispanic" />
			<state id="SMulti_Race" />
			<state id="Other" />
			<state id="White" />
			<parents>county_name officer_age</parents>
