<?xml version="1.0" encoding="ISO-8859-1"?>
<!-- This network was created in GeNIe Academic, which can be used for educational and research purposes only -->
<smile version="1.0" id="Unnamed" numsamples="10000" discsamples="10000">
	<nodes>
		<cpt id="driver_gender">
			<state id="F" />
			<state id="M" />
			<probabilities>0.315 0.6850000000000001</probabilities>
		</cpt>
		<cpt id="driver_race">
			<state id="Black" />
			<state id="Hispanic" />
			<state id="Other" />
			<state id="White" />
			<probabilities>0.2425 0.0925 0.0225 0.6425</probabilities>
		</cpt>
		<cpt id="stop_outcome">
			<state id="Arrest" />
			<state id="Citation" />
			<state id="Warning" />
			<probabilities>0.03333333333333334 0.7033333333333335 0.2633333333333334</probabilities>
		</cpt>
		<cpt id="Node2">
			<state id="State2" />
			<state id="State0" />
			<state id="State1" />
			<parents>stop_outcome</parents>
			<probabilities>0.3333333333333333 0.3333333333333333 0.3333333333333333 0.3333333333333334 0.3333333333333334 0.3333333333333334 0.3333333333333334 0.3333333333333334 0.3333333333333334</probabilities>
		</cpt>
		<cpt id="search_conducted">
			<state id="FALSE" />
			<state id="TRUE" />
			<parents>Node2</parents>
			<probabilities>0.926470588235294 0.07352941176470598 0.926470588235294 0.07352941176470598 0.926470588235294 0.07352941176470598</probabilities>
		</cpt>
		<cpt id="officer_race">
			<state id="Asian" />
			<state id="Black" />
			<state id="White" />
			<probabilities>0.01333333333333333 0.04333333333333333 0.9433333333333334</probabilities>
		</cpt>
		<cpt id="county_name">
			<state id="Aiken_County" />
			<state id="Allendale_County" />
			<state id="Anderson_County" />
			<state id="Berkeley_County" />
			<state id="Charleston_County" />
			<state id="Cherokee_County" />
			<state id="Chester_County" />
			<state id="Dorchester_County" />
			<state id="Edgefield_County" />
			<state id="Fairfield_County" />
			<state id="Florence_County" />
			<state id="Greenville_County" />
			<state id="Hampton_County" />
			<state id="Horry_County" />
			<state id="Jasper_County" />
			<state id="Kershaw_County" />
			<state id="Lancaster_County" />
			<state id="Laurens_County" />
			<state id="Lexington_County" />
			<state id="Newberry_County" />
			<state id="Pickens_County" />
			<state id="Richland_County" />
			<state id="Saluda_County" />
			<state id="Spartanburg_County" />
			<state id="Sumter_County" />
			<state id="Union_County" />
			<state id="Williamsburg_County" />
			<state id="York_County" />
			<parents>driver_gender driver_race search_conducted stop_outcome officer_race</parents>
			<probabilities>0.03571428571428572 0.03571428571428572 0.03571428571428572 0.03571428571428572 0.03571428571428572 0.03571428571428572 0.03571428571428572 0.03571428571428572 0.03571428571428572 0.03571428571428572 0.03571428571428572 0.03571428571428572 0.03571428571428572 0.03571428571428572 0.03571428571428572 0.03571428571428572 0.03571428571428572 0.03571428571428572 0.03571428571428572 0.03571428571428572 0.03571428571428572 0.03571428571428572 0.03571428571428572 0.03571428571428572 0.03571428571428572 0.03571428571428572 0.03571428571428572 0.03571428571428572 0.03571428571428572 0.03571428571428572 0.03571428571428572 0.03571428571428572 0.03571428571428572 0.03571428571428572 0.03571428571428572 0.03571428571428572 0.03571428571428572 0.03571428571428572 0.03571428571428572 0.03571428571428572 0.03571428571428572 0.03571428571428572 0.03571428571428572 0.03571428571428572 0.03571428571428572 0.03571428571428572 0.03571428571428572 0.03571428571428572 0.03571428571428572 0.03571428571428572 0.03571428571428572 0.03571428571428572 0.03571428571428572 0.03571428571428572 0.03571428571428572 0.03571428571428572 0.03571428571428572 0.03571428571428572 0.03571428571428572 0.03571428571428572 0.03571428571428572 0.03571428571428572 0.03571428571428572 0.03571428571428572 0.03571428571428572 0.03571428571428572 0.03571428571428572 0.03571428571428572 0.03571428571428572 0.03571428571428572 0.03571428571428572 0.03571428571428572 0.03571428571428572 0.03571428571428572 0.03571428571428572 0.03571428571428572 0.03571428571428572 0.03571428571428572 0.03571428571428572 0.03571428571428572 0.03571428571428572 0.03571428571428572 0.03571428571428572 0.03571428571428572 0.03571428571428572 0.03571428571428572 0.03571428571428572 0.03571428571428572 0.03571428571428572 0.03571428571428572 0.03571428571428572 0.03571428571428572 0.03571428571428572 0.03571428571428572 0.03571428571428572 0.03571428571428572 0.03571428571428572 0.03571428571428572 0.03571428571428572 0.03571428571428572 0.03571428571428572 0.03571428571428572 0.03571428571428572 0.03571428571428572 0.03571428571428572 0.03571428571428572 0.03571428571428572 0.03571428571428572 0.03571428571428572 0.03571428571428572 0.03571428571428572 0.03571428571428572 0.03571428571428572 0.03571428571428572 0.03571428571428572 0.03571428571428572 0.03571428571428572 0.03571428571428572 0.03571428571428572 0.03571428571428572 0.03571428571428572 0.03571428571428572 0.03571428571428572 0.03571428571428572 0.03571428571428572 0.03571428571428572 0.03571428571428572 0.03571428571428572 0.03571428571428572 0.03571428571428572 0.03571428571428572 0.03571428571428572 0.03571428571428572 0.03571428571428572 0.03571428571428572 0.03571428571428572 0.03571428571428572 0.03571428571428572 0.03571428571428572 0.03571428571428572 0.007142857142857143 0.007142857142857143 0.007142857142857143 0.007142857142857143 0.007142857142857143 0.007142857142857143 0.007142857142857143 0.007142857142857143 0.007142857142857143 0.007142857142857143 0.007142857142857143 0.4071428571428571 0.2071428571428572 0.007142857142857143 0.007142857142857143 0.007142857142857143 0.007142857142857143 0.007142857142857143 0.007142857142857143 0.007142857142857143 0.007142857142857143 0.007142857142857143 0.007142857142857143 0.2071428571428572 0.007142857142857143 0.007142857142857143 0.007142857142857143 0.007142857142857143 0.03571428571428572 0.03571428571428572 0.03571428571428572 0.03571428571428572 0.03571428571428572 0.03571428571428572 0.03571428571428572 0.03571428571428572 0.03571428571428572 0.03571428571428572 0.03571428571428572 0.03571428571428572 0.03571428571428572 0.03571428571428572 0.03571428571428572 0.03571428571428572 0.03571428571428572 0.03571428571428572 0.03571428571428572 0.03571428571428572 0.03571428571428572 0.03571428571428572 0.03571428571428572 0.03571428571428572 0.03571428571428572 0.03571428571428572 0.03571428571428572 0.03571428571428572 0.03571428571428572 0.03571428571428572 0.03571428571428572 0.03571428571428572 0.03571428571428572 0.03571428571428572 0.03571428571428572 0.03571428571428572 0.03571428571428572 0.03571428571428572 0.03571428571428572 0.03571428571428572 0.03571428571428572 0.03571428571428572 0.03571428571428572 0.03571428571428572 0.03571428571428572 0.03571428571428572 0.03571428571428572 0.03571428571428572 0.03571428571428572 0.03571428571428572 0.03571428571428572 0.03571428571428572 0.03571428571428572 0.03571428571428572 0.03571428571428572 0.03571428571428572 0.007142857142857141 0.007142857142857141 0.007142857142857141 0.007142857142857141 0.2071428571428571 0.007142857142857141 0.007142857142857141 0.007142857142857141 0.007142857142857141 0.007142857142857141 0.2071428571428571 0.007142857142857141 0.007142857142857141 0.007142857142857141 0.007142857142857141 0.007142857142857141 0.007142857142857141 0.2071428571428571 0.2071428571428571 0.007142857142857141 0.007142857142857141 0.007142857142857141 0.007142857142857141 0.007142857142857141 0.007142857142857141 0.007142857142857141 0.007142857142857141 0.007142857142857141 0.03571428571428572 0.03571428571428572 0.03571428571428572 0.03571428571428572 0.03571428571428572 0.03571428571428572 0.03571428571428572 0.03571428571428572 0.03571428571428572 0.03571428571428572 0.03571428571428572 0.03571428571428572 0.03571428571428572 0.03571428571428572 0.03571428571428572 0.03571428571428572 0.03571428571428572 0.03571428571428572 0.03571428571428572 0.03571428571428572 0.03571428571428572 0.03571428571428572 0.03571428571428572 0.03571428571428572 0.03571428571428572 0.03571428571428572 0.03571428571428572 0.03571428571428572 0.03571428571428572 0.03571428571428572 0.03571428571428572 0.03571428571428572 0.03571428571428572 0.03571428571428572 0.03571428571428572 0.03571428571428572 0.03571428571428572 0.03571428571428572 0.03571428571428572 0.03571428571428572 0.03571428571428572 0.03571428571428572 0.03571428571428572 0.03571428571428572 0.03571428571428572 0.03571428571428572 0.03571428571428572 0.03571428571428572 0.03571428571428572 0.03571428571428572 0.03571428571428572 0.03571428571428572 0.03571428571428572 0.03571428571428572 0.03571428571428572 0.03571428571428572 0.03571428571428572 0.03571428571428572 0.03571428571428572 0.03571428571428572 0.03571428571428572 0.03571428571428572 0.03571428571428572 0.03571428571428572 0.03571428571428572 0.03571428571428572 0.03571428571428572 0.03571428571428572 0.03571428571428572 0.03571428571428572 0.03571428571428572 0.03571428571428572 0.03571428571428572 0.03571428571428572 0.03571428571428572 0.03571428571428572 0.03571428571428572 0.03571428571428572 0.03571428571428572 0.03571428571428572 0.03571428571428572 0.03571428571428572 0.03571428571428572 0.03571428571428572 0.03571428571428572 0.03571428571428572 0.03571428571428572 0.03571428571428572 0.03571428571428572 0.03571428571428572 0.03571428571428572 0.03571428571428572 0.03571428571428572 0.03571428571428572 0.03571428571428572 0.03571428571428572 0.03571428571428572 0.03571428571428572 0.03571428571428572 0.03571428571428572 0.03571428571428572 0.03571428571428572 0.03571428571428572 0.03571428571428572 0.03571428571428572 0.03571428571428572 0.03571428571428572 0.03571428571428572 0.03571428571428572 0.03571428571428572 0.03571428571428572 0.03571428571428572 0.03571428571428572 0.03571428571428572 0.03571428571428572 0.03571428571428572 0.03571428571428572 0.03571428571428572 0.03571428571428572 0.03571428571428572 0.03571428571428572 0.03571428571428572 0.03571428571428572 0.03571428571428572 0.03571428571428572 0.03571428571428572 0.03571428571428572 0.03571428571428572 0.03571428571428572 0.03571428571428572 0.03571428571428572 0.03571428571428572 0.03571428571428572 0.03571428571428572 0.03571428571428572 0.03571428571428572 0.03571428571428572 0.03571428571428572 0.03571428571428572 0.03571428571428572 0.03571428571428572 0.03571428571428572 0.03571428571428572 0.03571428571428572 0.03571428571428572 0.03571428571428572 0.03571428571428572 0.03571428571428572 0.03571428571428572 0.03571428571428572 0.03571428571428572 0.03571428571428572 0.03571428571428572 0.03571428571428572 0.03571428571428572 0.03571428571428572 0.03571428571428572 0.03571428571428572 0.03571428571428572 0.03571428571428572 0.03571428571428572 0.03571428571428572 0.03571428571428572 0.03571428571428572 0.03571428571428572 0.03571428571428572 0.03571428571428572 0.03571428571428572 0.03571428571428572 0.03571428571428572 0.03571428571428572 0.03571428571428572 0.03571428571428572 0.03571428571428572 0.03571428571428572 0.03571428571428572 0.03571428571428572 0.03571428571428572 0.03571428571428572 0.03571428571428572 0.03571428571428572 0.03571428571428572 0.03571428571428572 0.03571428571428572 0.03571428571428572 0.03571428571428572 0.03571428571428572 0.03571428571428572 0.03571428571428572 0.03571428571428572 0.03571428571428572 0.03571428571428572 0.03571428571428572 0.03571428571428572 0.03571428571428572 0.03571428571428572 0.03571428571428572 0.03571428571428572 0.03571428571428572 0.03571428571428572 0.03571428571428572 0.03571428571428572 0.03571428571428572 0.03571428571428572 0.03571428571428572 0.03571428571428572 0.03571428571428572 0.03571428571428572 0.03571428571428572 0.03571428571428572 0.03571428571428572 0.03571428571428572 0.03571428571428572 0.03571428571428572 0.03571428571428572 0.03571428571428572 0.03571428571428572 0.03571428571428572 0.03571428571428572 0.03571428571428572 0.03571428571428572 0.03571428571428572 0.03571428571428572 0.03571428571428572 0.03571428571428572 0.03571428571428572 0.03571428571428572 0.03571428571428572 0.03571428571428572 0.03571428571428572 0.03571428571428572 0.03571428571428572 0.03571428571428572 0.03571428571428572 0.03571428571428572 0.03571428571428572 0.03571428571428572 0.03571428571428572 0.03571428571428572 0.03571428571428572 0.03571428571428572 0.03571428571428572 0.03571428571428572 0.03571428571428572 0.03571428571428572 0.03571428571428572 0.03571428571428572 0.03571428571428572 0.03571428571428572 0.03571428571428572 0.03571428571428572 0.03571428571428572 0.03571428571428572 0.03571428571428572 0.03571428571428572 0.03571428571428572 0.03571428571428572 0.03571428571428572 0.03571428571428572 0.03571428571428572 0.03571428571428572 0.03571428571428572 0.03571428571428572 0.03571428571428572 0.03571428571428572 0.03571428571428572 0.03571428571428572 0.03571428571428572 0.03571428571428572 0.03571428571428572 0.03571428571428572 0.03571428571428572 0.03571428571428572 0.03571428571428572 0.03571428571428572 0.03571428571428572 0.03571428571428572 0.03571428571428572 0.03571428571428572 0.03571428571428572 0.03571428571428572 0.03571428571428572 0.03571428571428572 0.03571428571428572 0.03571428571428572 0.03571428571428572 0.03571428571428572 0.03571428571428572 0.03571428571428572 0.03571428571428572 0.03571428571428572 0.03571428571428572 0.03571428571428572 0.03571428571428572 0.03571428571428572 0.03571428571428572 0.03571428571428572 0.03571428571428572 0.03571428571428572 0.03571428571428572 0.03571428571428572 0.03571428571428572 0.03571428571428572 0.03571428571428572 0.03571428571428572 0.03571428571428572 0.03571428571428572 0.03571428571428572 0.03571428571428572 0.03571428571428572 0.03571428571428572 0.03571428571428572 0.03571428571428572 0.03571428571428572 0.03571428571428572 0.03571428571428572 0.03571428571428572 0.03571428571428572 0.03571428571428572 0.03571428571428572 0.03571428571428572 0.03571428571428572 0.03571428571428572 0.03571428571428572 0.03571428571428572 0.03571428571428572 0.03571428571428572 0.03571428571428572 0.03571428571428572 0.03571428571428572 0.03571428571428572 0.03571428571428572 0.03571428571428572 0.03571428571428572 0.03571428571428572 0.03571428571428572 0.03571428571428572 0.03571428571428572 0.03571428571428572 0.03571428571428572 0.03571428571428572 0.03571428571428572 0.03571428571428572 0.03571428571428572 0.03571428571428572 0.03571428571428572 0.03571428571428572 0.03571428571428572 0.03571428571428572 0.03571428571428572 0.03571428571428572 0.03571428571428572 0.03571428571428572 0.03571428571428572 0.03571428571428572 0.03571428571428572 0.03571428571428572 0.03571428571428572 0.03571428571428572 0.03571428571428572 0.03571428571428572 0.03571428571428572 0.03571428571428572 0.03571428571428572 0.03571428571428572 0.03571428571428572 0.03571428571428572 0.03571428571428572 0.03571428571428572 0.03571428571428572 0.03571428571428572 0.03571428571428572 0.03571428571428572 0.03571428571428572 0.03571428571428572 0.03571428571428572 0.03571428571428572 0.03571428571428572 0.03571428571428572 0.03571428571428572 0.03571428571428572 0.03571428571428572 0.03571428571428572 0.03571428571428572 0.03571428571428572 0.03571428571428572 0.03571428571428572 0.03571428571428572 0.03571428571428572 0.03571428571428572 0.03571428571428572 0.03571428571428572 0.0119047619047619 0.0119047619047619 0.3452380952380952 0.0119047619047619 0.0119047619047619 0.0119047619047619 0.0119047619047619 0.0119047619047619 0.0119047619047619 0.0119047619047619 0.0119047619047619 0.3452380952380952 0.0119047619047619 0.0119047619047619 0.0119047619047619 0.0119047619047619 0.0119047619047619 0.0119047619047619 0.0119047619047619 0.0119047619047619 0.0119047619047619 0.0119047619047619 0.0119047619047619 0.0119047619047619 0.0119047619047619 0.0119047619047619 0.0119047619047619 0.0119047619047619 0.03571428571428572 0.03571428571428572 0.03571428571428572 0.03571428571428572 0.03571428571428572 0.03571428571428572 0.03571428571428572 0.03571428571428572 0.03571428571428572 0.03571428571428572 0.03571428571428572 0.03571428571428572 0.03571428571428572 0.03571428571428572 0.03571428571428572 0.03571428571428572 0.03571428571428572 0.03571428571428572 0.03571428571428572 0.03571428571428572 0.03571428571428572 0.03571428571428572 0.03571428571428572 0.03571428571428572 0.03571428571428572 0.03571428571428572 0.03571428571428572 0.03571428571428572 0.03571428571428572 0.03571428571428572 0.03571428571428572 0.03571428571428572 0.03571428571428572 0.03571428571428572 0.03571428571428572 0.03571428571428572 0.03571428571428572 0.03571428571428572 0.03571428571428572 0.03571428571428572 0.03571428571428572 0.03571428571428572 0.03571428571428572 0.03571428571428572 0.03571428571428572 0.03571428571428572 0.03571428571428572 0.03571428571428572 0.03571428571428572 0.03571428571428572 0.03571428571428572 0.03571428571428572 0.03571428571428572 0.03571428571428572 0.03571428571428572 0.03571428571428572 0.03571428571428572 0.03571428571428572 0.03571428571428572 0.03571428571428572 0.03571428571428572 0.03571428571428572 0.03571428571428572 0.03571428571428572 0.03571428571428572 0.03571428571428572 0.03571428571428572 0.03571428571428572 0.03571428571428572 0.03571428571428572 0.03571428571428572 0.03571428571428572 0.03571428571428572 0.03571428571428572 0.03571428571428572 0.03571428571428572 0.03571428571428572 0.03571428571428572 0.03571428571428572 0.03571428571428572 0.03571428571428572 0.03571428571428572 0.03571428571428572 0.03571428571428572 0.03571428571428572 0.03571428571428572 0.03571428571428572 0.03571428571428572 0.03571428571428572 0.03571428571428572 0.03571428571428572 0.03571428571428572 0.03571428571428572 0.03571428571428572 0.03571428571428572 0.03571428571428572 0.03571428571428572 0.03571428571428572 0.03571428571428572 0.03571428571428572 0.03571428571428572 0.03571428571428572 0.03571428571428572 0.03571428571428572 0.03571428571428572 0.03571428571428572 0.03571428571428572 0.03571428571428572 0.03571428571428572 0.03571428571428572 0.03571428571428572 0.03571428571428572 0.03571428571428572 0.03571428571428572 0.03571428571428572 0.03571428571428572 0.03571428571428572 0.03571428571428572 0.03571428571428572 0.03571428571428572 0.03571428571428572 0.03571428571428572 0.03571428571428572 0.03571428571428572 0.03571428571428572 0.03571428571428572 0.03571428571428572 0.03571428571428572 0.03571428571428572 0.03571428571428572 0.03571428571428572 0.03571428571428572 0.03571428571428572 0.03571428571428572 0.03571428571428572 0.03571428571428572 0.03571428571428572 0.03571428571428572 0.03571428571428572 0.03571428571428572 0.03571428571428572 0.03571428571428572 0.03571428571428572 0.03571428571428572 0.03571428571428572 0.03571428571428572 0.03571428571428572 0.03571428571428572 0.03571428571428572 0.03571428571428572 0.03571428571428572 0.03571428571428572 0.03571428571428572 0.03571428571428572 0.03571428571428572 0.03571428571428572 0.03571428571428572 0.03571428571428572 0.03571428571428572 0.03571428571428572 0.03571428571428572 0.03571428571428572 0.03571428571428572 0.03571428571428572 0.03571428571428572 0.03571428571428572 0.03571428571428572 0.03571428571428572 0.03571428571428572 0.03571428571428572 0.03571428571428572 0.03571428571428572 0.03571428571428572 0.03571428571428572 0.03571428571428572 0.03571428571428572 0.03571428571428572 0.03571428571428572 0.03571428571428572 0.03571428571428572 0.03571428571428572 0.03571428571428572 0.03571428571428572 0.03571428571428572 0.03571428571428572 0.03571428571428572 0.03571428571428572 0.03571428571428572 0.03571428571428572 0.03571428571428572 0.03571428571428572 0.03571428571428572 0.03571428571428572 0.03571428571428572 0.03571428571428572 0.03571428571428572 0.03571428571428572 0.03571428571428572 0.03571428571428572 0.03571428571428572 0.03571428571428572 0.03571428571428572 0.03571428571428572 0.03571428571428572 0.03571428571428572 0.03571428571428572 0.03571428571428572 0.03571428571428572 0.03571428571428572 0.03571428571428572 0.03571428571428572 0.03571428571428572 0.03571428571428572 0.03571428571428572 0.03571428571428572 0.03571428571428572 0.03571428571428572 0.03571428571428572 0.03571428571428572 0.03571428571428572 0.03571428571428572 0.03571428571428572 0.03571428571428572 0.03571428571428572 0.03571428571428572 0.03571428571428572 0.03571428571428572 0.03571428571428572 0.03571428571428572 0.03571428571428572 0.03571428571428572 0.03571428571428572 0.03571428571428572 0.03571428571428572 0.03571428571428572 0.03571428571428572 0.03571428571428572 0.03571428571428572 0.03571428571428572 0.03571428571428572 0.03571428571428572 0.03571428571428572 0.03571428571428572 0.03571428571428572 0.03571428571428572 0.03571428571428572 0.03571428571428572 0.03571428571428572 0.03571428571428572 0.03571428571428572 0.03571428571428572 0.03571428571428572 0.03571428571428572 0.03571428571428572 0.03571428571428572 0.03571428571428572 0.03571428571428572 0.03571428571428572 0.03571428571428572 0.03571428571428572 0.03571428571428572 0.03571428571428572 0.03571428571428572 0.03571428571428572 0.03571428571428572 0.03571428571428572 0.03571428571428572 0.03571428571428572 0.03571428571428572 0.03571428571428572 0.03571428571428572 0.03571428571428572 0.03571428571428572 0.03571428571428572 0.03571428571428572 0.03571428571428572 0.03571428571428572 0.03571428571428572 0.03571428571428572 0.03571428571428572 0.03571428571428572 0.03571428571428572 0.03571428571428572 0.03571428571428572 0.03571428571428572 0.03571428571428572 0.03571428571428572 0.03571428571428572 0.03571428571428572 0.03571428571428572 0.03571428571428572 0.03571428571428572 0.03571428571428572 0.03571428571428572 0.03571428571428572 0.03571428571428572 0.03571428571428572 0.03571428571428572 0.03571428571428572 0.03571428571428572 0.03571428571428572 0.03571428571428572 0.03571428571428572 0.03571428571428572 0.03571428571428572 0.03571428571428572 0.03571428571428572 0.03571428571428572 0.03571428571428572 0.03571428571428572 0.03571428571428572 0.03571428571428572 0.03571428571428572 0.03571428571428572 0.03571428571428572 0.03571428571428572 0.03571428571428572 0.03571428571428572 0.03571428571428572 0.03571428571428572 0.03571428571428572 0.03571428571428572 0.03571428571428572 0.03571428571428572 0.03571428571428572 0.03571428571428572 0.03571428571428572 0.03571428571428572 0.03571428571428572 0.03571428571428572 0.03571428571428572 0.03571428571428572 0.03571428571428572 0.03571428571428572 0.03571428571428572 0.03571428571428572 0.03571428571428572 0.03571428571428572 0.03571428571428572 0.03571428571428572 0.03571428571428572 0.03571428571428572 0.03571428571428572 0.03571428571428572 0.03571428571428572 0.03571428571428572 0.03571428571428572 0.03571428571428572 0.03571428571428572 0.03571428571428572 0.03571428571428572 0.03571428571428572 0.03571428571428572 0.03571428571428572 0.03571428571428572 0.03571428571428572 0.03571428571428572 0.03571428571428572 0.03571428571428572 0.03571428571428572 0.03571428571428572 0.03571428571428572 0.03571428571428572 0.03571428571428572 0.03571428571428572 0.03571428571428572 0.03571428571428572 0.03571428571428572 0.03571428571428572 0.03571428571428572 0.03571428571428572 0.03571428571428572 0.03571428571428572 0.03571428571428572 0.03571428571428572 0.03571428571428572 0.03571428571428572 0.03571428571428572 0.03571428571428572 0.03571428571428572 0.03571428571428572 0.03571428571428572 0.03571428571428572 0.03571428571428572 0.03571428571428572 0.03571428571428572 0.03571428571428572 0.03571428571428572 0.03571428571428572 0.03571428571428572 0.03571428571428572 0.03571428571428572 0.03571428571428572 0.03571428571428572 0.03571428571428572 0.03571428571428572 0.03571428571428572 0.03571428571428572 0.03571428571428572 0.03571428571428572 0.03571428571428572 0.03571428571428572 0.03571428571428572 0.03571428571428572 0.03571428571428572 0.03571428571428572 0.03571428571428572 0.03571428571428572 0.03571428571428572 0.03571428571428572 0.03571428571428572 0.03571428571428572 0.03571428571428572 0.03571428571428572 0.03571428571428572 0.03571428571428572 0.03571428571428572 0.03571428571428572 0.03571428571428572 0.03571428571428572 0.03571428571428572 0.03571428571428572 0.03571428571428572 0.03571428571428572 0.03571428571428572 0.03571428571428572 0.03571428571428572 0.03571428571428572 0.03571428571428572 0.03571428571428572 0.03571428571428572 0.03571428571428572 0.03571428571428572 0.03571428571428572 0.03571428571428572 0.03571428571428572 0.03571428571428572 0.03571428571428572 0.03571428571428572 0.03571428571428572 0.03571428571428572 0.03571428571428572 0.03571428571428572 0.03571428571428572 0.03571428571428572 0.03571428571428572 0.03571428571428572 0.03571428571428572 0.03571428571428572 0.03571428571428572 0.03571428571428572 0.03571428571428572 0.03571428571428572 0.03571428571428572 0.03571428571428572 0.03571428571428572 0.03571428571428572 0.03571428571428572 0.03571428571428572 0.03571428571428572 0.03571428571428572 0.03571428571428572 0.03571428571428572 0.03571428571428572 0.03571428571428572 0.03571428571428572 0.03571428571428572 0.03571428571428572 0.03571428571428572 0.03571428571428572 0.03571428571428572 0.03571428571428572 0.03571428571428572 0.03571428571428572 0.03571428571428572 0.03571428571428572 0.01785714285714285 0.01785714285714285 0.01785714285714285 0.01785714285714285 0.01785714285714285 0.01785714285714285 0.5178571428571428 0.01785714285714285 0.01785714285714285 0.01785714285714285 0.01785714285714285 0.01785714285714285 0.01785714285714285 0.01785714285714285 0.01785714285714285 0.01785714285714285 0.01785714285714285 0.01785714285714285 0.01785714285714285 0.01785714285714285 0.01785714285714285 0.01785714285714285 0.01785714285714285 0.01785714285714285 0.01785714285714285 0.01785714285714285 0.01785714285714285 0.01785714285714285 0.03571428571428572 0.03571428571428572 0.03571428571428572 0.03571428571428572 0.03571428571428572 0.03571428571428572 0.03571428571428572 0.03571428571428572 0.03571428571428572 0.03571428571428572 0.03571428571428572 0.03571428571428572 0.03571428571428572 0.03571428571428572 0.03571428571428572 0.03571428571428572 0.03571428571428572 0.03571428571428572 0.03571428571428572 0.03571428571428572 0.03571428571428572 0.03571428571428572 0.03571428571428572 0.03571428571428572 0.03571428571428572 0.03571428571428572 0.03571428571428572 0.03571428571428572 0.03571428571428572 0.03571428571428572 0.03571428571428572 0.03571428571428572 0.03571428571428572 0.03571428571428572 0.03571428571428572 0.03571428571428572 0.03571428571428572 0.03571428571428572 0.03571428571428572 0.03571428571428572 0.03571428571428572 0.03571428571428572 0.03571428571428572 0.03571428571428572 0.03571428571428572 0.03571428571428572 0.03571428571428572 0.03571428571428572 0.03571428571428572 0.03571428571428572 0.03571428571428572 0.03571428571428572 0.03571428571428572 0.03571428571428572 0.03571428571428572 0.03571428571428572 0.03571428571428572 0.03571428571428572 0.03571428571428572 0.03571428571428572 0.03571428571428572 0.03571428571428572 0.03571428571428572 0.03571428571428572 0.03571428571428572 0.03571428571428572 0.03571428571428572 0.03571428571428572 0.03571428571428572 0.03571428571428572 0.03571428571428572 0.03571428571428572 0.03571428571428572 0.03571428571428572 0.03571428571428572 0.03571428571428572 0.03571428571428572 0.03571428571428572 0.03571428571428572 0.03571428571428572 0.03571428571428572 0.03571428571428572 0.03571428571428572 0.03571428571428572 0.03571428571428572 0.03571428571428572 0.03571428571428572 0.03571428571428572 0.03571428571428572 0.03571428571428572 0.03571428571428572 0.03571428571428572 0.03571428571428572 0.03571428571428572 0.03571428571428572 0.03571428571428572 0.03571428571428572 0.03571428571428572 0.03571428571428572 0.03571428571428572 0.03571428571428572 0.03571428571428572 0.03571428571428572 0.03571428571428572 0.03571428571428572 0.03571428571428572 0.03571428571428572 0.03571428571428572 0.03571428571428572 0.03571428571428572 0.03571428571428572 0.03571428571428572 0.03571428571428572 0.03571428571428572 0.03571428571428572 0.03571428571428572 0.03571428571428572 0.03571428571428572 0.03571428571428572 0.03571428571428572 0.03571428571428572 0.03571428571428572 0.03571428571428572 0.03571428571428572 0.03571428571428572 0.03571428571428572 0.03571428571428572 0.03571428571428572 0.03571428571428572 0.03571428571428572 0.03571428571428572 0.03571428571428572 0.03571428571428572 0.03571428571428572 0.03571428571428572 0.03571428571428572 0.03571428571428572 0.03571428571428572 0.03571428571428572 0.03571428571428572 0.03571428571428572 0.03571428571428572 0.03571428571428572 0.03571428571428572 0.03571428571428572 0.03571428571428572 0.03571428571428572 0.03571428571428572 0.03571428571428572 0.03571428571428572 0.03571428571428572 0.03571428571428572 0.03571428571428572 0.03571428571428572 0.03571428571428572 0.03571428571428572 0.03571428571428572 0.03571428571428572 0.03571428571428572 0.03571428571428572 0.03571428571428572 0.03571428571428572 0.03571428571428572 0.03571428571428572 0.03571428571428572 0.03571428571428572 0.03571428571428572 0.03571428571428572 0.03571428571428572 0.03571428571428572 0.03571428571428572 0.03571428571428572 0.03571428571428572 0.03571428571428572 0.03571428571428572 0.03571428571428572 0.03571428571428572 0.03571428571428572 0.03571428571428572 0.03571428571428572 0.03571428571428572 0.03571428571428572 0.03571428571428572 0.03571428571428572 0.03571428571428572 0.03571428571428572 0.03571428571428572 0.03571428571428572 0.03571428571428572 0.03571428571428572 0.03571428571428572 0.03571428571428572 0.03571428571428572 0.03571428571428572 0.03571428571428572 0.03571428571428572 0.03571428571428572 0.03571428571428572 0.03571428571428572 0.03571428571428572 0.03571428571428572 0.03571428571428572 0.03571428571428572 0.03571428571428572 0.03571428571428572 0.03571428571428572 0.03571428571428572 0.03571428571428572 0.03571428571428572 0.03571428571428572 0.03571428571428572 0.03571428571428572 0.03571428571428572 0.03571428571428572 0.03571428571428572 0.03571428571428572 0.03571428571428572 0.03571428571428572 0.03571428571428572 0.03571428571428572 0.03571428571428572 0.03571428571428572 0.03571428571428572 0.03571428571428572 0.03571428571428572 0.03571428571428572 0.03571428571428572 0.03571428571428572 0.03571428571428572 0.03571428571428572 0.03571428571428572 0.03571428571428572 0.03571428571428572 0.03571428571428572 0.03571428571428572 0.03571428571428572 0.03571428571428572 0.03571428571428572 0.03571428571428572 0.03571428571428572 0.03571428571428572 0.03571428571428572 0.03571428571428572 0.03571428571428572 0.03571428571428572 0.03571428571428572 0.03571428571428572 0.03571428571428572 0.03571428571428572 0.03571428571428572 0.03571428571428572 0.03571428571428572 0.03571428571428572 0.03571428571428572 0.03571428571428572 0.03571428571428572 0.03571428571428572 0.03571428571428572 0.03571428571428572 0.03571428571428572 0.03571428571428572 0.03571428571428572 0.03571428571428572 0.03571428571428572 0.03571428571428572 0.03571428571428572 0.03571428571428572 0.03571428571428572 0.03571428571428572 0.03571428571428572 0.03571428571428572 0.03571428571428572 0.03571428571428572 0.03571428571428572 0.03571428571428572 0.03571428571428572 0.03571428571428572 0.03571428571428572 0.03571428571428572 0.03571428571428572 0.03571428571428572 0.03571428571428572 0.03571428571428572 0.03571428571428572 0.03571428571428572 0.03571428571428572 0.03571428571428572 0.03571428571428572 0.03571428571428572 0.03571428571428572 0.03571428571428572 0.03571428571428572 0.03571428571428572 0.03571428571428572 0.03571428571428572 0.03571428571428572 0.03571428571428572 0.03571428571428572 0.03571428571428572 0.03571428571428572 0.03571428571428572 0.03571428571428572 0.03571428571428572 0.03571428571428572 0.03571428571428572 0.03571428571428572 0.03571428571428572 0.03571428571428572 0.03571428571428572 0.03571428571428572 0.03571428571428572 0.03571428571428572 0.03571428571428572 0.03571428571428572 0.03571428571428572 0.03571428571428572 0.03571428571428572 0.03571428571428572 0.03571428571428572 0.03571428571428572 0.03571428571428572 0.03571428571428572 0.03571428571428572 0.03571428571428572 0.03571428571428572 0.03571428571428572 0.03571428571428572 0.03571428571428572 0.03571428571428572 0.03571428571428572 0.03571428571428572 0.03571428571428572 0.03571428571428572 0.03571428571428572 0.03571428571428572 0.03571428571428572 0.03571428571428572 0.03571428571428572 0.03571428571428572 0.03571428571428572 0.03571428571428572 0.03571428571428572 0.03571428571428572 0.03571428571428572 0.03571428571428572 0.03571428571428572 0.03571428571428572 0.03571428571428572 0.03571428571428572 0.03571428571428572 0.03571428571428572 0.03571428571428572 0.03571428571428572 0.03571428571428572 0.03571428571428572 0.03571428571428572 0.03571428571428572 0.03571428571428572 0.03571428571428572 0.03571428571428572 0.03571428571428572 0.03571428571428572 0.03571428571428572 0.03571428571428572 0.03571428571428572 0.03571428571428572 0.03571428571428572 0.03571428571428572 0.03571428571428572 0.03571428571428572 0.03571428571428572 0.03571428571428572 0.03571428571428572 0.03571428571428572 0.03571428571428572 0.03571428571428572 0.03571428571428572 0.03571428571428572 0.03571428571428572 0.03571428571428572 0.03571428571428572 0.03571428571428572 0.03571428571428572 0.03571428571428572 0.03571428571428572 0.03571428571428572 0.03571428571428572 0.03571428571428572 0.03571428571428572 0.03571428571428572 0.03571428571428572 0.03571428571428572 0.03571428571428572 0.03571428571428572 0.03571428571428572 0.03571428571428572 0.03571428571428572 0.03571428571428572 0.03571428571428572 0.03571428571428572 0.03571428571428572 0.03571428571428572 0.03571428571428572 0.03571428571428572 0.03571428571428572 0.03571428571428572 0.03571428571428572 0.03571428571428572 0.03571428571428572 0.03571428571428572 0.03571428571428572 0.03571428571428572 0.03571428571428572 0.03571428571428572 0.03571428571428572 0.03571428571428572 0.03571428571428572 0.03571428571428572 0.03571428571428572 0.03571428571428572 0.01785714285714285 0.01785714285714285 0.01785714285714285 0.01785714285714285 0.01785714285714285 0.01785714285714285 0.01785714285714285 0.01785714285714285 0.01785714285714285 0.5178571428571428 0.01785714285714285 0.01785714285714285 0.01785714285714285 0.01785714285714285 0.01785714285714285 0.01785714285714285 0.01785714285714285 0.01785714285714285 0.01785714285714285 0.01785714285714285 0.01785714285714285 0.01785714285714285 0.01785714285714285 0.01785714285714285 0.01785714285714285 0.01785714285714285 0.01785714285714285 0.01785714285714285 0.5178571428571428 0.01785714285714285 0.01785714285714285 0.01785714285714285 0.01785714285714285 0.01785714285714285 0.01785714285714285 0.01785714285714285 0.01785714285714285 0.01785714285714285 0.01785714285714285 0.01785714285714285 0.01785714285714285 0.01785714285714285 0.01785714285714285 0.01785714285714285 0.01785714285714285 0.01785714285714285 0.01785714285714285 0.01785714285714285 0.01785714285714285 0.01785714285714285 0.01785714285714285 0.01785714285714285 0.01785714285714285 0.01785714285714285 0.01785714285714285 0.01785714285714285 0.06904761904761905 0.002380952380952381 0.06904761904761905 0.1357142857142857 0.06904761904761905 0.06904761904761905 0.002380952380952381 0.002380952380952381 0.002380952380952381 0.002380952380952381 0.002380952380952381 0.002380952380952381 0.002380952380952381 0.1357142857142857 0.002380952380952381 0.002380952380952381 0.002380952380952381 0.002380952380952381 0.06904761904761905 0.06904761904761905 0.002380952380952381 0.06904761904761905 0.002380952380952381 0.06904761904761905 0.002380952380952381 0.002380952380952381 0.002380952380952381 0.1357142857142857 0.03571428571428572 0.03571428571428572 0.03571428571428572 0.03571428571428572 0.03571428571428572 0.03571428571428572 0.03571428571428572 0.03571428571428572 0.03571428571428572 0.03571428571428572 0.03571428571428572 0.03571428571428572 0.03571428571428572 0.03571428571428572 0.03571428571428572 0.03571428571428572 0.03571428571428572 0.03571428571428572 0.03571428571428572 0.03571428571428572 0.03571428571428572 0.03571428571428572 0.03571428571428572 0.03571428571428572 0.03571428571428572 0.03571428571428572 0.03571428571428572 0.03571428571428572 0.03571428571428572 0.03571428571428572 0.03571428571428572 0.03571428571428572 0.03571428571428572 0.03571428571428572 0.03571428571428572 0.03571428571428572 0.03571428571428572 0.03571428571428572 0.03571428571428572 0.03571428571428572 0.03571428571428572 0.03571428571428572 0.03571428571428572 0.03571428571428572 0.03571428571428572 0.03571428571428572 0.03571428571428572 0.03571428571428572 0.03571428571428572 0.03571428571428572 0.03571428571428572 0.03571428571428572 0.03571428571428572 0.03571428571428572 0.03571428571428572 0.03571428571428572 0.008928571428571428 0.008928571428571428 0.008928571428571428 0.008928571428571428 0.008928571428571428 0.008928571428571428 0.008928571428571428 0.2589285714285715 0.008928571428571428 0.008928571428571428 0.008928571428571428 0.008928571428571428 0.008928571428571428 0.008928571428571428 0.008928571428571428 0.2589285714285715 0.008928571428571428 0.2589285714285715 0.008928571428571428 0.008928571428571428 0.008928571428571428 0.008928571428571428 0.008928571428571428 0.008928571428571428 0.008928571428571428 0.008928571428571428 0.008928571428571428 0.008928571428571428 0.03571428571428572 0.03571428571428572 0.03571428571428572 0.03571428571428572 0.03571428571428572 0.03571428571428572 0.03571428571428572 0.03571428571428572 0.03571428571428572 0.03571428571428572 0.03571428571428572 0.03571428571428572 0.03571428571428572 0.03571428571428572 0.03571428571428572 0.03571428571428572 0.03571428571428572 0.03571428571428572 0.03571428571428572 0.03571428571428572 0.03571428571428572 0.03571428571428572 0.03571428571428572 0.03571428571428572 0.03571428571428572 0.03571428571428572 0.03571428571428572 0.03571428571428572 0.03571428571428572 0.03571428571428572 0.03571428571428572 0.03571428571428572 0.03571428571428572 0.03571428571428572 0.03571428571428572 0.03571428571428572 0.03571428571428572 0.03571428571428572 0.03571428571428572 0.03571428571428572 0.03571428571428572 0.03571428571428572 0.03571428571428572 0.03571428571428572 0.03571428571428572 0.03571428571428572 0.03571428571428572 0.03571428571428572 0.03571428571428572 0.03571428571428572 0.03571428571428572 0.03571428571428572 0.03571428571428572 0.03571428571428572 0.03571428571428572 0.03571428571428572 0.03571428571428572 0.03571428571428572 0.03571428571428572 0.03571428571428572 0.03571428571428572 0.03571428571428572 0.03571428571428572 0.03571428571428572 0.03571428571428572 0.03571428571428572 0.03571428571428572 0.03571428571428572 0.03571428571428572 0.03571428571428572 0.03571428571428572 0.03571428571428572 0.03571428571428572 0.03571428571428572 0.03571428571428572 0.03571428571428572 0.03571428571428572 0.03571428571428572 0.03571428571428572 0.03571428571428572 0.03571428571428572 0.03571428571428572 0.03571428571428572 0.03571428571428572 0.03571428571428572 0.03571428571428572 0.03571428571428572 0.03571428571428572 0.03571428571428572 0.03571428571428572 0.03571428571428572 0.03571428571428572 0.03571428571428572 0.03571428571428572 0.03571428571428572 0.03571428571428572 0.03571428571428572 0.03571428571428572 0.03571428571428572 0.03571428571428572 0.03571428571428572 0.03571428571428572 0.03571428571428572 0.03571428571428572 0.03571428571428572 0.03571428571428572 0.03571428571428572 0.03571428571428572 0.03571428571428572 0.03571428571428572 0.03571428571428572 0.03571428571428572 0.03571428571428572 0.03571428571428572 0.03571428571428572 0.03571428571428572 0.03571428571428572 0.03571428571428572 0.03571428571428572 0.03571428571428572 0.03571428571428572 0.03571428571428572 0.03571428571428572 0.03571428571428572 0.03571428571428572 0.03571428571428572 0.03571428571428572 0.03571428571428572 0.03571428571428572 0.03571428571428572 0.03571428571428572 0.03571428571428572 0.03571428571428572 0.03571428571428572 0.03571428571428572 0.03571428571428572 0.03571428571428572 0.03571428571428572 0.03571428571428572 0.03571428571428572 0.03571428571428572 0.03571428571428572 0.03571428571428572 0.03571428571428572 0.03571428571428572 0.03571428571428572 0.03571428571428572 0.03571428571428572 0.03571428571428572 0.03571428571428572 0.03571428571428572 0.03571428571428572 0.03571428571428572 0.03571428571428572 0.03571428571428572 0.03571428571428572 0.03571428571428572 0.03571428571428572 0.03571428571428572 0.03571428571428572 0.03571428571428572 0.03571428571428572 0.03571428571428572 0.03571428571428572 0.03571428571428572 0.03571428571428572 0.03571428571428572 0.03571428571428572 0.03571428571428572 0.03571428571428572 0.03571428571428572 0.03571428571428572 0.03571428571428572 0.03571428571428572 0.03571428571428572 0.03571428571428572 0.03571428571428572 0.03571428571428572 0.03571428571428572 0.03571428571428572 0.03571428571428572 0.03571428571428572 0.03571428571428572 0.03571428571428572 0.03571428571428572 0.03571428571428572 0.03571428571428572 0.03571428571428572 0.03571428571428572 0.03571428571428572 0.03571428571428572 0.03571428571428572 0.03571428571428572 0.03571428571428572 0.03571428571428572 0.03571428571428572 0.03571428571428572 0.03571428571428572 0.03571428571428572 0.03571428571428572 0.03571428571428572 0.03571428571428572 0.03571428571428572 0.03571428571428572 0.03571428571428572 0.03571428571428572 0.03571428571428572 0.03571428571428572 0.03571428571428572 0.03571428571428572 0.03571428571428572 0.03571428571428572 0.03571428571428572 0.03571428571428572 0.03571428571428572 0.03571428571428572 0.03571428571428572 0.03571428571428572 0.03571428571428572 0.03571428571428572 0.03571428571428572 0.03571428571428572 0.03571428571428572 0.03571428571428572 0.01785714285714285 0.01785714285714285 0.01785714285714285 0.01785714285714285 0.01785714285714285 0.01785714285714285 0.01785714285714285 0.01785714285714285 0.01785714285714285 0.01785714285714285 0.01785714285714285 0.5178571428571428 0.01785714285714285 0.01785714285714285 0.01785714285714285 0.01785714285714285 0.01785714285714285 0.01785714285714285 0.01785714285714285 0.01785714285714285 0.01785714285714285 0.01785714285714285 0.01785714285714285 0.01785714285714285 0.01785714285714285 0.01785714285714285 0.01785714285714285 0.01785714285714285 0.03571428571428572 0.03571428571428572 0.03571428571428572 0.03571428571428572 0.03571428571428572 0.03571428571428572 0.03571428571428572 0.03571428571428572 0.03571428571428572 0.03571428571428572 0.03571428571428572 0.03571428571428572 0.03571428571428572 0.03571428571428572 0.03571428571428572 0.03571428571428572 0.03571428571428572 0.03571428571428572 0.03571428571428572 0.03571428571428572 0.03571428571428572 0.03571428571428572 0.03571428571428572 0.03571428571428572 0.03571428571428572 0.03571428571428572 0.03571428571428572 0.03571428571428572 0.03571428571428572 0.03571428571428572 0.03571428571428572 0.03571428571428572 0.03571428571428572 0.03571428571428572 0.03571428571428572 0.03571428571428572 0.03571428571428572 0.03571428571428572 0.03571428571428572 0.03571428571428572 0.03571428571428572 0.03571428571428572 0.03571428571428572 0.03571428571428572 0.03571428571428572 0.03571428571428572 0.03571428571428572 0.03571428571428572 0.03571428571428572 0.03571428571428572 0.03571428571428572 0.03571428571428572 0.03571428571428572 0.03571428571428572 0.03571428571428572 0.03571428571428572 0.03571428571428572 0.03571428571428572 0.03571428571428572 0.03571428571428572 0.03571428571428572 0.03571428571428572 0.03571428571428572 0.03571428571428572 0.03571428571428572 0.03571428571428572 0.03571428571428572 0.03571428571428572 0.03571428571428572 0.03571428571428572 0.03571428571428572 0.03571428571428572 0.03571428571428572 0.03571428571428572 0.03571428571428572 0.03571428571428572 0.03571428571428572 0.03571428571428572 0.03571428571428572 0.03571428571428572 0.03571428571428572 0.03571428571428572 0.03571428571428572 0.03571428571428572 0.03571428571428572 0.03571428571428572 0.03571428571428572 0.03571428571428572 0.03571428571428572 0.03571428571428572 0.03571428571428572 0.03571428571428572 0.03571428571428572 0.03571428571428572 0.03571428571428572 0.03571428571428572 0.03571428571428572 0.03571428571428572 0.03571428571428572 0.03571428571428572 0.03571428571428572 0.03571428571428572 0.03571428571428572 0.03571428571428572 0.03571428571428572 0.03571428571428572 0.03571428571428572 0.03571428571428572 0.03571428571428572 0.03571428571428572 0.03571428571428572 0.03571428571428572 0.01785714285714285 0.5178571428571428 0.01785714285714285 0.01785714285714285 0.01785714285714285 0.01785714285714285 0.01785714285714285 0.01785714285714285 0.01785714285714285 0.01785714285714285 0.01785714285714285 0.01785714285714285 0.01785714285714285 0.01785714285714285 0.01785714285714285 0.01785714285714285 0.01785714285714285 0.01785714285714285 0.01785714285714285 0.01785714285714285 0.01785714285714285 0.01785714285714285 0.01785714285714285 0.01785714285714285 0.01785714285714285 0.01785714285714285 0.01785714285714285 0.01785714285714285 0.1150793650793651 0.003968253968253968 0.003968253968253968 0.003968253968253968 0.2261904761904762 0.1150793650793651 0.003968253968253968 0.003968253968253968 0.003968253968253968 0.1150793650793651 0.003968253968253968 0.003968253968253968 0.003968253968253968 0.003968253968253968 0.003968253968253968 0.003968253968253968 0.003968253968253968 0.003968253968253968 0.003968253968253968 0.003968253968253968 0.003968253968253968 0.1150793650793651 0.003968253968253968 0.003968253968253968 0.1150793650793651 0.003968253968253968 0.003968253968253968 0.1150793650793651 0.03571428571428572 0.03571428571428572 0.03571428571428572 0.03571428571428572 0.03571428571428572 0.03571428571428572 0.03571428571428572 0.03571428571428572 0.03571428571428572 0.03571428571428572 0.03571428571428572 0.03571428571428572 0.03571428571428572 0.03571428571428572 0.03571428571428572 0.03571428571428572 0.03571428571428572 0.03571428571428572 0.03571428571428572 0.03571428571428572 0.03571428571428572 0.03571428571428572 0.03571428571428572 0.03571428571428572 0.03571428571428572 0.03571428571428572 0.03571428571428572 0.03571428571428572 0.03571428571428572 0.03571428571428572 0.03571428571428572 0.03571428571428572 0.03571428571428572 0.03571428571428572 0.03571428571428572 0.03571428571428572 0.03571428571428572 0.03571428571428572 0.03571428571428572 0.03571428571428572 0.03571428571428572 0.03571428571428572 0.03571428571428572 0.03571428571428572 0.03571428571428572 0.03571428571428572 0.03571428571428572 0.03571428571428572 0.03571428571428572 0.03571428571428572 0.03571428571428572 0.03571428571428572 0.03571428571428572 0.03571428571428572 0.03571428571428572 0.03571428571428572 0.00714285714285714 0.00714285714285714 0.00714285714285714 0.00714285714285714 0.2071428571428571 0.00714285714285714 0.00714285714285714 0.2071428571428571 0.00714285714285714 0.00714285714285714 0.00714285714285714 0.00714285714285714 0.00714285714285714 0.00714285714285714 0.00714285714285714 0.00714285714285714 0.00714285714285714 0.00714285714285714 0.2071428571428571 0.00714285714285714 0.00714285714285714 0.00714285714285714 0.00714285714285714 0.00714285714285714 0.2071428571428571 0.00714285714285714 0.00714285714285714 0.00714285714285714 0.03571428571428572 0.03571428571428572 0.03571428571428572 0.03571428571428572 0.03571428571428572 0.03571428571428572 0.03571428571428572 0.03571428571428572 0.03571428571428572 0.03571428571428572 0.03571428571428572 0.03571428571428572 0.03571428571428572 0.03571428571428572 0.03571428571428572 0.03571428571428572 0.03571428571428572 0.03571428571428572 0.03571428571428572 0.03571428571428572 0.03571428571428572 0.03571428571428572 0.03571428571428572 0.03571428571428572 0.03571428571428572 0.03571428571428572 0.03571428571428572 0.03571428571428572 0.03571428571428572 0.03571428571428572 0.03571428571428572 0.03571428571428572 0.03571428571428572 0.03571428571428572 0.03571428571428572 0.03571428571428572 0.03571428571428572 0.03571428571428572 0.03571428571428572 0.03571428571428572 0.03571428571428572 0.03571428571428572 0.03571428571428572 0.03571428571428572 0.03571428571428572 0.03571428571428572 0.03571428571428572 0.03571428571428572 0.03571428571428572 0.03571428571428572 0.03571428571428572 0.03571428571428572 0.03571428571428572 0.03571428571428572 0.03571428571428572 0.03571428571428572 0.0119047619047619 0.0119047619047619 0.0119047619047619 0.0119047619047619 0.0119047619047619 0.3452380952380952 0.0119047619047619 0.0119047619047619 0.0119047619047619 0.0119047619047619 0.0119047619047619 0.0119047619047619 0.0119047619047619 0.0119047619047619 0.0119047619047619 0.0119047619047619 0.0119047619047619 0.0119047619047619 0.0119047619047619 0.0119047619047619 0.3452380952380952 0.0119047619047619 0.0119047619047619 0.0119047619047619 0.0119047619047619 0.0119047619047619 0.0119047619047619 0.0119047619047619 0.03571428571428572 0.03571428571428572 0.03571428571428572 0.03571428571428572 0.03571428571428572 0.03571428571428572 0.03571428571428572 0.03571428571428572 0.03571428571428572 0.03571428571428572 0.03571428571428572 0.03571428571428572 0.03571428571428572 0.03571428571428572 0.03571428571428572 0.03571428571428572 0.03571428571428572 0.03571428571428572 0.03571428571428572 0.03571428571428572 0.03571428571428572 0.03571428571428572 0.03571428571428572 0.03571428571428572 0.03571428571428572 0.03571428571428572 0.03571428571428572 0.03571428571428572 0.03571428571428572 0.03571428571428572 0.03571428571428572 0.03571428571428572 0.03571428571428572 0.03571428571428572 0.03571428571428572 0.03571428571428572 0.03571428571428572 0.03571428571428572 0.03571428571428572 0.03571428571428572 0.03571428571428572 0.03571428571428572 0.03571428571428572 0.03571428571428572 0.03571428571428572 0.03571428571428572 0.03571428571428572 0.03571428571428572 0.03571428571428572 0.03571428571428572 0.03571428571428572 0.03571428571428572 0.03571428571428572 0.03571428571428572 0.03571428571428572 0.03571428571428572 0.01785714285714285 0.01785714285714285 0.01785714285714285 0.01785714285714285 0.01785714285714285 0.01785714285714285 0.01785714285714285 0.01785714285714285 0.01785714285714285 0.01785714285714285 0.01785714285714285 0.5178571428571428 0.01785714285714285 0.01785714285714285 0.01785714285714285 0.01785714285714285 0.01785714285714285 0.01785714285714285 0.01785714285714285 0.01785714285714285 0.01785714285714285 0.01785714285714285 0.01785714285714285 0.01785714285714285 0.01785714285714285 0.01785714285714285 0.01785714285714285 0.01785714285714285 0.03571428571428572 0.03571428571428572 0.03571428571428572 0.03571428571428572 0.03571428571428572 0.03571428571428572 0.03571428571428572 0.03571428571428572 0.03571428571428572 0.03571428571428572 0.03571428571428572 0.03571428571428572 0.03571428571428572 0.03571428571428572 0.03571428571428572 0.03571428571428572 0.03571428571428572 0.03571428571428572 0.03571428571428572 0.03571428571428572 0.03571428571428572 0.03571428571428572 0.03571428571428572 0.03571428571428572 0.03571428571428572 0.03571428571428572 0.03571428571428572 0.03571428571428572 0.03571428571428572 0.03571428571428572 0.03571428571428572 0.03571428571428572 0.03571428571428572 0.03571428571428572 0.03571428571428572 0.03571428571428572 0.03571428571428572 0.03571428571428572 0.03571428571428572 0.03571428571428572 0.03571428571428572 0.03571428571428572 0.03571428571428572 0.03571428571428572 0.03571428571428572 0.03571428571428572 0.03571428571428572 0.03571428571428572 0.03571428571428572 0.03571428571428572 0.03571428571428572 0.03571428571428572 0.03571428571428572 0.03571428571428572 0.03571428571428572 0.03571428571428572 0.03571428571428572 0.03571428571428572 0.03571428571428572 0.03571428571428572 0.03571428571428572 0.03571428571428572 0.03571428571428572 0.03571428571428572 0.03571428571428572 0.03571428571428572 0.03571428571428572 0.03571428571428572 0.03571428571428572 0.03571428571428572 0.03571428571428572 0.03571428571428572 0.03571428571428572 0.03571428571428572 0.03571428571428572 0.03571428571428572 0.03571428571428572 0.03571428571428572 0.03571428571428572 0.03571428571428572 0.03571428571428572 0.03571428571428572 0.03571428571428572 0.03571428571428572 0.03571428571428572 0.03571428571428572 0.03571428571428572 0.03571428571428572 0.03571428571428572 0.03571428571428572 0.03571428571428572 0.03571428571428572 0.03571428571428572 0.03571428571428572 0.03571428571428572 0.03571428571428572 0.03571428571428572 0.03571428571428572 0.03571428571428572 0.03571428571428572 0.03571428571428572 0.03571428571428572 0.03571428571428572 0.03571428571428572 0.03571428571428572 0.03571428571428572 0.03571428571428572 0.03571428571428572 0.03571428571428572 0.03571428571428572 0.03571428571428572 0.03571428571428572 0.03571428571428572 0.03571428571428572 0.03571428571428572 0.03571428571428572 0.03571428571428572 0.03571428571428572 0.03571428571428572 0.03571428571428572 0.03571428571428572 0.03571428571428572 0.03571428571428572 0.03571428571428572 0.03571428571428572 0.03571428571428572 0.03571428571428572 0.03571428571428572 0.03571428571428572 0.03571428571428572 0.03571428571428572 0.03571428571428572 0.03571428571428572 0.03571428571428572 0.03571428571428572 0.03571428571428572 0.03571428571428572 0.03571428571428572 0.03571428571428572 0.03571428571428572 0.03571428571428572 0.03571428571428572 0.03571428571428572 0.03571428571428572 0.03571428571428572 0.03571428571428572 0.03571428571428572 0.03571428571428572 0.03571428571428572 0.03571428571428572 0.03571428571428572 0.03571428571428572 0.03571428571428572 0.03571428571428572 0.03571428571428572 0.03571428571428572 0.03571428571428572 0.03571428571428572 0.03571428571428572 0.03571428571428572 0.03571428571428572 0.03571428571428572 0.03571428571428572 0.03571428571428572 0.03571428571428572 0.03571428571428572 0.03571428571428572 0.03571428571428572 0.03571428571428572 0.03571428571428572 0.03571428571428572 0.03571428571428572 0.03571428571428572 0.03571428571428572 0.03571428571428572 0.03571428571428572 0.03571428571428572 0.03571428571428572 0.03571428571428572 0.03571428571428572 0.03571428571428572 0.03571428571428572 0.03571428571428572 0.03571428571428572 0.03571428571428572 0.03571428571428572 0.03571428571428572 0.03571428571428572 0.03571428571428572 0.03571428571428572 0.03571428571428572 0.03571428571428572 0.03571428571428572 0.03571428571428572 0.03571428571428572 0.03571428571428572 0.01785714285714285 0.01785714285714285 0.01785714285714285 0.01785714285714285 0.5178571428571428 0.01785714285714285 0.01785714285714285 0.01785714285714285 0.01785714285714285 0.01785714285714285 0.01785714285714285 0.01785714285714285 0.01785714285714285 0.01785714285714285 0.01785714285714285 0.01785714285714285 0.01785714285714285 0.01785714285714285 0.01785714285714285 0.01785714285714285 0.01785714285714285 0.01785714285714285 0.01785714285714285 0.01785714285714285 0.01785714285714285 0.01785714285714285 0.01785714285714285 0.01785714285714285 0.00510204081632653 0.00510204081632653 0.00510204081632653 0.00510204081632653 0.00510204081632653 0.00510204081632653 0.00510204081632653 0.00510204081632653 0.00510204081632653 0.00510204081632653 0.2908163265306122 0.4336734693877551 0.00510204081632653 0.00510204081632653 0.00510204081632653 0.00510204081632653 0.00510204081632653 0.00510204081632653 0.00510204081632653 0.00510204081632653 0.00510204081632653 0.00510204081632653 0.00510204081632653 0.00510204081632653 0.00510204081632653 0.00510204081632653 0.1479591836734694 0.00510204081632653 0.03571428571428572 0.03571428571428572 0.03571428571428572 0.03571428571428572 0.03571428571428572 0.03571428571428572 0.03571428571428572 0.03571428571428572 0.03571428571428572 0.03571428571428572 0.03571428571428572 0.03571428571428572 0.03571428571428572 0.03571428571428572 0.03571428571428572 0.03571428571428572 0.03571428571428572 0.03571428571428572 0.03571428571428572 0.03571428571428572 0.03571428571428572 0.03571428571428572 0.03571428571428572 0.03571428571428572 0.03571428571428572 0.03571428571428572 0.03571428571428572 0.03571428571428572 0.03571428571428572 0.03571428571428572 0.03571428571428572 0.03571428571428572 0.03571428571428572 0.03571428571428572 0.03571428571428572 0.03571428571428572 0.03571428571428572 0.03571428571428572 0.03571428571428572 0.03571428571428572 0.03571428571428572 0.03571428571428572 0.03571428571428572 0.03571428571428572 0.03571428571428572 0.03571428571428572 0.03571428571428572 0.03571428571428572 0.03571428571428572 0.03571428571428572 0.03571428571428572 0.03571428571428572 0.03571428571428572 0.03571428571428572 0.03571428571428572 0.03571428571428572 0.03571428571428572 0.03571428571428572 0.03571428571428572 0.03571428571428572 0.03571428571428572 0.03571428571428572 0.03571428571428572 0.03571428571428572 0.03571428571428572 0.03571428571428572 0.03571428571428572 0.03571428571428572 0.03571428571428572 0.03571428571428572 0.03571428571428572 0.03571428571428572 0.03571428571428572 0.03571428571428572 0.03571428571428572 0.03571428571428572 0.03571428571428572 0.03571428571428572 0.03571428571428572 0.03571428571428572 0.03571428571428572 0.03571428571428572 0.03571428571428572 0.03571428571428572 0.03571428571428572 0.03571428571428572 0.03571428571428572 0.03571428571428572 0.03571428571428572 0.03571428571428572 0.03571428571428572 0.03571428571428572 0.03571428571428572 0.03571428571428572 0.03571428571428572 0.03571428571428572 0.03571428571428572 0.03571428571428572 0.03571428571428572 0.03571428571428572 0.03571428571428572 0.03571428571428572 0.03571428571428572 0.03571428571428572 0.03571428571428572 0.03571428571428572 0.03571428571428572 0.03571428571428572 0.03571428571428572 0.03571428571428572 0.03571428571428572 0.03571428571428572 0.03571428571428572 0.03571428571428572 0.03571428571428572 0.03571428571428572 0.03571428571428572 0.03571428571428572 0.03571428571428572 0.03571428571428572 0.03571428571428572 0.03571428571428572 0.03571428571428572 0.03571428571428572 0.03571428571428572 0.03571428571428572 0.03571428571428572 0.03571428571428572 0.03571428571428572 0.03571428571428572 0.03571428571428572 0.03571428571428572 0.03571428571428572 0.03571428571428572 0.03571428571428572 0.03571428571428572 0.03571428571428572 0.03571428571428572 0.03571428571428572 0.03571428571428572 0.03571428571428572 0.03571428571428572 0.03571428571428572 0.03571428571428572 0.03571428571428572 0.03571428571428572 0.03571428571428572 0.03571428571428572 0.03571428571428572 0.03571428571428572 0.03571428571428572 0.03571428571428572 0.03571428571428572 0.03571428571428572 0.03571428571428572 0.03571428571428572 0.03571428571428572 0.03571428571428572 0.03571428571428572 0.03571428571428572 0.03571428571428572 0.03571428571428572 0.03571428571428572 0.03571428571428572 0.03571428571428572 0.03571428571428572 0.03571428571428572 0.03571428571428572 0.03571428571428572 0.03571428571428572 0.03571428571428572 0.03571428571428572 0.03571428571428572 0.03571428571428572 0.03571428571428572 0.03571428571428572 0.03571428571428572 0.03571428571428572 0.03571428571428572 0.03571428571428572 0.03571428571428572 0.03571428571428572 0.03571428571428572 0.03571428571428572 0.03571428571428572 0.03571428571428572 0.03571428571428572 0.03571428571428572 0.03571428571428572 0.03571428571428572 0.03571428571428572 0.03571428571428572 0.03571428571428572 0.03571428571428572 0.03571428571428572 0.03571428571428572 0.03571428571428572 0.03571428571428572 0.03571428571428572 0.03571428571428572 0.03571428571428572 0.03571428571428572 0.03571428571428572 0.03571428571428572 0.03571428571428572 0.03571428571428572 0.03571428571428572 0.03571428571428572 0.03571428571428572 0.03571428571428572 0.03571428571428572 0.03571428571428572 0.03571428571428572 0.03571428571428572 0.03571428571428572 0.03571428571428572 0.03571428571428572 0.03571428571428572 0.03571428571428572 0.03571428571428572 0.03571428571428572 0.03571428571428572 0.03571428571428572 0.03571428571428572 0.03571428571428572 0.03571428571428572 0.03571428571428572 0.03571428571428572 0.03571428571428572 0.03571428571428572 0.03571428571428572 0.03571428571428572 0.03571428571428572 0.03571428571428572 0.03571428571428572 0.03571428571428572 0.03571428571428572 0.03571428571428572 0.03571428571428572 0.03571428571428572 0.03571428571428572 0.03571428571428572 0.03571428571428572 0.03571428571428572 0.03571428571428572 0.03571428571428572 0.03571428571428572 0.03571428571428572 0.03571428571428572 0.03571428571428572 0.03571428571428572 0.03571428571428572 0.03571428571428572 0.03571428571428572 0.03571428571428572 0.03571428571428572 0.03571428571428572 0.03571428571428572 0.03571428571428572 0.03571428571428572 0.03571428571428572 0.03571428571428572 0.03571428571428572 0.03571428571428572 0.03571428571428572 0.03571428571428572 0.03571428571428572 0.03571428571428572 0.03571428571428572 0.03571428571428572 0.03571428571428572 0.03571428571428572 0.03571428571428572 0.03571428571428572 0.03571428571428572 0.03571428571428572 0.03571428571428572 0.03571428571428572 0.03571428571428572 0.03571428571428572 0.03571428571428572 0.03571428571428572 0.03571428571428572 0.03571428571428572 0.03571428571428572 0.03571428571428572 0.03571428571428572 0.03571428571428572 0.03571428571428572 0.03571428571428572 0.03571428571428572 0.03571428571428572 0.03571428571428572 0.03571428571428572 0.03571428571428572 0.03571428571428572 0.03571428571428572 0.03571428571428572 0.03571428571428572 0.03571428571428572 0.03571428571428572 0.03571428571428572 0.03571428571428572 0.03571428571428572 0.03571428571428572 0.03571428571428572 0.03571428571428572 0.03571428571428572 0.03571428571428572 0.03571428571428572 0.03571428571428572 0.03571428571428572 0.03571428571428572 0.03571428571428572 0.03571428571428572 0.03571428571428572 0.03571428571428572 0.03571428571428572 0.03571428571428572 0.03571428571428572 0.03571428571428572 0.03571428571428572 0.03571428571428572 0.03571428571428572 0.03571428571428572 0.03571428571428572 0.03571428571428572 0.03571428571428572 0.03571428571428572 0.03571428571428572 0.03571428571428572 0.03571428571428572 0.03571428571428572 0.03571428571428572 0.03571428571428572 0.03571428571428572 0.03571428571428572 0.03571428571428572 0.03571428571428572 0.03571428571428572 0.03571428571428572 0.03571428571428572 0.03571428571428572 0.03571428571428572 0.03571428571428572 0.03571428571428572 0.03571428571428572 0.03571428571428572 0.03571428571428572 0.03571428571428572 0.03571428571428572 0.03571428571428572 0.03571428571428572 0.03571428571428572 0.03571428571428572 0.03571428571428572 0.03571428571428572 0.03571428571428572 0.03571428571428572 0.03571428571428572 0.03571428571428572 0.03571428571428572 0.03571428571428572 0.03571428571428572 0.03571428571428572 0.03571428571428572 0.03571428571428572 0.03571428571428572 0.03571428571428572 0.03571428571428572 0.03571428571428572 0.03571428571428572 0.03571428571428572 0.03571428571428572 0.03571428571428572 0.03571428571428572 0.03571428571428572 0.03571428571428572 0.03571428571428572 0.03571428571428572 0.03571428571428572 0.03571428571428572 0.03571428571428572 0.03571428571428572 0.03571428571428572 0.03571428571428572 0.03571428571428572 0.03571428571428572 0.03571428571428572 0.03571428571428572 0.03571428571428572 0.03571428571428572 0.03571428571428572 0.03571428571428572 0.03571428571428572 0.03571428571428572 0.03571428571428572 0.03571428571428572 0.03571428571428572 0.03571428571428572 0.03571428571428572 0.03571428571428572 0.03571428571428572 0.03571428571428572 0.03571428571428572 0.03571428571428572 0.03571428571428572 0.03571428571428572 0.03571428571428572 0.03571428571428572 0.03571428571428572 0.03571428571428572 0.03571428571428572 0.03571428571428572 0.03571428571428572 0.03571428571428572 0.03571428571428572 0.03571428571428572 0.03571428571428572 0.03571428571428572 0.03571428571428572 0.03571428571428572 0.03571428571428572 0.03571428571428572 0.03571428571428572 0.03571428571428572 0.03571428571428572 0.03571428571428572 0.03571428571428572 0.03571428571428572 0.03571428571428572 0.03571428571428572 0.03571428571428572 0.03571428571428572 0.03571428571428572 0.03571428571428572 0.03571428571428572 0.03571428571428572 0.03571428571428572 0.03571428571428572 0.03571428571428572 0.03571428571428572 0.03571428571428572 0.03571428571428572 0.03571428571428572 0.03571428571428572 0.03571428571428572 0.03571428571428572 0.03571428571428572 0.03571428571428572 0.03571428571428572 0.03571428571428572 0.03571428571428572 0.03571428571428572 0.03571428571428572 0.03571428571428572 0.03571428571428572 0.03571428571428572 0.03571428571428572 0.03571428571428572 0.03571428571428572 0.03571428571428572 0.03571428571428572 0.03571428571428572 0.03571428571428572 0.03571428571428572 0.03571428571428572 0.03571428571428572 0.03571428571428572 0.03571428571428572 0.03571428571428572 0.03571428571428572 0.03571428571428572 0.03571428571428572 0.03571428571428572 0.03571428571428572 0.01785714285714285 0.01785714285714285 0.01785714285714285 0.01785714285714285 0.01785714285714285 0.01785714285714285 0.01785714285714285 0.01785714285714285 0.01785714285714285 0.01785714285714285 0.01785714285714285 0.01785714285714285 0.01785714285714285 0.01785714285714285 0.5178571428571428 0.01785714285714285 0.01785714285714285 0.01785714285714285 0.01785714285714285 0.01785714285714285 0.01785714285714285 0.01785714285714285 0.01785714285714285 0.01785714285714285 0.01785714285714285 0.01785714285714285 0.01785714285714285 0.01785714285714285 0.03571428571428572 0.03571428571428572 0.03571428571428572 0.03571428571428572 0.03571428571428572 0.03571428571428572 0.03571428571428572 0.03571428571428572 0.03571428571428572 0.03571428571428572 0.03571428571428572 0.03571428571428572 0.03571428571428572 0.03571428571428572 0.03571428571428572 0.03571428571428572 0.03571428571428572 0.03571428571428572 0.03571428571428572 0.03571428571428572 0.03571428571428572 0.03571428571428572 0.03571428571428572 0.03571428571428572 0.03571428571428572 0.03571428571428572 0.03571428571428572 0.03571428571428572 0.03571428571428572 0.03571428571428572 0.03571428571428572 0.03571428571428572 0.03571428571428572 0.03571428571428572 0.03571428571428572 0.03571428571428572 0.03571428571428572 0.03571428571428572 0.03571428571428572 0.03571428571428572 0.03571428571428572 0.03571428571428572 0.03571428571428572 0.03571428571428572 0.03571428571428572 0.03571428571428572 0.03571428571428572 0.03571428571428572 0.03571428571428572 0.03571428571428572 0.03571428571428572 0.03571428571428572 0.03571428571428572 0.03571428571428572 0.03571428571428572 0.03571428571428572 0.03571428571428572 0.03571428571428572 0.03571428571428572 0.03571428571428572 0.03571428571428572 0.03571428571428572 0.03571428571428572 0.03571428571428572 0.03571428571428572 0.03571428571428572 0.03571428571428572 0.03571428571428572 0.03571428571428572 0.03571428571428572 0.03571428571428572 0.03571428571428572 0.03571428571428572 0.03571428571428572 0.03571428571428572 0.03571428571428572 0.03571428571428572 0.03571428571428572 0.03571428571428572 0.03571428571428572 0.03571428571428572 0.03571428571428572 0.03571428571428572 0.03571428571428572 0.03571428571428572 0.03571428571428572 0.03571428571428572 0.03571428571428572 0.03571428571428572 0.03571428571428572 0.03571428571428572 0.03571428571428572 0.03571428571428572 0.03571428571428572 0.03571428571428572 0.03571428571428572 0.03571428571428572 0.03571428571428572 0.03571428571428572 0.03571428571428572 0.03571428571428572 0.03571428571428572 0.03571428571428572 0.03571428571428572 0.03571428571428572 0.03571428571428572 0.03571428571428572 0.03571428571428572 0.03571428571428572 0.03571428571428572 0.03571428571428572 0.03571428571428572 0.03571428571428572 0.03571428571428572 0.03571428571428572 0.03571428571428572 0.03571428571428572 0.03571428571428572 0.03571428571428572 0.03571428571428572 0.03571428571428572 0.03571428571428572 0.03571428571428572 0.03571428571428572 0.03571428571428572 0.03571428571428572 0.03571428571428572 0.03571428571428572 0.03571428571428572 0.03571428571428572 0.03571428571428572 0.03571428571428572 0.03571428571428572 0.03571428571428572 0.03571428571428572 0.03571428571428572 0.03571428571428572 0.03571428571428572 0.03571428571428572 0.03571428571428572 0.03571428571428572 0.03571428571428572 0.03571428571428572 0.03571428571428572 0.03571428571428572 0.03571428571428572 0.03571428571428572 0.03571428571428572 0.03571428571428572 0.03571428571428572 0.03571428571428572 0.03571428571428572 0.03571428571428572 0.03571428571428572 0.03571428571428572 0.03571428571428572 0.03571428571428572 0.03571428571428572 0.03571428571428572 0.03571428571428572 0.03571428571428572 0.03571428571428572 0.03571428571428572 0.03571428571428572 0.03571428571428572 0.03571428571428572 0.03571428571428572 0.03571428571428572 0.03571428571428572 0.03571428571428572 0.03571428571428572 0.03571428571428572 0.03571428571428572 0.03571428571428572 0.03571428571428572 0.03571428571428572 0.03571428571428572 0.03571428571428572 0.03571428571428572 0.03571428571428572 0.03571428571428572 0.03571428571428572 0.03571428571428572 0.03571428571428572 0.03571428571428572 0.03571428571428572 0.03571428571428572 0.03571428571428572 0.03571428571428572 0.03571428571428572 0.03571428571428572 0.03571428571428572 0.03571428571428572 0.03571428571428572 0.03571428571428572 0.03571428571428572 0.03571428571428572 0.03571428571428572 0.03571428571428572 0.03571428571428572 0.03571428571428572 0.03571428571428572 0.03571428571428572 0.03571428571428572 0.03571428571428572 0.03571428571428572 0.03571428571428572 0.03571428571428572 0.03571428571428572 0.03571428571428572 0.03571428571428572 0.03571428571428572 0.03571428571428572 0.03571428571428572 0.03571428571428572 0.03571428571428572 0.03571428571428572 0.03571428571428572 0.03571428571428572 0.03571428571428572 0.03571428571428572 0.03571428571428572 0.03571428571428572 0.03571428571428572 0.03571428571428572 0.03571428571428572 0.03571428571428572 0.03571428571428572 0.03571428571428572 0.03571428571428572 0.03571428571428572 0.03571428571428572 0.03571428571428572 0.03571428571428572 0.03571428571428572 0.03571428571428572 0.03571428571428572 0.03571428571428572 0.03571428571428572 0.03571428571428572 0.03571428571428572 0.03571428571428572 0.03571428571428572 0.03571428571428572 0.03571428571428572 0.03571428571428572 0.03571428571428572 0.03571428571428572 0.03571428571428572 0.03571428571428572 0.03571428571428572 0.03571428571428572 0.03571428571428572 0.03571428571428572 0.03571428571428572 0.03571428571428572 0.03571428571428572 0.03571428571428572 0.03571428571428572 0.03571428571428572 0.03571428571428572 0.03571428571428572 0.03571428571428572 0.03571428571428572 0.03571428571428572 0.03571428571428572 0.03571428571428572 0.03571428571428572 0.03571428571428572 0.03571428571428572 0.03571428571428572 0.03571428571428572 0.03571428571428572 0.03571428571428572 0.03571428571428572 0.03571428571428572 0.03571428571428572 0.03571428571428572 0.03571428571428572 0.03571428571428572 0.03571428571428572 0.03571428571428572 0.03571428571428572 0.03571428571428572 0.03571428571428572 0.03571428571428572 0.03571428571428572 0.03571428571428572 0.03571428571428572 0.03571428571428572 0.03571428571428572 0.03571428571428572 0.03571428571428572 0.03571428571428572 0.03571428571428572 0.03571428571428572 0.03571428571428572 0.03571428571428572 0.03571428571428572 0.03571428571428572 0.03571428571428572 0.03571428571428572 0.03571428571428572 0.03571428571428572 0.03571428571428572 0.03571428571428572 0.03571428571428572 0.03571428571428572 0.03571428571428572 0.03571428571428572 0.03571428571428572 0.03571428571428572 0.03571428571428572 0.03571428571428572 0.03571428571428572 0.03571428571428572 0.03571428571428572 0.03571428571428572 0.03571428571428572 0.03571428571428572 0.03571428571428572 0.03571428571428572 0.03571428571428572 0.03571428571428572 0.03571428571428572 0.03571428571428572 0.03571428571428572 0.03571428571428572 0.03571428571428572 0.03571428571428572 0.03571428571428572 0.03571428571428572 0.03571428571428572 0.03571428571428572 0.03571428571428572 0.03571428571428572 0.03571428571428572 0.03571428571428572 0.03571428571428572 0.03571428571428572 0.03571428571428572 0.03571428571428572 0.03571428571428572 0.03571428571428572 0.03571428571428572 0.03571428571428572 0.03571428571428572 0.03571428571428572 0.03571428571428572 0.03571428571428572 0.03571428571428572 0.03571428571428572 0.03571428571428572 0.03571428571428572 0.03571428571428572 0.03571428571428572 0.03571428571428572 0.03571428571428572 0.03571428571428572 0.03571428571428572 0.03571428571428572 0.03571428571428572 0.03571428571428572 0.03571428571428572 0.03571428571428572 0.03571428571428572 0.03571428571428572 0.03571428571428572 0.03571428571428572 0.03571428571428572 0.03571428571428572 0.03571428571428572 0.03571428571428572 0.03571428571428572 0.03571428571428572 0.03571428571428572 0.03571428571428572 0.03571428571428572 0.03571428571428572 0.03571428571428572 0.03571428571428572 0.03571428571428572 0.03571428571428572 0.03571428571428572 0.03571428571428572 0.03571428571428572 0.03571428571428572 0.03571428571428572 0.03571428571428572 0.03571428571428572 0.03571428571428572 0.03571428571428572 0.03571428571428572 0.03571428571428572 0.03571428571428572 0.03571428571428572 0.03571428571428572 0.03571428571428572 0.03571428571428572 0.03571428571428572 0.03571428571428572 0.03571428571428572 0.03571428571428572 0.03571428571428572 0.03571428571428572 0.03571428571428572 0.03571428571428572 0.03571428571428572 0.03571428571428572 0.03571428571428572 0.03571428571428572 0.03571428571428572 0.03571428571428572 0.03571428571428572 0.03571428571428572 0.03571428571428572 0.03571428571428572 0.03571428571428572 0.03571428571428572 0.03571428571428572 0.03571428571428572 0.03571428571428572 0.03571428571428572 0.03571428571428572 0.03571428571428572 0.03571428571428572 0.03571428571428572 0.03571428571428572 0.03571428571428572 0.03571428571428572 0.03571428571428572 0.03571428571428572 0.03571428571428572 0.03571428571428572 0.03571428571428572 0.03571428571428572 0.03571428571428572 0.03571428571428572 0.03571428571428572 0.03571428571428572 0.03571428571428572 0.03571428571428572 0.03571428571428572 0.03571428571428572 0.03571428571428572 0.03571428571428572 0.03571428571428572 0.03571428571428572 0.01785714285714285 0.01785714285714285 0.01785714285714285 0.01785714285714285 0.01785714285714285 0.01785714285714285 0.01785714285714285 0.5178571428571428 0.01785714285714285 0.01785714285714285 0.01785714285714285 0.01785714285714285 0.01785714285714285 0.01785714285714285 0.01785714285714285 0.01785714285714285 0.01785714285714285 0.01785714285714285 0.01785714285714285 0.01785714285714285 0.01785714285714285 0.01785714285714285 0.01785714285714285 0.01785714285714285 0.01785714285714285 0.01785714285714285 0.01785714285714285 0.01785714285714285 0.07270408163265306 0.001275510204081633 0.001275510204081633 0.07270408163265306 0.07270408163265306 0.001275510204081633 0.001275510204081633 0.1084183673469388 0.001275510204081633 0.001275510204081633 0.001275510204081633 0.1798469387755102 0.001275510204081633 0.07270408163265306 0.001275510204081633 0.03698979591836735 0.001275510204081633 0.001275510204081633 0.001275510204081633 0.07270408163265306 0.07270408163265306 0.001275510204081633 0.03698979591836735 0.1084183673469388 0.03698979591836735 0.03698979591836735 0.001275510204081633 0.001275510204081633 0.03571428571428572 0.03571428571428572 0.03571428571428572 0.03571428571428572 0.03571428571428572 0.03571428571428572 0.03571428571428572 0.03571428571428572 0.03571428571428572 0.03571428571428572 0.03571428571428572 0.03571428571428572 0.03571428571428572 0.03571428571428572 0.03571428571428572 0.03571428571428572 0.03571428571428572 0.03571428571428572 0.03571428571428572 0.03571428571428572 0.03571428571428572 0.03571428571428572 0.03571428571428572 0.03571428571428572 0.03571428571428572 0.03571428571428572 0.03571428571428572 0.03571428571428572 0.03571428571428572 0.03571428571428572 0.03571428571428572 0.03571428571428572 0.03571428571428572 0.03571428571428572 0.03571428571428572 0.03571428571428572 0.03571428571428572 0.03571428571428572 0.03571428571428572 0.03571428571428572 0.03571428571428572 0.03571428571428572 0.03571428571428572 0.03571428571428572 0.03571428571428572 0.03571428571428572 0.03571428571428572 0.03571428571428572 0.03571428571428572 0.03571428571428572 0.03571428571428572 0.03571428571428572 0.03571428571428572 0.03571428571428572 0.03571428571428572 0.03571428571428572 0.06904761904761905 0.002380952380952381 0.002380952380952381 0.002380952380952381 0.002380952380952381 0.002380952380952381 0.002380952380952381 0.002380952380952381 0.06904761904761905 0.002380952380952381 0.06904761904761905 0.06904761904761905 0.002380952380952381 0.002380952380952381 0.002380952380952381 0.2023809523809524 0.06904761904761905 0.06904761904761905 0.06904761904761905 0.002380952380952381 0.1357142857142857 0.002380952380952381 0.06904761904761905 0.002380952380952381 0.002380952380952381 0.002380952380952381 0.002380952380952381 0.06904761904761905 0.03571428571428572 0.03571428571428572 0.03571428571428572 0.03571428571428572 0.03571428571428572 0.03571428571428572 0.03571428571428572 0.03571428571428572 0.03571428571428572 0.03571428571428572 0.03571428571428572 0.03571428571428572 0.03571428571428572 0.03571428571428572 0.03571428571428572 0.03571428571428572 0.03571428571428572 0.03571428571428572 0.03571428571428572 0.03571428571428572 0.03571428571428572 0.03571428571428572 0.03571428571428572 0.03571428571428572 0.03571428571428572 0.03571428571428572 0.03571428571428572 0.03571428571428572 0.03571428571428572 0.03571428571428572 0.03571428571428572 0.03571428571428572 0.03571428571428572 0.03571428571428572 0.03571428571428572 0.03571428571428572 0.03571428571428572 0.03571428571428572 0.03571428571428572 0.03571428571428572 0.03571428571428572 0.03571428571428572 0.03571428571428572 0.03571428571428572 0.03571428571428572 0.03571428571428572 0.03571428571428572 0.03571428571428572 0.03571428571428572 0.03571428571428572 0.03571428571428572 0.03571428571428572 0.03571428571428572 0.03571428571428572 0.03571428571428572 0.03571428571428572 0.01785714285714286 0.01785714285714286 0.01785714285714286 0.01785714285714286 0.01785714285714286 0.01785714285714286 0.01785714285714286 0.01785714285714286 0.01785714285714286 0.01785714285714286 0.01785714285714286 0.01785714285714286 0.01785714285714286 0.01785714285714286 0.01785714285714286 0.01785714285714286 0.01785714285714286 0.01785714285714286 0.5178571428571429 0.01785714285714286 0.01785714285714286 0.01785714285714286 0.01785714285714286 0.01785714285714286 0.01785714285714286 0.01785714285714286 0.01785714285714286 0.01785714285714286 0.03571428571428572 0.03571428571428572 0.03571428571428572 0.03571428571428572 0.03571428571428572 0.03571428571428572 0.03571428571428572 0.03571428571428572 0.03571428571428572 0.03571428571428572 0.03571428571428572 0.03571428571428572 0.03571428571428572 0.03571428571428572 0.03571428571428572 0.03571428571428572 0.03571428571428572 0.03571428571428572 0.03571428571428572 0.03571428571428572 0.03571428571428572 0.03571428571428572 0.03571428571428572 0.03571428571428572 0.03571428571428572 0.03571428571428572 0.03571428571428572 0.03571428571428572 0.03571428571428572 0.03571428571428572 0.03571428571428572 0.03571428571428572 0.03571428571428572 0.03571428571428572 0.03571428571428572 0.03571428571428572 0.03571428571428572 0.03571428571428572 0.03571428571428572 0.03571428571428572 0.03571428571428572 0.03571428571428572 0.03571428571428572 0.03571428571428572 0.03571428571428572 0.03571428571428572 0.03571428571428572 0.03571428571428572 0.03571428571428572 0.03571428571428572 0.03571428571428572 0.03571428571428572 0.03571428571428572 0.03571428571428572 0.03571428571428572 0.03571428571428572 0.01785714285714286 0.01785714285714286 0.01785714285714286 0.01785714285714286 0.01785714285714286 0.01785714285714286 0.01785714285714286 0.01785714285714286 0.01785714285714286 0.01785714285714286 0.01785714285714286 0.01785714285714286 0.01785714285714286 0.01785714285714286 0.01785714285714286 0.01785714285714286 0.01785714285714286 0.01785714285714286 0.5178571428571429 0.01785714285714286 0.01785714285714286 0.01785714285714286 0.01785714285714286 0.01785714285714286 0.01785714285714286 0.01785714285714286 0.01785714285714286 0.01785714285714286 0.03571428571428572 0.03571428571428572 0.03571428571428572 0.03571428571428572 0.03571428571428572 0.03571428571428572 0.03571428571428572 0.03571428571428572 0.03571428571428572 0.03571428571428572 0.03571428571428572 0.03571428571428572 0.03571428571428572 0.03571428571428572 0.03571428571428572 0.03571428571428572 0.03571428571428572 0.03571428571428572 0.03571428571428572 0.03571428571428572 0.03571428571428572 0.03571428571428572 0.03571428571428572 0.03571428571428572 0.03571428571428572 0.03571428571428572 0.03571428571428572 0.03571428571428572 0.03571428571428572 0.03571428571428572 0.03571428571428572 0.03571428571428572 0.03571428571428572 0.03571428571428572 0.03571428571428572 0.03571428571428572 0.03571428571428572 0.03571428571428572 0.03571428571428572 0.03571428571428572 0.03571428571428572 0.03571428571428572 0.03571428571428572 0.03571428571428572 0.03571428571428572 0.03571428571428572 0.03571428571428572 0.03571428571428572 0.03571428571428572 0.03571428571428572 0.03571428571428572 0.03571428571428572 0.03571428571428572 0.03571428571428572 0.03571428571428572 0.03571428571428572 0.03571428571428572 0.03571428571428572 0.03571428571428572 0.03571428571428572 0.03571428571428572 0.03571428571428572 0.03571428571428572 0.03571428571428572 0.03571428571428572 0.03571428571428572 0.03571428571428572 0.03571428571428572 0.03571428571428572 0.03571428571428572 0.03571428571428572 0.03571428571428572 0.03571428571428572 0.03571428571428572 0.03571428571428572 0.03571428571428572 0.03571428571428572 0.03571428571428572 0.03571428571428572 0.03571428571428572 0.03571428571428572 0.03571428571428572 0.03571428571428572 0.03571428571428572</probabilities>
		</cpt>
	</nodes>
	<extensions>
		<genie version="1.0" app="GeNIe 2.2.2601.0 ACADEMIC" name="very_small_SC_clean" faultnameformat="nodestate">
			<node id="county_name">
				<name>county_name</name>
				<interior color="e5f6f7" />
				<outline color="000080" />
				<font color="000000" name="Arial" size="8" />
				<position>798 837 870 885</position>
				<barchart width="128" height="1711" />
			</node>
			<node id="driver_gender">
				<name>driver_gender</name>
				<interior color="e5f6f7" />
				<outline color="000080" />
				<font color="000000" name="Arial" size="8" />
				<position>1036 732 1108 780</position>
			</node>
			<node id="driver_race">
				<name>driver_race</name>
				<interior color="e5f6f7" />
				<outline color="000080" />
				<font color="000000" name="Arial" size="8" />
				<position>623 701 695 749</position>
			</node>
			<node id="search_conducted">
				<name>search_conducted</name>
				<interior color="e5f6f7" />
				<outline color="000080" />
				<font color="000000" name="Arial" size="8" />
				<position>444 935 564 990</position>
				<barchart width="128" height="177" />
			</node>
			<node id="stop_outcome">
				<name>stop_outcome</name>
				<interior color="e5f6f7" />
				<outline color="000080" />
				<font color="000000" name="Arial" size="8" />
				<position>252 836 324 884</position>
				<barchart width="128" height="236" />
			</node>
			<node id="officer_race">
				<name>officer_race</name>
				<interior color="e5f6f7" />
				<outline color="000080" />
				<font color="000000" name="Arial" size="8" />
				<position>271 761 343 809</position>
			</node>
			<node id="Node2">
				<name>Node2</name>
				<interior color="e5f6f7" />
				<outline color="000080" />
				<font color="000000" name="Arial" size="8" />
				<position>303 898 416 968</position>
			</node>
		</genie>
	</extensions>
</smile>
