<?xml version="1.0" encoding="ISO-8859-1"?>
<!-- This network was created in GeNIe Academic, which can be used for educational and research purposes only -->
<smile version="1.0" id="Unnamed" numsamples="10000" discsamples="10000">
	<nodes>
		<cpt id="officer_age">
			<state id="S0s" />
			<state id="S10s" />
			<state id="S20s" />
			<state id="S30s" />
			<state id="S40s" />
			<state id="S50s" />
			<state id="S60s" />
			<state id="S70s" />
			<probabilities>0.001098105426442984 0.001317726511437189 0.2527975951476144 0.4538504037214502 0.2378118876762129 0.04328594322204861 0.009580969834344163 0.0002573684604495415</probabilities>
		</cpt>
		<cpt id="county_name">
			<state id="SAbbeville_County" />
			<state id="SAiken_County" />
			<state id="SAllendale_County" />
			<state id="SAnderson_County" />
			<state id="SBamberg_County" />
			<state id="SBarnwell_County" />
			<state id="SBeaufort_County" />
			<state id="SBerkeley_County" />
			<state id="SCalhoun_County" />
			<state id="SCharleston_County" />
			<state id="SCherokee_County" />
			<state id="SChester_County" />
			<state id="SChesterfield_County" />
			<state id="SColleton_County" />
			<state id="SDarlington_County" />
			<state id="SDorchester_County" />
			<state id="SEdgefield_County" />
			<state id="SFairfield_County" />
			<state id="SFlorence_County" />
			<state id="SGeorgetown_County" />
			<state id="SGreenville_County" />
			<state id="SGreenwood_County" />
			<state id="SHampton_County" />
			<state id="SHorry_County" />
			<state id="SJasper_County" />
			<state id="SKershaw_County" />
			<state id="SLancaster_County" />
			<state id="SLaurens_County" />
			<state id="SLee_County" />
			<state id="SLexington_County" />
			<state id="SMarion_County" />
			<state id="SMarlboro_County" />
			<state id="SMccormick_County" />
			<state id="SNewberry_County" />
			<state id="SOconee_County" />
			<state id="SOrangeburg_County" />
			<state id="SPickens_County" />
			<state id="SRichland_County" />
			<state id="SSaluda_County" />
			<state id="SSpartanburg_County" />
			<state id="SSumter_County" />
			<state id="SUnion_County" />
			<state id="SWilliamsburg_County" />
			<state id="SYork_County" />
			<parents>officer_age</parents>
			<probabilities>2.205653354225282e-07 2.205653354225282e-07 2.205653354225282e-07 2.205653354225282e-07 2.205653354225282e-07 2.205653354225282e-07 0.7312431238756681 0.01562506892666732 2.205653354225282e-07 0.02499997794346646 2.205653354225282e-07 2.205653354225282e-07 2.205653354225282e-07 0.003125190237601802 2.205653354225282e-07 0.01250009925440094 2.205653354225282e-07 2.205653354225282e-07 2.205653354225282e-07 2.205653354225282e-07 2.205653354225282e-07 2.205653354225282e-07 2.205653354225282e-07 2.205653354225282e-07 0.2124981582794492 2.205653354225282e-07 2.205653354225282e-07 2.205653354225282e-07 2.205653354225282e-07 2.205653354225282e-07 2.205653354225282e-07 2.205653354225282e-07 2.205653354225282e-07 2.205653354225282e-07 2.205653354225282e-07 2.205653354225282e-07 2.205653354225282e-07 2.205653354225282e-07 2.205653354225282e-07 2.205653354225282e-07 2.205653354225282e-07 2.205653354225282e-07 2.205653354225282e-07 2.205653354225282e-07 0.007812600622517981 1.533295512044037e-07 1.533295512044037e-07 1.533295512044037e-07 1.533295512044037e-07 1.533295512044037e-07 1.533295512044037e-07 0.005208451524862389 1.533295512044037e-07 0.002604302427206797 1.533295512044037e-07 1.533295512044037e-07 1.533295512044037e-07 1.533295512044037e-07 0.007812600622517981 0.1718739937748203 1.533295512044037e-07 1.533295512044037e-07 0.07552047716156338 0.01302089881782917 1.533295512044037e-07 0.02083334611079594 1.533295512044037e-07 0.05729143347797423 1.533295512044037e-07 1.533295512044037e-07 1.533295512044037e-07 0.5729129548137815 1.533295512044037e-07 1.533295512044037e-07 0.01302089881782917 1.533295512044037e-07 1.533295512044037e-07 0.04427068798969627 1.533295512044037e-07 1.533295512044037e-07 1.533295512044037e-07 1.533295512044037e-07 1.533295512044037e-07 1.533295512044037e-07 1.533295512044037e-07 1.533295512044037e-07 0.007812600622517981 1.533295512044037e-07 0.00548406364003448 0.04862355432003696 0.005280447415931259 0.04032958679156574 0.009271325408354396 0.01033012977369115 0.02666015094676949 0.0286963131878017 0.005294021830871474 0.02098604550175973 0.01817614160913527 0.01145680621372897 0.01354726611452204 0.01457892164997836 0.009108432429071819 0.02450181897127534 0.004954661457366105 0.007493077051186263 0.02429820274717212 0.01630287234738564 0.07932888091480271 0.01779605799080926 0.008090351308555713 0.05982244664571412 0.01152467828843004 0.02470543519537857 0.01675082804041272 0.01848835315276021 0.007533800296006907 0.07478145190983078 0.00468317315856181 0.002904924801393678 0.002171906394622081 0.0111174458402236 0.02076885486271629 0.0532660042295904 0.02135255470514552 0.08424281912316046 0.003108541025496899 0.04408969973000523 0.02136612912008574 0.004968235872306321 0.008443286097001295 0.05332030188935126 0.004135886948445587 0.03289806966680855 0.003470515739398283 0.05015991591970621 0.005655655278201359 0.006109317466188156 0.01191619347241917 0.02666021458199009 0.004332473896573199 0.01612769078422994 0.03233099193182506 0.01419962648528605 0.01271766333786251 0.01616549596656217 0.02927633319938062 0.02789266352602089 0.008528849135451077 0.008604459500115543 0.04020959192986245 0.01761721496811992 0.09154902953703505 0.02629728483160065 0.003803201343921936 0.07455181956046301 0.007114935316225558 0.0242784880950594 0.01965113377759407 0.02441458675145544 0.008543971208383969 0.04013398156519798 0.009504222839622692 0.01097106391411334 0.002411970634095756 0.01919747158960727 0.0128462009577921 0.02253944970777668 0.02250920556191089 0.04393718290782063 0.008884217849374067 0.06279440785513853 0.02389287523527062 0.01001081228287462 0.01236985566040596 0.04878380728281292 0.003001399695309336 0.02151484105593707 0.004502099540597945 0.06145654463054155 0.008758892370983901 0.009379374037785921 0.01796510872958132 0.02453067055271898 0.004949423532943587 0.01792181931096723 0.02582935311114182 0.02056247384642699 0.005339028300470438 0.01976883450516859 0.02467496861476597 0.02486255609542704 0.009552531712242298 0.02111080648220552 0.02689715877028948 0.01694059248904775 0.0680942554847027 0.02111080648220552 0.007633367487017444 0.06776236994199465 0.01724361841934641 0.01633454062845043 0.01653655791531621 0.02086549977672565 0.005353458106675135 0.03942223055596748 0.01194787954222219 0.009725689386698676 0.00336214485042679 0.0204903248154035 0.02454510035892368 0.01776309144271555 0.02038931617197061 0.05144225912448104 0.01121195942578259 0.07979682831671291 0.01883089710186321 0.004631967796440228 0.00516587062601406 0.07082148885739066 0.00990962430759343 0.03028381159037857 0.0005549390960422785 0.1137624855544749 0.0009513240626334291 0.00158554000917927 0.02338671317169255 0.005073727715181395 0.01173299515391272 0.005470112681772545 0.007452037514728298 0.04304740751461362 0.00142698602254281 0.01181227214723095 0.01054384025413927 0.04035198974179379 0.01014745528754812 0.01664816873964299 0.02988742662378742 0.01855081657928051 0.06778182942990141 0.04637704123397928 0.002695417915634491 0.1129697156212926 0.02267322023182848 0.01371491998686847 0.01736166167950706 0.02013635644564512 0.0008720470693151989 0.04185825261484016 0.03646741706920052 0.003012525888907411 0.005311558695136085 0.01022673228086635 0.03004598061042387 0.03321706034315308 0.02013635644564512 0.01934358651246281 0.02219755827191909 0.02346599016501078 0.002219755955725111 0.01236721110045856 0.006421436601591306 0.03654669406251874 0.02650429751008803 0.002865332059019823 2.913435797471882e-09 0.2621776197343741 2.913435797471882e-09 2.913435797471882e-09 0.00358166434541583 0.001790833629425813 0.003939830488613833 0.0007163351998318039 0.001790833629425813 0.001790833629425813 2.913435797471882e-09 0.0007163351998318039 0.01253581792536591 0.001432667486227811 0.0003581690566338007 0.0003581690566338007 0.06053008111389833 0.002865332059019823 0.08775070799694659 0.001790833629425813 2.913435797471882e-09 0.02722062979648404 0.009670488779781885 2.913435797471882e-09 0.009670488779781885 0.07557305912821448 2.913435797471882e-09 0.03796561409242414 0.1085243443024308 0.008595990350187875 0.0003581690566338007 0.01540114707094993 0.00250716591582182 0.01647564550054394 0.001074501343029807 0.08094555127618452 0.001432667486227811 0.1117478395912128 0.0003581690566338007 0.0114613194957719 0.002865332059019823 0.004656162775009839 3.934777134223119e-06 3.934777134223119e-06 3.934777134223119e-06 0.7065482561067743 3.934777134223119e-06 3.934777134223119e-06 3.934777134223119e-06 3.934777134223119e-06 3.934777134223119e-06 3.934777134223119e-06 3.934777134223119e-06 3.934777134223119e-06 3.934777134223119e-06 3.934777134223119e-06 3.934777134223119e-06 3.934777134223119e-06 3.934777134223119e-06 3.934777134223119e-06 3.934777134223119e-06 3.934777134223119e-06 3.934777134223119e-06 3.934777134223119e-06 3.934777134223119e-06 3.934777134223119e-06 3.934777134223119e-06 3.934777134223119e-06 0.1066521342231176 3.934777134223119e-06 3.934777134223119e-06 3.934777134223119e-06 3.934777134223119e-06 3.934777134223119e-06 3.934777134223119e-06 3.934777134223119e-06 3.934777134223119e-06 3.934777134223119e-06 3.934777134223119e-06 3.934777134223119e-06 3.934777134223119e-06 0.1866382838076052 3.934777134223119e-06 3.934777134223119e-06 3.934777134223119e-06 3.934777134223119e-06</probabilities>
		</cpt>
		<cpt id="driver_race">
			<state id="Black" />
			<state id="Hispanic" />
			<state id="Other" />
			<state id="White" />
			<parents>county_name</parents>
			<probabilities>0.3644378516089106 0.01396045053378788 0.004408655535933379 0.6171930423213681 0.355104951018187 0.04391685561387969 0.008966784650003671 0.5920114087179297 0.5946869795576093 0.01285364426956277 0.00514156766044286 0.387317808512385 0.2171723453146455 0.03531459918839233 0.01206167711959961 0.7354513783773624 0.5443901739195136 0.01073176419631907 0.004878107051274889 0.4399999548328923 0.4988833805006377 0.007146095742984694 0.003126444913903061 0.4908440788424745 0.2913223125922987 0.09034561043884591 0.01051841565826886 0.6078136613105866 0.3334681753975036 0.0434196369806534 0.00809061928413329 0.6150215683377097 0.4853241225857965 0.02252570311322212 0.006143458176139842 0.4860067161248416 0.3939212100046027 0.04739052999352038 0.01139772999236931 0.5472905300095076 0.2622601277141022 0.03105011049706591 0.01146055860605477 0.6952292031827771 0.4121405677273638 0.01959532461205158 0.01064963811674875 0.557614469543836 0.3702737812330092 0.02314213621090927 0.005867040261452647 0.6007170422946287 0.3261512429067951 0.03591044469892697 0.0139417088811553 0.6239966035131226 0.4162515526351649 0.014009968356826 0.008872982179896743 0.5608654968281125 0.366923075001757 0.05102564429525559 0.01435897823110809 0.5676923024718793 0.4255691432566112 0.03152368457593764 0.002627017606021576 0.5402801545614295 0.5181331511119844 0.02318670255161405 0.008620710972359906 0.4500594353640416 0.4240075397273915 0.02712894347331385 0.009846027563595506 0.5390174892356991 0.3366316604428081 0.02140550204834795 0.004442659444161755 0.6375201780646823 0.2442051239007092 0.08779605430242868 0.01367212191077449 0.6543266998860876 0.3505109467636718 0.03386861774347694 0.005547450463662365 0.6100729850291888 0.5517447765721991 0.01143209589057442 0.004211881894828877 0.4326112456423977 0.1797813142354441 0.04481109098970407 0.009958020683209173 0.7654495740916426 0.3832441950202568 0.09209745896707584 0.009506854249948992 0.5151514917627183 0.3781565624652229 0.02793561159043268 0.00552399598690847 0.5883838299574359 0.272119242456476 0.02637111460310141 0.006306143044311109 0.6952034998961115 0.3025885141593251 0.03525736863087455 0.0107111031816846 0.6514430140281157 0.5495887059512363 0.01306246469177557 0.008224536456793958 0.4291242929001942 0.2816047379096074 0.04166960549155106 0.01269125126768355 0.6640344053311581 0.3821138082284036 0.02689182918114552 0.0115697543806916 0.5794246082097592 0.4160766059507723 0.01082886277810401 0.01832573778027053 0.5547687934908531 0.4666663114526994 0.007692704943430809 0.006410655763237321 0.5192303278406324 0.3523253431462163 0.036239187239557 0.007851831836474856 0.6035836377777519 0.09048157072910908 0.03818661396341606 0.006395794922401236 0.8649360203850737 0.6089989487583413 0.02023020889525646 0.004766890885424255 0.366003951460978 0.09549839627516106 0.03810289936593367 0.008681678261203678 0.8577170260977017 0.5056067769797105 0.03276850321027289 0.01576127676243937 0.4458634430475773 0.3359026227907983 0.1006085438360733 0.003651156128867604 0.5598376772442608 0.2218582322275799 0.05218864790575344 0.01750917893984084 0.7084439409268259 0.5421885220605646 0.02488464685012345 0.007910355946435837 0.4250164751428762 0.3506138946280992 0.008640340909090908 0.002728564049586777 0.6380172004132232 0.6554652327850194 0.009231938273376374 0.00369279574899086 0.3316100331926132 0.2592945057359724 0.03045298908305501 0.01167364643562958 0.698578858745343</probabilities>
		</cpt>
		<cpt id="driver_gender">
			<state id="F" />
			<state id="M" />
			<parents>driver_race</parents>
			<probabilities>0.3840587244609522 0.6159412755390479 0.1653315176850521 0.8346684823149478 0.267541008579055 0.7324589914209451 0.3409938542240809 0.6590061457759192</probabilities>
		</cpt>
		<cpt id="search_conducted">
			<state id="FALSE" />
			<state id="TRUE" />
			<parents>driver_gender driver_race officer_age</parents>
			<probabilities>0.9995918367346939 0.0004081632653061224 0.9996347699050402 0.0003652300949598248 0.9864433763477364 0.01355662365226349 0.988213960138732 0.01178603986126813 0.9909719712098118 0.009028028790188138 0.9944248473397942 0.005575152660205927 0.999994992789617 5.00721038295145e-06 0.9970414201183433 0.002958579881656805 0.9444444444444444 0.05555555555555556 0.875 0.125 0.961395505428836 0.03860449457116405 0.9823937032114775 0.01760629678852241 0.9889844221712354 0.01101557782876464 0.9472929667734863 0.05270703322651375 0.9958677685950414 0.004132231404958678 0.875 0.125 0.9444444444444444 0.05555555555555556 0.5 0.5 0.9857033759349522 0.01429662406504796 0.9943463598492362 0.005653640150763738 0.9903268306213019 0.009673169378698226 0.9994054696789536 0.0005945303210463733 0.998046875 0.001953125 0.5 0.5 0.9998285322359396 0.0001714677640603566 0.9997417355371901 0.0002582644628099174 0.9849113006896256 0.01508869931037431 0.9871298034871223 0.01287019651287758 0.9911193563162662 0.008880643683733692 0.9909407069894225 0.009059293010577557 0.998377949539699 0.001622050460301002 0.9988662131519273 0.001133786848072562 0.9998285322359396 0.0001714677640603566 0.9894205729166666 0.01057942708333333 0.9566825458484856 0.04331745415151428 0.9572675174291525 0.04273248257084754 0.9697956740617472 0.03020432593825297 0.975282698388649 0.02471730161135101 0.9830810063043623 0.01691899369563763 0.9970414201183433 0.002958579881656805 0.90283203125 0.09716796875 0.9557291666666666 0.04427083333333333 0.9101840834156996 0.08981591658430051 0.9125056021728365 0.08749439782716348 0.9293252882753977 0.07067471172460231 0.8974975280004477 0.1025024719995522 0.8822115384615385 0.1177884615384616 0.96875 0.03125 0.875 0.125 0.96875 0.03125 0.9857635920231947 0.0142364079768053 0.982965447930413 0.0170345520695871 0.9766171687902299 0.02338283120977022 0.9999291383219955 7.086167800453514e-05 0.99951171875 0.00048828125 0.5 0.5 0.9860879904875148 0.01391200951248514 0.9945209120982987 0.005479087901701323 0.9736152301740425 0.02638476982595753 0.974038425918422 0.02596157408157781 0.9814448029213012 0.01855519707869868 0.983317696239961 0.01668230376003902 0.9893526616504296 0.01064733834957048 0.9993622448979591 0.0006377551020408163</probabilities>
		</cpt>
		<cpt id="stop_outcome">
			<state id="Arrest" />
			<state id="Citation" />
			<state id="SFelony_Arrest" />
			<state id="Warning" />
			<parents>county_name search_conducted</parents>
			<probabilities>0.001496025122832419 0.5886310748702412 1.396457689566339e-07 0.4098727603611576 0.8323999999999999 0.1668 0.0004 0.0004 0.00388941720440837 0.6637233214042713 2.761936659379721e-09 0.3323872586293839 0.7209250690759177 0.209302771808254 0.03986941362220955 0.0299027454936187 2.108066220262563e-07 0.6626834755434804 2.108066220262563e-07 0.3373161028432753 0.1392578125 0.8480078125000001 3.906250000000001e-05 0.0126953125 0.004443034946619626 0.5428752765098703 0.0001269448338881577 0.4525547437096221 0.7112419651056014 0.1489370982552801 0.08814738292011019 0.05167355371900826 0.0004988151199442549 0.5795510402988442 6.212668077522168e-08 0.4199500824545307 0.3777173913043478 0.5554111531190926 0.06675330812854442 0.0001181474480151229 0.0009149651607610253 0.5539798083575286 5.226878953219224e-08 0.4451051742129209 0.7545438957475995 0.2264231824417009 8.573388203017832e-05 0.01894718792866941 0.002329201873853561 0.6636257608203904 0.0001941087865591947 0.3338509285191969 0.7383557753349594 0.2383724815396438 0.01163587156269839 0.01163587156269839 0.00290376578506935 0.7703263174878477 4.778626404483696e-09 0.2267699119484564 0.7391161431701972 0.1793498904309715 0.07609203798392988 0.005441928414901389 0.000704845268795874 0.683579770878794 1.239833366395557e-07 0.3157152598690737 0.7171797193300136 0.2608646446355817 0.02184246265278407 0.0001131733816206428 0.003297619708275557 0.7813272651562787 0.0002061111833166048 0.2151690039521291 0.7516555555555556 0.1677888888888889 0.07383333333333333 0.006722222222222222 0.005075450423610021 0.6069958780579977 4.702900736005846e-09 0.3879286668154915 0.7990535424553812 0.1542076798269335 0.03271498107084911 0.01402379664683613 0.0028285582585497 0.5959529862402342 0.0002175923246611402 0.4010008631765551 0.848425 0.101025 0.030325 0.020225 0.002667583333333333 0.5888629166666666 2.777777777777778e-08 0.4084694722222222 0.7969897959183673 0.1594387755102041 0.02903061224489796 0.01454081632653061 0.002577330996089065 0.6578608059361345 1.152729832542015e-08 0.3395618515404782 0.6409629867008493 0.294864605031245 0.02567697484377504 0.03849543342413075 0.008184888267684615 0.7144920438899975 0.0001604943160564299 0.2771625735262614 0.8704498352641088 0.1088120416622383 0.01555027101711128 0.005187852056541609 0.002744384775758549 0.752221632825983 4.268512740375105e-09 0.2450339781297456 0.5067451916580334 0.3648596910049097 0.02028061799018062 0.1081144993468763 0.005840121108274596 0.5799639945648064 5.040801253506129e-08 0.4141958339189064 0.8274202815282965 0.1207268026429187 0.03454467107153117 0.01730824475725366 0.006013251146520137 0.5781719487043416 2.258574429377946e-08 0.4158147775633939 0.8943129520052596 0.07905982905982906 0.0264628533859303 0.0001643655489809336 0.00456819955285768 0.7309114583102326 2.956899348033263e-09 0.2645203391800104 0.8130266685818252 0.1274797312394267 0.0396617351335823 0.01983186504516582 0.002694311136544711 0.7038341774051968 0.0002072646112051227 0.2932642468470533 0.7873687744140625 0.1732330322265625 0.0393829345703125 1.52587890625e-05 0.002312238186387253 0.5750192680519021 0.000171277327076917 0.4224972164346338 0.709829502529704 0.1942449234220828 0.05515699045351526 0.04076858359469793 0.005721173858300384 0.5769346508269342 5.665151178298194e-09 0.4173441696496142 0.8365250337675421 0.1538483551200751 5.723312195233626e-06 0.009620887800187725 0.0006243167734857717 0.5605491925036067 9.72910664618625e-08 0.4388263934318413 0.4832706261757592 0.4832706261757592 0.0167293738242408 0.0167293738242408 0.004698156725984308 0.7413488242071554 5.051844534600469e-05 0.2539025006215143 0.9044848850613116 0.06222904624277456 0.02604967172307795 0.007236396972835711 0.002438303994866465 0.6409630847037059 2.320934345037898e-08 0.3565985880920843 0.5881895619253651 0.352927257977285 0.04708626284478096 0.01179691725256896 0.005018623870392556 0.5115751914630189 0.0003237883126468979 0.4830823963539418 0.817587890625 0.144658203125 0.018876953125 0.018876953125 0.001383682372791326 0.5420043372806949 9.76425190207627e-09 0.4566119705822618 0.8390612244897959 0.1436816326530612 0.01724897959183674 8.163265306122448e-06 0.003347031418493759 0.655408479893643 5.78469691288774e-09 0.3412444829031663 0.7785000000000001 0.1812111111111111 0.02685555555555556 0.01343333333333334 0.007385583130541261 0.5711471403411557 6.054699609399218e-08 0.421467215981307 0.6941197954711469 0.2777574872169467 0.02794010226442659 0.0001826150474799124 0.00421419878339402 0.6597398801302921 0.0001453184735484986 0.3359006026127655 0.7333306063495466 0.2095240378919099 0.02619173893173701 0.03095361682680644 0.0009542236522503985 0.7270991884056505 2.527543909756572e-08 0.2719465626666598 0.9442148760330578 0.0556198347107438 8.264462809917355e-05 8.264462809917355e-05 0.007240248425051936 0.7580919011033562 4.530790436262562e-08 0.2346678051636875 0.9054355281207133 0.09439300411522633 8.573388203017832e-05 8.573388203017832e-05 0.00129743415930629 0.561607778061156 4.194743483046525e-07 0.4370943683051894 0.6625000000000001 0.3325 0.0025 0.0025 0.002260129624215695 0.67885759439507 1.054966987129065e-08 0.3188822654310443 0.789947064013332 0.1700078423683953 0.03002156651308695 0.01002352710518577 0.00133207370166501 0.497621304071711 9.049598168882586e-09 0.5010466131770257 0.9014698231009365 0.06562174817898023 6.503642039542143e-05 0.03284339229968782 0.001560065979458864 0.6975878970719059 0.0001200083978882841 0.3007320285507469 0.7686495487900941 0.1977619159491991 0.01865991348931054 0.01492862177139619 0.002440221288460863 0.5251342045315529 6.614123365147444e-09 0.472425567565863 0.835509495982469 0.1096146822498174 0.04113403944485026 0.01374178232286341 0.004614793983193735 0.657672091646832 1.026889685582768e-09 0.3377131133430847 0.7888862394973477 0.1666670763663896 0.02888997595882026 0.01555670817744259 0.007157937752950379 0.5599999450878028 4.428402997426566e-08 0.4328420728752168 0.933250815118947 0.06668880569979471 3.018959062915107e-05 3.018959062915107e-05 0.003484122348559326 0.5628284202726925 0.0001142343083751277 0.4335732230703732 0.7157241607999184 0.1624387817569636 0.06091852872155903 0.06091852872155903 0.00549168387624367 0.6083747963821261 0.0001716222515120011 0.3859618974901182 0.9170010586708559 0.04564664298886688 0.02904941602349567 0.00830288231678164 0.002780405214789668 0.684893326534058 5.36333252597301e-08 0.3123262146178272 0.7314342403628118 0.26828231292517 0.0001417233560090703 0.0001417233560090703 0.003452280206725883 0.7372458048501073 3.675571154352818e-08 0.2593018781874553 0.7623269896193771 0.2079248366013072 0.0297241445597847 2.402921953094964e-05 0.00129424811313349 0.6541124683784583 1.046786692289548e-09 0.3445932824616216 0.8284729448491155 0.1294510926118627 0.03236472424557752 0.009711238293444328</probabilities>
		</cpt>
		<cpt id="driver_age">
			<state id="S10s" />
			<state id="S20s" />
			<state id="S30s" />
			<state id="S40s" />
			<state id="S50s" />
			<state id="S60s" />
			<state id="S70s" />
			<state id="S80s" />
			<state id="S90s" />
			<parents>driver_gender driver_race stop_outcome</parents>
			<probabilities>0.0418999783607445 0.4245785733437133 0.2681552060514049 0.164804052661844 0.07262599693601937 0.0279336062810741 8.621217333129874e-07 8.621217333129874e-07 8.621217333129874e-07 0.08388424329897609 0.3982750311907885 0.2480626940153522 0.151525764994123 0.08081957888560373 0.02942077858133027 0.006917385603138996 0.001094523217731524 2.129556839247307e-10 0.001371742112482853 0.8655692729766803 0.001371742112482853 0.1248285322359396 0.001371742112482853 0.001371742112482853 0.001371742112482853 0.001371742112482853 0.001371742112482853 0.06394290317053831 0.3259048856135239 0.2467409504132111 0.1905178060023173 0.1135387080200443 0.04551744263173504 0.01121549830850841 0.002403321529080757 0.0002184843110408439 0.08110187750076947 0.5132348414896891 0.3781932902431517 0.02708525700215451 7.694675284702985e-05 7.694675284702985e-05 7.694675284702985e-05 7.694675284702985e-05 7.694675284702985e-05 0.08138713447016555 0.4182588697342153 0.3269637986227397 0.139419660292964 0.02689317729509868 0.005661765408708986 0.0007077693018847248 0.0007077693018847248 5.557233840175289e-08 0.02777777777777778 0.02777777777777778 0.7777777777777778 0.02777777777777778 0.02777777777777778 0.02777777777777778 0.02777777777777778 0.02777777777777778 0.02777777777777778 0.08588967559813042 0.3517372391133324 0.2740279513165811 0.1942736822620205 0.06748484427784721 0.02249525660604378 0.004090425285760564 4.627701420704337e-07 4.627701420704337e-07 0.002267573696145125 0.3287981859410431 0.4920634920634921 0.002267573696145125 0.1655328798185941 0.002267573696145125 0.002267573696145125 0.002267573696145125 0.002267573696145125 0.1008230886461178 0.3353900008479654 0.2654314480860109 0.179012059380067 0.08230464820912983 0.02263411791216859 0.01234609544717527 0.002058072982181951 4.684891832874917e-07 0.1111111111111111 0.1111111111111111 0.1111111111111111 0.1111111111111111 0.1111111111111111 0.1111111111111111 0.1111111111111111 0.1111111111111111 0.1111111111111111 0.04938330046022354 0.2901217619986851 0.2993809335963182 0.1635797501643656 0.1450614069690993 0.03703773833004603 0.01543300460223537 1.051939513477975e-06 1.051939513477975e-06 0.06495272299326353 0.2868738332927522 0.3098778508237968 0.2259808457105755 0.09472262803343885 0.01353197792386982 0.004059735411086763 2.029056083110137e-07 2.029056083110137e-07 0.1210430425790617 0.3344910041460183 0.2129924845450887 0.170832384374288 0.100774311099244 0.04361193355503902 0.01329423829379485 0.002761330080968236 0.0001992713264968978 0.05570944906124962 0.4435210834102801 0.2773160972606956 0.1665127731609726 0.05570944906124962 0.0003077870113881194 0.0003077870113881194 0.0003077870113881194 0.0003077870113881194 0.09619058761577258 0.2826061525057033 0.2032986312787384 0.1887940108773466 0.131282411167527 0.06955979263149677 0.02319959462812349 0.004873864551096208 0.0001949547441956258 0.03810977492709137 0.3704267623819561 0.2647357327327025 0.1971544493512086 0.09400406945313897 0.03150408557401302 0.003048808360752432 0.001016288559805247 2.865933165464164e-08 0.08049141053118208 0.3239282253804346 0.2321200998347318 0.1788244889196667 0.1159708416138079 0.05133302751500107 0.01478309635660633 0.002523321679348398 2.548816922100257e-05 0.05714766029824769 0.4856809461651042 0.2380839365531427 0.1333313555634666 0.05714766029824769 0.02857877457379059 9.88884933349155e-06 9.88884933349155e-06 9.88884933349155e-06 0.068923214317307 0.283611219003063 0.2228851833919492 0.1949478612237508 0.1325489320696311 0.07182289645851721 0.02146880081403989 0.003513076785776659 0.0002788159359652702 0.04966147765241273 0.5406315082458906 0.2957108263176499 0.08577881323630075 0.02708814291248271 0.001128807961563192 1.412245666912539e-07 1.412245666912539e-07 1.412245666912539e-07 0.06976417824287814 0.4458169501727027 0.3006737750418932 0.1277372259498649 0.04449747464177012 0.00912408960021887 0.001824819671009883 0.0004211139153927704 0.0001403727642693478 0.1499118165784832 0.4492315444696396 0.3494583018392542 0.05013857394809776 0.0002519526329050139 0.0002519526329050139 0.0002519526329050139 0.0002519526329050139 0.0002519526329050139 0.06746033147240124 0.3628117105862695 0.2987527742333576 0.1746031542219619 0.0714285841668294 0.01984129913926317 0.003968288361550486 0.0005669289091834815 0.0005669289091834815 0.05131944444444445 0.3844444444444445 0.2050694444444444 0.3331944444444445 0.02569444444444444 6.944444444444444e-05 6.944444444444444e-05 6.944444444444444e-05 6.944444444444444e-05 0.06870750258965937 0.3081631742402104 0.2598638768334232 0.1972788717429382 0.1095238102573669 0.04489798978349662 0.01156467185486878 5.134901830176576e-08 5.134901830176576e-08 0.01234567901234568 0.01234567901234568 0.4567901234567902 0.4567901234567902 0.01234567901234568 0.01234567901234568 0.01234567901234568 0.01234567901234568 0.01234567901234568 0.05394201777859176 0.2669429945497526 0.2918392126139143 0.207468695840922 0.1161825629389959 0.04840952487544472 0.012448321004989 0.002766458424481684 2.119729081665531e-07 0.05355747555976892 0.3358091916447664 0.2478498618398849 0.2122751995632439 0.1125879591177116 0.03244723640659736 0.00547304193310038 1.696746331112683e-08 1.696746331112683e-08 0.1017152773159637 0.2878462256909955 0.2094507107880579 0.1851298137757725 0.1282787158749362 0.06291129948132386 0.02077020624982821 0.00351064541728976 0.0003871054058326862 0.06731166540690352 0.3269035021415974 0.2884454522549761 0.2211438649533888 0.06731166540690352 0.02885361552028219 1.007810531620056e-05 1.007810531620056e-05 1.007810531620056e-05 0.08330914370276941 0.2465650700707202 0.1971698112704008 0.188969520999437 0.1484276729341405 0.08899371070476503 0.03652636675868629 0.009554910557728346 0.0004837930013523536</probabilities>
		</cpt>
		<cpt id="officer_race">
			<state id="Amerindian" />
			<state id="Asian" />
			<state id="Black" />
			<state id="Hispanic" />
			<state id="SMulti_Race" />
			<state id="Other" />
			<state id="White" />
			<parents>county_name officer_age</parents>
			<probabilities>0.1428571428571428 0.1428571428571428 0.1428571428571428 0.1428571428571428 0.1428571428571428 0.1428571428571428 0.1428571428571428 0.008928571428571428 0.008928571428571428 0.008928571428571428 0.008928571428571428 0.008928571428571428 0.008928571428571428 0.9464285714285714 8.709473730049861e-07 8.709473730049861e-07 0.002476103381453176 8.709473730049861e-07 8.709473730049861e-07 8.709473730049861e-07 0.9975195418816817 4.757084249864898e-07 4.757084249864898e-07 0.08775155461513286 4.757084249864898e-07 4.757084249864898e-07 4.757084249864898e-07 0.9122460668427422 3.270464111562071e-06 3.270464111562071e-06 0.004810852708107808 3.270464111562071e-06 3.270464111562071e-06 3.270464111562071e-06 0.9951727949713344 8.998308318036208e-06 8.998308318036208e-06 8.998308318036208e-06 8.998308318036208e-06 8.998308318036208e-06 8.998308318036208e-06 0.9999460101500918 2.53968253968254e-05 2.53968253968254e-05 2.53968253968254e-05 2.53968253968254e-05 2.53968253968254e-05 2.53968253968254e-05 0.9998476190476192 0.1428571428571428 0.1428571428571428 0.1428571428571428 0.1428571428571428 0.1428571428571428 0.1428571428571428 0.1428571428571428 0.1428571428571428 0.1428571428571428 0.1428571428571428 0.1428571428571428 0.1428571428571428 0.1428571428571428 0.1428571428571428 0.1428571428571428 0.1428571428571428 0.1428571428571428 0.1428571428571428 0.1428571428571428 0.1428571428571428 0.1428571428571428 0.002233400121869169 1.112777520175964e-08 0.1367950870160307 1.112777520175964e-08 1.112777520175964e-08 1.112777520175964e-08 0.8609714683509994 0.001149168594367894 0.002987826277110109 0.07929212011091201 0.01241094690116396 7.542654010133464e-09 7.542654010133464e-09 0.904159923031138 6.41747689451619e-08 6.41747689451619e-08 0.124077808570258 6.41747689451619e-08 0.0006707546850148322 6.41747689451619e-08 0.8752511800456513 0.002618757078873379 9.738776790157602e-07 9.738776790157602e-07 9.738776790157602e-07 9.738776790157602e-07 9.738776790157602e-07 0.9973763735327316 0.001763668430335097 0.001763668430335097 0.1252204585537919 0.001763668430335097 0.001763668430335097 0.001763668430335097 0.8659611992945325 0.1428571428571428 0.1428571428571428 0.1428571428571428 0.1428571428571428 0.1428571428571428 0.1428571428571428 0.1428571428571428 0.1428571428571428 0.1428571428571428 0.1428571428571428 0.1428571428571428 0.1428571428571428 0.1428571428571428 0.1428571428571428 0.1428571428571428 0.1428571428571428 0.1428571428571428 0.1428571428571428 0.1428571428571428 0.1428571428571428 0.1428571428571428 9.392317084624777e-07 9.392317084624777e-07 0.2724927209542594 0.002571616417770264 9.392317084624777e-07 9.392317084624777e-07 0.7249319057011364 6.751282743721306e-07 6.751282743721306e-07 0.6426991628409398 6.751282743721306e-07 0.0174297866594653 6.751282743721306e-07 0.3398683499864975 0.003206553676600324 1.458187210823249e-06 0.2692294792959289 1.458187210823249e-06 0.003206553676600324 1.458187210823249e-06 0.724353038789238 0.002232142857142857 0.002232142857142857 0.4241071428571428 0.002232142857142857 0.002232142857142857 0.002232142857142857 0.5647321428571429 0.1428571428571428 0.1428571428571428 0.1428571428571428 0.1428571428571428 0.1428571428571428 0.1428571428571428 0.1428571428571428 0.1428571428571428 0.1428571428571428 0.1428571428571428 0.1428571428571428 0.1428571428571428 0.1428571428571428 0.1428571428571428 0.1428571428571428 0.1428571428571428 0.1428571428571428 0.1428571428571428 0.1428571428571428 0.1428571428571428 0.1428571428571428 0.1428571428571428 0.1428571428571428 0.1428571428571428 0.1428571428571428 0.1428571428571428 0.1428571428571428 0.1428571428571428 1.617351254792858e-08 1.617351254792858e-08 0.0881858022178673 1.617351254792858e-08 1.617351254792858e-08 1.617351254792858e-08 0.91181411691457 0.01130539943080369 0.0286403402489741 0.01386795589957671 3.245040381688139e-09 3.245040381688139e-09 3.245040381688139e-09 0.9461862946855243 7.871957881876548e-09 0.0002348047597006137 0.06480394888895186 7.871957881876548e-09 7.871957881876548e-09 7.871957881876548e-09 0.9349612148635159 6.927763928407933e-08 6.927763928407933e-08 0.02439030135218868 6.927763928407933e-08 6.927763928407933e-08 6.927763928407933e-08 0.975609352259615 2.658851062596533e-07 2.658851062596533e-07 2.658851062596533e-07 2.658851062596533e-07 2.658851062596533e-07 2.658851062596533e-07 0.9999984046893625 4.899078973153047e-05 4.899078973153047e-05 4.899078973153047e-05 4.899078973153047e-05 4.899078973153047e-05 4.899078973153047e-05 0.9997060552616108 0.1428571428571428 0.1428571428571428 0.1428571428571428 0.1428571428571428 0.1428571428571428 0.1428571428571428 0.1428571428571428 0.1428571428571428 0.1428571428571428 0.1428571428571428 0.1428571428571428 0.1428571428571428 0.1428571428571428 0.1428571428571428 3.053442573294835e-07 3.053442573294835e-07 0.1874083967228012 0.002928556772047077 3.053442573294835e-07 3.053442573294835e-07 0.8096618251281225 2.546468595548721e-07 0.002674046672185713 0.5788762281299727 2.546468595548721e-07 0.01470611078615342 2.546468595548721e-07 0.4037428504711094 3.864513256826276e-07 3.864513256826276e-07 0.210872962628611 3.864513256826276e-07 0.00823759645825089 3.864513256826276e-07 0.7808878951078354 0.0008453085376162298 0.0008453085376162298 0.4978867286559595 0.0008453085376162298 0.0008453085376162298 0.0008453085376162298 0.4978867286559595 0.1428571428571428 0.1428571428571428 0.1428571428571428 0.1428571428571428 0.1428571428571428 0.1428571428571428 0.1428571428571428 0.1428571428571428 0.1428571428571428 0.1428571428571428 0.1428571428571428 0.1428571428571428 0.1428571428571428 0.1428571428571428 0.1428571428571428 0.1428571428571428 0.1428571428571428 0.1428571428571428 0.1428571428571428 0.1428571428571428 0.1428571428571428 0.1428571428571428 0.1428571428571428 0.1428571428571428 0.1428571428571428 0.1428571428571428 0.1428571428571428 0.1428571428571428 2.460322380962222e-07 2.460322380962222e-07 0.2378447772768561 2.460322380962222e-07 2.460322380962222e-07 2.460322380962222e-07 0.7621539925619535 2.182754623237998e-07 0.002475462018214214 0.459157932555938 2.182754623237998e-07 0.03094076505986095 2.182754623237998e-07 0.5074251855395998 0.001538794993742009 3.370854312687862e-07 0.1707691649079234 3.370854312687862e-07 0.01076954244360645 3.370854312687862e-07 0.8169214863984343 0.0003239390994493035 0.0003239390994493035 0.1998704243602202 0.0003239390994493035 0.0003239390994493035 0.0003239390994493035 0.7985098801425331 0.1428571428571428 0.1428571428571428 0.1428571428571428 0.1428571428571428 0.1428571428571428 0.1428571428571428 0.1428571428571428 0.1428571428571428 0.1428571428571428 0.1428571428571428 0.1428571428571428 0.1428571428571428 0.1428571428571428 0.1428571428571428 2.586820151328979e-06 2.586820151328979e-06 2.586820151328979e-06 2.586820151328979e-06 2.586820151328979e-06 2.586820151328979e-06 0.999984479079092 0.1428571428571428 0.1428571428571428 0.1428571428571428 0.1428571428571428 0.1428571428571428 0.1428571428571428 0.1428571428571428 0.0005092018354648737 3.69978809463688e-08 0.001018366673048801 0.0605906526703683 3.69978809463688e-08 0.02443994920190946 0.9134417556234466 0.002538127488618637 5.74431931338381e-08 0.0399746606586448 0.09073606156715486 5.74431931338381e-08 5.74431931338381e-08 0.8667509779560023 0.00160651668462216 9.201653500327394e-08 0.05622495539958548 9.201653500327394e-08 0.05461853073149833 9.201653500327394e-08 0.887549721134689 1.63049149535636e-06 1.63049149535636e-06 0.04406892413649171 1.63049149535636e-06 0.1627116377960973 1.63049149535636e-06 0.7932129161014296 0.001180637544273908 0.001180637544273908 0.001180637544273908 0.001180637544273908 0.001180637544273908 0.001180637544273908 0.9929161747343566 0.1428571428571428 0.1428571428571428 0.1428571428571428 0.1428571428571428 0.1428571428571428 0.1428571428571428 0.1428571428571428 0.003968253968253967 0.003968253968253967 0.003968253968253967 0.003968253968253967 0.003968253968253967 0.003968253968253967 0.9761904761904761 0.01587301587301587 0.01587301587301587 0.01587301587301587 0.01587301587301587 0.01587301587301587 0.01587301587301587 0.9047619047619048 0.09224220620629252 3.193605125097504e-08 0.1296121127055185 0.1026490156111402 3.193605125097504e-08 3.193605125097504e-08 0.6754965696688949 0.02892797285673529 1.14839433284393e-08 0.1069200255774979 0.05955757901616208 1.14839433284393e-08 1.14839433284393e-08 0.8045943880977747 0.05882355845496108 0.002352989736694934 0.2164705627934541 0.02764709864175165 4.937343384382008e-08 4.937343384382008e-08 0.6947056916262706 3.381234150464919e-05 3.381234150464919e-05 0.7342349957734573 3.381234150464919e-05 3.381234150464919e-05 3.381234150464919e-05 0.2655959425190195 0.003968253968253967 0.003968253968253967 0.003968253968253967 0.003968253968253967 0.003968253968253967 0.003968253968253967 0.9761904761904761 0.1428571428571428 0.1428571428571428 0.1428571428571428 0.1428571428571428 0.1428571428571428 0.1428571428571428 0.1428571428571428 0.1428571428571428 0.1428571428571428 0.1428571428571428 0.1428571428571428 0.1428571428571428 0.1428571428571428 0.1428571428571428 0.1428571428571428 0.1428571428571428 0.1428571428571428 0.1428571428571428 0.1428571428571428 0.1428571428571428 0.1428571428571428 9.344335977468938e-07 9.344335977468938e-07 0.2230763983565182 9.344335977468938e-07 9.344335977468938e-07 9.344335977468938e-07 0.7769189294754932 4.335889195484431e-07 0.005236019792466999 0.3507847092265988 4.335889195484431e-07 4.335889195484431e-07 4.335889195484431e-07 0.643977536625256 0.002916634474233176 1.207216255891215e-06 0.2069965425326431 1.207216255891215e-06 1.207216255891215e-06 1.207216255891215e-06 0.7900819941281001 6.434716582908106e-06 6.434716582908106e-06 0.3378290553192584 6.434716582908106e-06 6.434716582908106e-06 6.434716582908106e-06 0.662138771097827 0.000992063492063492 0.000992063492063492 0.000992063492063492 0.000992063492063492 0.000992063492063492 0.000992063492063492 0.9940476190476191 0.1428571428571428 0.1428571428571428 0.1428571428571428 0.1428571428571428 0.1428571428571428 0.1428571428571428 0.1428571428571428 0.001763668430335097 0.001763668430335097 0.001763668430335097 0.001763668430335097 0.001763668430335097 0.001763668430335097 0.9894179894179894 0.03571428571428571 0.03571428571428571 0.03571428571428571 0.03571428571428571 0.03571428571428571 0.03571428571428571 0.7857142857142856 0.02522643983753314 5.969271503539509e-08 0.1604139642033533 0.06597674622531624 5.969271503539509e-08 5.969271503539509e-08 0.7483826706556522 0.01734648794523769 3.136989967780603e-08 0.1153305264383632 0.05625880945207702 3.136989967780603e-08 3.136989967780603e-08 0.811064082054623 0.06441228909707256 9.246123770646939e-08 0.1779387856677315 0.02818042848941545 9.246123770646939e-08 9.246123770646939e-08 0.7294682193620673 2.915451895043731e-05 2.915451895043731e-05 0.1594169096209913 2.915451895043731e-05 2.915451895043731e-05 2.915451895043731e-05 0.8404373177842565 0.01587301587301587 0.01587301587301587 0.01587301587301587 0.01587301587301587 0.01587301587301587 0.01587301587301587 0.9047619047619048 0.1428571428571428 0.1428571428571428 0.1428571428571428 0.1428571428571428 0.1428571428571428 0.1428571428571428 0.1428571428571428 0.1428571428571428 0.1428571428571428 0.1428571428571428 0.1428571428571428 0.1428571428571428 0.1428571428571428 0.1428571428571428 0.1428571428571428 0.1428571428571428 0.1428571428571428 0.1428571428571428 0.1428571428571428 0.1428571428571428 0.1428571428571428 0.0739358113483754 7.95595582853324e-08 0.003734207427680362 7.95595582853324e-08 7.95595582853324e-08 7.95595582853324e-08 0.9223296629857112 0.02666043666077067 7.809504139986049e-09 0.0002338712204801622 7.809504139986049e-09 7.809504139986049e-09 7.809504139986049e-09 0.9731056608807326 4.453595692874162e-08 4.453595692874162e-08 4.453595692874162e-08 4.453595692874162e-08 4.453595692874162e-08 4.453595692874162e-08 0.9999997327842584 1.582904629996042e-05 1.582904629996042e-05 1.582904629996042e-05 1.582904629996042e-05 1.582904629996042e-05 1.582904629996042e-05 0.9999050257222003 0.003968253968253967 0.003968253968253967 0.003968253968253967 0.003968253968253967 0.003968253968253967 0.003968253968253967 0.9761904761904761 0.1428571428571428 0.1428571428571428 0.1428571428571428 0.1428571428571428 0.1428571428571428 0.1428571428571428 0.1428571428571428 0.1428571428571428 0.1428571428571428 0.1428571428571428 0.1428571428571428 0.1428571428571428 0.1428571428571428 0.1428571428571428 0.1428571428571428 0.1428571428571428 0.1428571428571428 0.1428571428571428 0.1428571428571428 0.1428571428571428 0.1428571428571428 2.00073026654729e-07 2.00073026654729e-07 0.1172986139941078 2.00073026654729e-07 2.00073026654729e-07 2.00073026654729e-07 0.8827003856407588 0.001597484099103493 4.04620982017551e-08 0.03887116896256029 4.04620982017551e-08 4.04620982017551e-08 4.04620982017551e-08 0.9595311850899433 7.02526820366421e-08 7.02526820366421e-08 0.1129824708317889 7.02526820366421e-08 7.02526820366421e-08 7.02526820366421e-08 0.8870171779048007 4.827298566485417e-07 4.827298566485417e-07 0.01841662676099852 4.827298566485417e-07 4.827298566485417e-07 4.827298566485417e-07 0.9815809595897181 0.003968253968253967 0.003968253968253967 0.003968253968253967 0.003968253968253967 0.003968253968253967 0.003968253968253967 0.9761904761904761 0.1428571428571428 0.1428571428571428 0.1428571428571428 0.1428571428571428 0.1428571428571428 0.1428571428571428 0.1428571428571428 0.1428571428571428 0.1428571428571428 0.1428571428571428 0.1428571428571428 0.1428571428571428 0.1428571428571428 0.1428571428571428 0.1428571428571428 0.1428571428571428 0.1428571428571428 0.1428571428571428 0.1428571428571428 0.1428571428571428 0.1428571428571428 1.431432862864294e-07 1.431432862864294e-07 0.2084167679763275 1.431432862864294e-07 1.431432862864294e-07 1.431432862864294e-07 0.791582516307241 5.043519775615823e-08 5.043519775615823e-08 0.03448279688187417 5.043519775615823e-08 5.043519775615823e-08 5.043519775615823e-08 0.9655169509421371 1.037896723048676e-06 1.037896723048676e-06 0.2999988583136047 0.02432518549809183 1.037896723048676e-06 1.037896723048676e-06 0.6756718046014114 0.0003957261574990106 0.0003957261574990106 0.1666007123070835 0.0003957261574990106 0.0003957261574990106 0.0003957261574990106 0.8314206569054214 0.1428571428571428 0.1428571428571428 0.1428571428571428 0.1428571428571428 0.1428571428571428 0.1428571428571428 0.1428571428571428 0.1428571428571428 0.1428571428571428 0.1428571428571428 0.1428571428571428 0.1428571428571428 0.1428571428571428 0.1428571428571428 0.03571428571428571 0.03571428571428571 0.03571428571428571 0.03571428571428571 0.03571428571428571 0.03571428571428571 0.7857142857142856 0.1428571428571428 0.1428571428571428 0.1428571428571428 0.1428571428571428 0.1428571428571428 0.1428571428571428 0.1428571428571428 1.236189446032605e-07 1.236189446032605e-07 0.01210439619871745 0.0661080738623194 1.236189446032605e-07 1.236189446032605e-07 0.9217870354631847 0.0009354847139999263 0.0004677579687070824 0.1487371362265386 0.02011228127100653 3.122341423850761e-08 3.122341423850761e-08 0.8297472773729194 0.02189787457133722 7.600235516098172e-08 0.0919708299920798 7.600235516098172e-08 0.06423361847136919 7.600235516098172e-08 0.8218974489581483 6.349206349206349e-06 6.349206349206349e-06 0.3556952380952381 6.349206349206349e-06 0.1409396825396826 6.349206349206349e-06 0.5033396825396826 0.01587301587301587 0.01587301587301587 0.4603174603174603 0.01587301587301587 0.01587301587301587 0.01587301587301587 0.4603174603174603 0.1428571428571428 0.1428571428571428 0.1428571428571428 0.1428571428571428 0.1428571428571428 0.1428571428571428 0.1428571428571428 0.1428571428571428 0.1428571428571428 0.1428571428571428 0.1428571428571428 0.1428571428571428 0.1428571428571428 0.1428571428571428 0.008928571428571428 0.008928571428571428 0.008928571428571428 0.008928571428571428 0.008928571428571428 0.008928571428571428 0.9464285714285714 3.163467768059604e-07 3.163467768059604e-07 0.1669149988864593 3.163467768059604e-07 3.163467768059604e-07 3.163467768059604e-07 0.8330834193796566 0.003099182870836834 9.523727619751992e-09 0.1288739678743525 0.002582653979651965 9.523727619751992e-09 9.523727619751992e-09 0.8654441667039757 0.005263204894906939 4.879799081104553e-08 0.1883040780432123 4.879799081104553e-08 4.879799081104553e-08 4.879799081104553e-08 0.8064325218699174 7.955955828533239e-06 7.955955828533239e-06 0.02256309072972027 7.955955828533239e-06 7.955955828533239e-06 7.955955828533239e-06 0.977397129491137 0.0001102292768959436 0.0001102292768959436 0.0001102292768959436 0.0001102292768959436 0.0001102292768959436 0.0001102292768959436 0.9993386243386242 0.1428571428571428 0.1428571428571428 0.1428571428571428 0.1428571428571428 0.1428571428571428 0.1428571428571428 0.1428571428571428 0.005714285714285713 0.005714285714285713 0.005714285714285713 0.005714285714285713 0.005714285714285713 0.005714285714285713 0.9657142857142856 3.182382331413296e-05 3.182382331413296e-05 3.182382331413296e-05 3.182382331413296e-05 3.182382331413296e-05 3.182382331413296e-05 0.9998090570601152 0.0005540602498693469 4.379922923868355e-08 0.05595570531388017 0.07479226463564385 4.379922923868355e-08 4.379922923868355e-08 0.8686978384029188 0.0005421627967731478 0.001084315101765032 0.1295744113848417 0.03713744338372536 1.049178126314751e-08 1.049178126314751e-08 0.8316616463493323 0.03888569952019761 0.001160813779918436 0.2060359624925115 0.0005804309223756794 0.0336622538023128 4.806483292279557e-08 0.7196747914178511 5.49239303564563e-07 5.49239303564563e-07 0.02750535508320975 5.49239303564563e-07 0.03143461306091064 5.49239303564563e-07 0.9410578348986653 0.005714285714285713 0.005714285714285713 0.005714285714285713 0.005714285714285713 0.005714285714285713 0.005714285714285713 0.9657142857142856 0.1428571428571428 0.1428571428571428 0.1428571428571428 0.1428571428571428 0.1428571428571428 0.1428571428571428 0.1428571428571428 0.1428571428571428 0.1428571428571428 0.1428571428571428 0.1428571428571428 0.1428571428571428 0.1428571428571428 0.1428571428571428 0.1428571428571428 0.1428571428571428 0.1428571428571428 0.1428571428571428 0.1428571428571428 0.1428571428571428 0.1428571428571428 1.066448258063415e-06 1.066448258063415e-06 0.008220183173152804 1.066448258063415e-06 1.066448258063415e-06 1.066448258063415e-06 0.9917744845855568 1.120763751182826e-07 1.120763751182826e-07 0.1054964832114634 1.120763751182826e-07 1.120763751182826e-07 1.120763751182826e-07 0.8945029564066611 3.249936707482622e-07 3.249936707482622e-07 3.249936707482622e-07 3.249936707482622e-07 3.249936707482622e-07 3.249936707482622e-07 0.9999980500379755 8.584648930781975e-06 8.584648930781975e-06 0.1953093478242207 8.584648930781975e-06 8.584648930781975e-06 8.584648930781975e-06 0.8046477289311254 0.03571428571428571 0.03571428571428571 0.03571428571428571 0.03571428571428571 0.03571428571428571 0.03571428571428571 0.7857142857142856 0.1428571428571428 0.1428571428571428 0.1428571428571428 0.1428571428571428 0.1428571428571428 0.1428571428571428 0.1428571428571428 0.1428571428571428 0.1428571428571428 0.1428571428571428 0.1428571428571428 0.1428571428571428 0.1428571428571428 0.1428571428571428 0.1428571428571428 0.1428571428571428 0.1428571428571428 0.1428571428571428 0.1428571428571428 0.1428571428571428 0.1428571428571428 4.671449919954705e-07 4.671449919954705e-07 0.1268116466720824 4.671449919954705e-07 4.671449919954705e-07 4.671449919954705e-07 0.8731860176029576 1.101170356890414e-07 0.00351504589622989 0.05360288074974726 0.0008788440618342393 1.101170356890414e-07 1.101170356890414e-07 0.9420028989410816 6.665301612896345e-08 6.665301612896345e-08 0.2112098108973949 6.665301612896345e-08 6.665301612896345e-08 6.665301612896345e-08 0.7887898558375245 3.20875862754976e-06 3.20875862754976e-06 0.004765006561911394 3.20875862754976e-06 3.20875862754976e-06 3.20875862754976e-06 0.9952189496449509 0.03571428571428571 0.03571428571428571 0.03571428571428571 0.03571428571428571 0.03571428571428571 0.03571428571428571 0.7857142857142856 0.1428571428571428 0.1428571428571428 0.1428571428571428 0.1428571428571428 0.1428571428571428 0.1428571428571428 0.1428571428571428 0.1428571428571428 0.1428571428571428 0.1428571428571428 0.1428571428571428 0.1428571428571428 0.1428571428571428 0.1428571428571428 0.0001587301587301587 0.0001587301587301587 0.0001587301587301587 0.0001587301587301587 0.0001587301587301587 0.0001587301587301587 0.9990476190476191 4.453595692874162e-08 4.453595692874162e-08 0.09385476387993159 4.453595692874162e-08 4.453595692874162e-08 4.453595692874162e-08 0.9061450134402838 0.0003760862696791076 0.002256492370946541 0.0298984620595778 0.02877021839881734 5.049425621018885e-09 5.049425621018885e-09 0.938698730802128 0.00268244373412958 0.0005365216043076159 0.1486051485620231 0.0005365216043076159 4.107185212490362e-08 4.107185212490362e-08 0.847639282351528 9.998120353373564e-07 9.998120353373564e-07 0.02917851443928541 9.998120353373564e-07 9.998120353373564e-07 9.998120353373564e-07 0.9708164865005379 4.943153732081068e-06 4.943153732081068e-06 0.02367276322293623 4.943153732081068e-06 4.943153732081068e-06 4.943153732081068e-06 0.9763025210084033 0.1428571428571428 0.1428571428571428 0.1428571428571428 0.1428571428571428 0.1428571428571428 0.1428571428571428 0.1428571428571428 0.1428571428571428 0.1428571428571428 0.1428571428571428 0.1428571428571428 0.1428571428571428 0.1428571428571428 0.1428571428571428 0.003968253968253967 0.003968253968253967 0.003968253968253967 0.003968253968253967 0.003968253968253967 0.003968253968253967 0.9761904761904761 9.887648626190324e-08 9.887648626190324e-08 0.02664454338245385 9.887648626190324e-08 9.887648626190324e-08 9.887648626190324e-08 0.9733549622351149 2.629162401179316e-08 2.629162401179316e-08 0.02489272557299768 0.001287579702729546 2.629162401179316e-08 2.629162401179316e-08 0.9738195895577768 1.034728060531591e-07 1.034728060531591e-07 0.09540037508892195 1.034728060531591e-07 1.034728060531591e-07 1.034728060531591e-07 0.9045991075470479 2.586820151328979e-06 2.586820151328979e-06 0.05128370950009701 2.586820151328979e-06 2.586820151328979e-06 2.586820151328979e-06 0.9487033563991464 0.001763668430335097 0.001763668430335097 0.2486772486772487 0.001763668430335097 0.001763668430335097 0.001763668430335097 0.7425044091710759 0.1428571428571428 0.1428571428571428 0.1428571428571428 0.1428571428571428 0.1428571428571428 0.1428571428571428 0.1428571428571428 0.1428571428571428 0.1428571428571428 0.1428571428571428 0.1428571428571428 0.1428571428571428 0.1428571428571428 0.1428571428571428 0.1428571428571428 0.1428571428571428 0.1428571428571428 0.1428571428571428 0.1428571428571428 0.1428571428571428 0.1428571428571428 4.181507970947301e-09 4.181507970947301e-09 0.0001711198506950764 4.181507970947301e-09 4.181507970947301e-09 4.181507970947301e-09 0.9998288592417651 0.007102742914610783 0.0009910812450269458 0.01965642634402623 9.74283621115297e-10 9.74283621115297e-10 9.74283621115297e-10 0.9722497465734853 6.412360980013952e-09 0.03560076768785652 0.01589320341035006 6.412360980013952e-09 6.412360980013952e-09 6.412360980013952e-09 0.9485060032523495 1.94964001846699e-07 1.94964001846699e-07 1.94964001846699e-07 1.94964001846699e-07 1.94964001846699e-07 1.94964001846699e-07 0.9999988302159888 2.360650784208191e-06 2.360650784208191e-06 2.360650784208191e-06 2.360650784208191e-06 2.360650784208191e-06 2.360650784208191e-06 0.9999858360952948 0.1428571428571428 0.1428571428571428 0.1428571428571428 0.1428571428571428 0.1428571428571428 0.1428571428571428 0.1428571428571428 0.1428571428571428 0.1428571428571428 0.1428571428571428 0.1428571428571428 0.1428571428571428 0.1428571428571428 0.1428571428571428 0.001763668430335097 0.001763668430335097 0.001763668430335097 0.001763668430335097 0.001763668430335097 0.001763668430335097 0.9894179894179894 8.29916291323192e-08 8.29916291323192e-08 0.003813963308404861 8.29916291323192e-08 8.29916291323192e-08 8.29916291323192e-08 0.9961856217334496 1.180301889827387e-08 1.180301889827387e-08 0.02242669195125112 1.180301889827387e-08 1.180301889827387e-08 1.180301889827387e-08 0.9775732490336543 6.665301612896345e-08 6.665301612896345e-08 0.0006835933334186492 6.665301612896345e-08 6.665301612896345e-08 6.665301612896345e-08 0.9993160734015006 4.160128331638774e-07 4.160128331638774e-07 4.160128331638774e-07 4.160128331638774e-07 4.160128331638774e-07 4.160128331638774e-07 0.9999975039230009 0.003968253968253967 0.003968253968253967 0.003968253968253967 0.003968253968253967 0.003968253968253967 0.003968253968253967 0.9761904761904761 0.1428571428571428 0.1428571428571428 0.1428571428571428 0.1428571428571428 0.1428571428571428 0.1428571428571428 0.1428571428571428 0.1428571428571428 0.1428571428571428 0.1428571428571428 0.1428571428571428 0.1428571428571428 0.1428571428571428 0.1428571428571428 0.1428571428571428 0.1428571428571428 0.1428571428571428 0.1428571428571428 0.1428571428571428 0.1428571428571428 0.1428571428571428 4.008236123586746e-07 4.008236123586746e-07 0.1577180791089531 0.005033943747612594 4.008236123586746e-07 4.008236123586746e-07 0.8372463738489849 5.62394269877263e-07 5.62394269877263e-07 0.4512910322859303 0.001988626138286002 0.017893136090415 5.62394269877263e-07 0.5288255183025591 0.001890861007984539 5.085693942938513e-07 0.09073742562172608 5.085693942938513e-07 0.009452270762345522 5.085693942938513e-07 0.897917916899761 0.0001166180758017493 0.0001166180758017493 0.1470553935860058 0.0001166180758017493 0.0001166180758017493 0.0001166180758017493 0.8523615160349854 0.1428571428571428 0.1428571428571428 0.1428571428571428 0.1428571428571428 0.1428571428571428 0.1428571428571428 0.1428571428571428 0.1428571428571428 0.1428571428571428 0.1428571428571428 0.1428571428571428 0.1428571428571428 0.1428571428571428 0.1428571428571428 0.1428571428571428 0.1428571428571428 0.1428571428571428 0.1428571428571428 0.1428571428571428 0.1428571428571428 0.1428571428571428 0.0002700513097488523 0.0002700513097488523 0.0002700513097488523 0.0002700513097488523 0.0002700513097488523 0.0002700513097488523 0.9983796921415069 7.352224983260453e-09 7.352224983260453e-09 0.004084418306075597 0.03131382466507968 7.352224983260453e-09 7.352224983260453e-09 0.9646017276199449 0.001014200241660911 0.0002028412236356819 0.06916835775578012 0.06237322597981883 1.469129374701648e-09 1.469129374701648e-09 0.8672413718608457 0.000851795193093316 6.475314098546626e-09 0.06154174133486256 0.005110738781989403 6.475314098546626e-09 6.475314098546626e-09 0.9324957052641125 7.02526820366421e-08 7.02526820366421e-08 0.06245617988957964 7.02526820366421e-08 7.02526820366421e-08 7.02526820366421e-08 0.9375434688470101 2.409464376069199e-05 2.409464376069199e-05 0.8156759752307062 2.409464376069199e-05 2.409464376069199e-05 2.409464376069199e-05 0.1842035515504903 0.1428571428571428 0.1428571428571428 0.1428571428571428 0.1428571428571428 0.1428571428571428 0.1428571428571428 0.1428571428571428 3.00057010832058e-05 3.00057010832058e-05 3.00057010832058e-05 3.00057010832058e-05 3.00057010832058e-05 3.00057010832058e-05 0.9998199657935007 0.1428571428571428 0.1428571428571428 0.1428571428571428 0.1428571428571428 0.1428571428571428 0.1428571428571428 0.1428571428571428 1.977261492832427e-07 1.977261492832427e-07 1.977261492832427e-07 0.1060071181413742 1.977261492832427e-07 0.1142521008403361 0.7797399901136924 0.01806602798529449 1.609904648567474e-07 0.2178532629869398 0.04250808333124046 1.609904648567474e-07 1.609904648567474e-07 0.7215721427251307 0.0008369193697098307 9.987104650475305e-08 0.0870293277320324 9.987104650475305e-08 0.0158996703456497 9.987104650475305e-08 0.8962337829394684 1.734355678193773e-06 1.734355678193773e-06 0.1153849489145535 1.734355678193773e-06 0.139860176245224 1.734355678193773e-06 0.7447479374175097 0.0001822157434402332 0.0001822157434402332 0.0001822157434402332 0.0001822157434402332 0.0001822157434402332 0.0001822157434402332 0.9989067055393586 0.1428571428571428 0.1428571428571428 0.1428571428571428 0.1428571428571428 0.1428571428571428 0.1428571428571428 0.1428571428571428 0.1428571428571428 0.1428571428571428 0.1428571428571428 0.1428571428571428 0.1428571428571428 0.1428571428571428 0.1428571428571428 0.1428571428571428 0.1428571428571428 0.1428571428571428 0.1428571428571428 0.1428571428571428 0.1428571428571428 0.1428571428571428 0.0005494934643880631 4.308063225308217e-08 0.1478021963109452 4.308063225308217e-08 4.308063225308217e-08 4.308063225308217e-08 0.8516481379021379 1.384684678497265e-08 1.384684678497265e-08 0.03612582784758189 0.0003114432778876048 1.384684678497265e-08 1.384684678497265e-08 0.9635626734871434 1.112864119402307e-07 1.112864119402307e-07 0.04240290510952642 1.112864119402307e-07 1.112864119402307e-07 1.112864119402307e-07 0.957596538458414 0.005784874393673443 4.718494611479154e-06 0.01734518619179737 4.718494611479154e-06 4.718494611479154e-06 4.718494611479154e-06 0.9768510654360834 0.1428571428571428 0.1428571428571428 0.1428571428571428 0.1428571428571428 0.1428571428571428 0.1428571428571428 0.1428571428571428 0.1428571428571428 0.1428571428571428 0.1428571428571428 0.1428571428571428 0.1428571428571428 0.1428571428571428 0.1428571428571428 0.1428571428571428 0.1428571428571428 0.1428571428571428 0.1428571428571428 0.1428571428571428 0.1428571428571428 0.1428571428571428 0.1428571428571428 0.1428571428571428 0.1428571428571428 0.1428571428571428 0.1428571428571428 0.1428571428571428 0.1428571428571428 9.366299585775399e-08 9.366299585775399e-08 0.4319284976689621 9.366299585775399e-08 9.366299585775399e-08 9.366299585775399e-08 0.5680710340160585 2.113271344040575e-08 0.0003847844463229078 0.008849577345731191 2.113271344040575e-08 2.113271344040575e-08 0.004232417582417583 0.986533157227388 1.085863222713913e-07 1.085863222713913e-07 0.1535776532823528 0.1631762498258547 1.085863222713913e-07 1.085863222713913e-07 0.6832456625465034 2.951593860684769e-06 2.951593860684769e-06 0.1141558441558441 2.951593860684769e-06 2.951593860684769e-06 2.951593860684769e-06 0.8858293978748524 0.0001822157434402332 0.0001822157434402332 0.0001822157434402332 0.0001822157434402332 0.0001822157434402332 0.0001822157434402332 0.9989067055393586 0.001763668430335097 0.001763668430335097 0.001763668430335097 0.001763668430335097 0.001763668430335097 0.001763668430335097 0.9894179894179894 0.1428571428571428 0.1428571428571428 0.1428571428571428 0.1428571428571428 0.1428571428571428 0.1428571428571428 0.1428571428571428 2.92494303673436e-06 2.92494303673436e-06 2.92494303673436e-06 2.92494303673436e-06 2.92494303673436e-06 2.92494303673436e-06 0.9999824503417797 7.68971507529423e-08 7.68971507529423e-08 0.002202718883318032 0.07488990442683825 7.68971507529423e-08 7.68971507529423e-08 0.9229070691012409 1.369294662626335e-08 1.369294662626335e-08 0.05698359448064708 1.369294662626335e-08 1.369294662626335e-08 1.369294662626335e-08 0.9430163370546198 6.822835457156925e-08 6.822835457156925e-08 0.1203319609654667 6.822835457156925e-08 6.822835457156925e-08 6.822835457156925e-08 0.8796676978927603 2.196957214258252e-06 2.196957214258252e-06 2.196957214258252e-06 2.196957214258252e-06 2.196957214258252e-06 2.196957214258252e-06 0.9999868182567144 3.178558714336571e-06 3.178558714336571e-06 3.178558714336571e-06 3.178558714336571e-06 3.178558714336571e-06 3.178558714336571e-06 0.9999809286477139 0.1428571428571428 0.1428571428571428 0.1428571428571428 0.1428571428571428 0.1428571428571428 0.1428571428571428 0.1428571428571428 0.1428571428571428 0.1428571428571428 0.1428571428571428 0.1428571428571428 0.1428571428571428 0.1428571428571428 0.1428571428571428 0.1428571428571428 0.1428571428571428 0.1428571428571428 0.1428571428571428 0.1428571428571428 0.1428571428571428 0.1428571428571428 0.003604054064045783 4.621174591673013e-07 0.1927926312598431 4.621174591673013e-07 4.621174591673013e-07 4.621174591673013e-07 0.8036014662062745 1.116803458338261e-07 1.116803458338261e-07 0.02035407806925231 1.116803458338261e-07 1.116803458338261e-07 1.116803458338261e-07 0.9796453635290184 0.002696430636076838 1.032324133260658e-06 0.04851820193911766 0.008087227259963994 1.032324133260658e-06 1.032324133260658e-06 0.9406950431924418 0.000992063492063492 0.000992063492063492 0.09126984126984128 0.000992063492063492 0.000992063492063492 0.000992063492063492 0.9037698412698412 0.1428571428571428 0.1428571428571428 0.1428571428571428 0.1428571428571428 0.1428571428571428 0.1428571428571428 0.1428571428571428 0.1428571428571428 0.1428571428571428 0.1428571428571428 0.1428571428571428 0.1428571428571428 0.1428571428571428 0.1428571428571428 0.1428571428571428 0.1428571428571428 0.1428571428571428 0.1428571428571428 0.1428571428571428 0.1428571428571428 0.1428571428571428 0.1428571428571428 0.1428571428571428 0.1428571428571428 0.1428571428571428 0.1428571428571428 0.1428571428571428 0.1428571428571428 0.01288800573308859 4.705423989286689e-09 0.03467054268125411 0.0003630469878934146 4.705423989286689e-09 4.705423989286689e-09 0.9520783904814919 0.001883953758218384 0.01262246128980885 0.1243406185921448 0.0001883999374409419 5.068465670574963e-09 5.068465670574963e-09 0.8609645562854559 0.0003660512877655232 0.004758437229720641 0.187042453820858 1.912593593006548e-08 1.912593593006548e-08 1.912593593006548e-08 0.807833000283848 0.009470173624103892 5.104939692794939e-07 0.05492455664875003 0.001894443119996202 5.104939692794939e-07 5.104939692794939e-07 0.933709295125242 1.247769611818873e-05 1.247769611818873e-05 0.009445615961468872 1.247769611818873e-05 1.247769611818873e-05 1.247769611818873e-05 0.9904919955579401 0.1428571428571428 0.1428571428571428 0.1428571428571428 0.1428571428571428 0.1428571428571428 0.1428571428571428 0.1428571428571428 0.1428571428571428 0.1428571428571428 0.1428571428571428 0.1428571428571428 0.1428571428571428 0.1428571428571428 0.1428571428571428 0.003968253968253967 0.003968253968253967 0.003968253968253967 0.003968253968253967 0.003968253968253967 0.003968253968253967 0.9761904761904761 1.193300334601414e-06 1.193300334601414e-06 0.04637761750428395 1.193300334601414e-06 1.193300334601414e-06 1.193300334601414e-06 0.953616415994043 9.026942534844902e-08 0.03500404587564412 0.1217183904455952 0.02068424585491826 9.026942534844902e-08 9.026942534844902e-08 0.8225930470155663 2.078705182856419e-07 0.09541069705844507 0.124396162128195 2.078705182856419e-07 2.078705182856419e-07 2.078705182856419e-07 0.7801923093312868 6.72202478141656e-07 6.72202478141656e-07 0.05434824256023103 6.72202478141656e-07 6.72202478141656e-07 6.72202478141656e-07 0.9456483964273783 1.54580530273051e-06 1.54580530273051e-06 0.537949520182034 1.54580530273051e-06 1.54580530273051e-06 1.54580530273051e-06 0.4620427507914523 0.1428571428571428 0.1428571428571428 0.1428571428571428 0.1428571428571428 0.1428571428571428 0.1428571428571428 0.1428571428571428 0.1428571428571428 0.1428571428571428 0.1428571428571428 0.1428571428571428 0.1428571428571428 0.1428571428571428 0.1428571428571428 0.1428571428571428 0.1428571428571428 0.1428571428571428 0.1428571428571428 0.1428571428571428 0.1428571428571428 0.1428571428571428 3.090473615081511e-06 3.090473615081511e-06 0.532701846557985 3.090473615081511e-06 3.090473615081511e-06 3.090473615081511e-06 0.4672827010739395 6.775927136558241e-08 6.775927136558241e-08 0.08132325454827334 6.775927136558241e-08 6.775927136558241e-08 6.775927136558241e-08 0.9186764066553699 0.007418694885361551 3.135410542817949e-07 0.4391684891240447 3.135410542817949e-07 3.135410542817949e-07 3.135410542817949e-07 0.5534115618263766 9.392317084624775e-05 9.392317084624775e-05 0.3945712407250869 9.392317084624775e-05 9.392317084624775e-05 9.392317084624775e-05 0.6049591434206819 0.0002285714285714286 0.0002285714285714286 0.0002285714285714286 0.0002285714285714286 0.0002285714285714286 0.0002285714285714286 0.9986285714285714 0.1428571428571428 0.1428571428571428 0.1428571428571428 0.1428571428571428 0.1428571428571428 0.1428571428571428 0.1428571428571428 0.1428571428571428 0.1428571428571428 0.1428571428571428 0.1428571428571428 0.1428571428571428 0.1428571428571428 0.1428571428571428 0.1428571428571428 0.1428571428571428 0.1428571428571428 0.1428571428571428 0.1428571428571428 0.1428571428571428 0.1428571428571428 5.511251219364331e-06 5.511251219364331e-06 0.05625334119605174 5.511251219364331e-06 5.511251219364331e-06 5.511251219364331e-06 0.9437191025478514 1.395089285714286e-06 1.395089285714286e-06 0.3949818638392857 1.395089285714286e-06 1.395089285714286e-06 1.395089285714286e-06 0.6050111607142857 2.608976967951327e-06 2.608976967951327e-06 2.608976967951327e-06 2.608976967951327e-06 2.608976967951327e-06 2.608976967951327e-06 0.9999843461381924 3.089471082550666e-05 3.089471082550666e-05 0.4924616905585764 3.089471082550666e-05 3.089471082550666e-05 3.089471082550666e-05 0.5073838358872961 0.03571428571428571 0.03571428571428571 0.03571428571428571 0.03571428571428571 0.03571428571428571 0.03571428571428571 0.7857142857142856 0.1428571428571428 0.1428571428571428 0.1428571428571428 0.1428571428571428 0.1428571428571428 0.1428571428571428 0.1428571428571428 0.1428571428571428 0.1428571428571428 0.1428571428571428 0.1428571428571428 0.1428571428571428 0.1428571428571428 0.1428571428571428 0.0004409171075837742 0.0004409171075837742 0.0004409171075837742 0.0004409171075837742 0.0004409171075837742 0.0004409171075837742 0.9973544973544973 2.124585705787372e-07 2.124585705787372e-07 0.01465220531996261 0.02930419818135464 2.124585705787372e-07 2.124585705787372e-07 0.9560427466644005 2.214290142866e-08 0.0003938779306130041 0.02678221570728856 2.214290142866e-08 2.214290142866e-08 2.214290142866e-08 0.9728238177904927 7.074794086349419e-08 7.074794086349419e-08 0.02394372086201838 7.074794086349419e-08 7.074794086349419e-08 7.074794086349419e-08 0.9760559253982772 8.4530853761623e-06 8.4530853761623e-06 8.4530853761623e-06 8.4530853761623e-06 8.4530853761623e-06 8.4530853761623e-06 0.9999492814877432 7.378984651711924e-05 7.378984651711924e-05 7.378984651711924e-05 7.378984651711924e-05 7.378984651711924e-05 7.378984651711924e-05 0.9995572609208974 0.1428571428571428 0.1428571428571428 0.1428571428571428 0.1428571428571428 0.1428571428571428 0.1428571428571428 0.1428571428571428 0.1428571428571428 0.1428571428571428 0.1428571428571428 0.1428571428571428 0.1428571428571428 0.1428571428571428 0.1428571428571428 0.1428571428571428 0.1428571428571428 0.1428571428571428 0.1428571428571428 0.1428571428571428 0.1428571428571428 0.1428571428571428 6.094689410666085e-08 6.094689410666085e-08 6.094689410666085e-08 6.094689410666085e-08 6.094689410666085e-08 6.094689410666085e-08 0.9999996343186354 0.002942956005931784 4.943153732081067e-08 0.0005886307464162136 4.943153732081067e-08 4.943153732081067e-08 4.943153732081067e-08 0.9964682155215026 4.931543275179917e-08 4.931543275179917e-08 4.931543275179917e-08 4.931543275179917e-08 4.931543275179917e-08 4.931543275179917e-08 0.9999997041074035 9.893153937475265e-07 9.893153937475265e-07 0.002639493470518401 9.893153937475265e-07 9.893153937475265e-07 9.893153937475265e-07 0.9973555599525129 0.002232142857142857 0.002232142857142857 0.002232142857142857 0.002232142857142857 0.002232142857142857 0.002232142857142857 0.9866071428571429 0.1428571428571428 0.1428571428571428 0.1428571428571428 0.1428571428571428 0.1428571428571428 0.1428571428571428 0.1428571428571428 0.1428571428571428 0.1428571428571428 0.1428571428571428 0.1428571428571428 0.1428571428571428 0.1428571428571428 0.1428571428571428 0.1428571428571428 0.1428571428571428 0.1428571428571428 0.1428571428571428 0.1428571428571428 0.1428571428571428 0.1428571428571428 9.27305077574865e-09 9.27305077574865e-09 0.4044342337852013 0.001529061161565523 9.27305077574865e-09 9.27305077574865e-09 0.5940366679610299 1.6065220167095e-08 0.002348221101383941 0.563569224744526 0.001006389652147499 1.6065220167095e-08 1.6065220167095e-08 0.433076116306282 0.01380999566296412 9.411970219020313e-08 0.3883020316302436 9.411970219020313e-08 9.411970219020313e-08 9.411970219020313e-08 0.5978875962279836 8.09847748623259e-07 8.09847748623259e-07 0.3054883381924199 8.09847748623259e-07 8.09847748623259e-07 8.09847748623259e-07 0.6945076125688371 6.467050378322446e-05 6.467050378322446e-05 6.467050378322446e-05 6.467050378322446e-05 6.467050378322446e-05 6.467050378322446e-05 0.9996119769773006 0.1428571428571428 0.1428571428571428 0.1428571428571428 0.1428571428571428 0.1428571428571428 0.1428571428571428 0.1428571428571428 0.1428571428571428 0.1428571428571428 0.1428571428571428 0.1428571428571428 0.1428571428571428 0.1428571428571428 0.1428571428571428 0.1428571428571428 0.1428571428571428 0.1428571428571428 0.1428571428571428 0.1428571428571428 0.1428571428571428 0.1428571428571428 5.766237205007954e-08 5.766237205007954e-08 5.766237205007954e-08 5.766237205007954e-08 5.766237205007954e-08 5.766237205007954e-08 0.9999996540257677 1.610840622333455e-08 1.610840622333455e-08 1.610840622333455e-08 1.610840622333455e-08 1.610840622333455e-08 1.610840622333455e-08 0.9999999033495627 7.145014937368228e-08 7.145014937368228e-08 0.003538640097880988 7.145014937368228e-08 7.145014937368228e-08 7.145014937368228e-08 0.9964610026513722 2.196957214258252e-06 2.196957214258252e-06 0.01181303894106662 2.196957214258252e-06 2.196957214258252e-06 2.196957214258252e-06 0.988175976272862 0.008928571428571428 0.008928571428571428 0.008928571428571428 0.008928571428571428 0.008928571428571428 0.008928571428571428 0.9464285714285714 0.1428571428571428 0.1428571428571428 0.1428571428571428 0.1428571428571428 0.1428571428571428 0.1428571428571428 0.1428571428571428 0.1428571428571428 0.1428571428571428 0.1428571428571428 0.1428571428571428 0.1428571428571428 0.1428571428571428 0.1428571428571428 0.1428571428571428 0.1428571428571428 0.1428571428571428 0.1428571428571428 0.1428571428571428 0.1428571428571428 0.1428571428571428 0.005961975838126365 3.707989274107074e-09 0.1698356422259485 0.001450213145049647 3.707989274107074e-09 3.707989274107074e-09 0.8227521576669077 0.0008604413057027648 0.000688353890387654 0.3032180300143527 0.0003441790597574321 4.229127210319503e-09 4.229127210319503e-09 0.694888987271545 0.01234222625232754 1.123412578706847e-08 0.4586255011150319 0.00140253566801235 1.123412578706847e-08 1.123412578706847e-08 0.5276297032622509 0.1844255369786399 2.379960730647945e-06 0.3483572321056703 0.06147676563336707 2.379960730647945e-06 2.379960730647945e-06 0.405733325400131 2.772363967031048e-06 2.772363967031048e-06 0.008852158146730136 2.772363967031048e-06 2.772363967031048e-06 2.772363967031048e-06 0.9911339800334348 0.1428571428571428 0.1428571428571428 0.1428571428571428 0.1428571428571428 0.1428571428571428 0.1428571428571428 0.1428571428571428 0.1428571428571428 0.1428571428571428 0.1428571428571428 0.1428571428571428 0.1428571428571428 0.1428571428571428 0.1428571428571428 0.1428571428571428 0.1428571428571428 0.1428571428571428 0.1428571428571428 0.1428571428571428 0.1428571428571428 0.1428571428571428 2.700513097488523e-06 2.700513097488523e-06 2.700513097488523e-06 2.700513097488523e-06 2.700513097488523e-06 2.700513097488523e-06 0.999983796921415 1.032969067121504e-07 1.032969067121504e-07 0.02893625258655454 1.032969067121504e-07 1.032969067121504e-07 1.032969067121504e-07 0.9710632309289119 2.360167175361365e-07 2.360167175361365e-07 0.001287235177442088 2.360167175361365e-07 2.360167175361365e-07 2.360167175361365e-07 0.9987115847389701 1.809211419018792e-06 1.809211419018792e-06 0.0142873425759914 1.809211419018792e-06 1.809211419018792e-06 1.809211419018792e-06 0.9857036113669135 0.005714285714285713 0.005714285714285713 0.005714285714285713 0.005714285714285713 0.005714285714285713 0.005714285714285713 0.9657142857142856 0.1428571428571428 0.1428571428571428 0.1428571428571428 0.1428571428571428 0.1428571428571428 0.1428571428571428 0.1428571428571428 0.1428571428571428 0.1428571428571428 0.1428571428571428 0.1428571428571428 0.1428571428571428 0.1428571428571428 0.1428571428571428 0.1428571428571428 0.1428571428571428 0.1428571428571428 0.1428571428571428 0.1428571428571428 0.1428571428571428 0.1428571428571428 1.353326348274719e-08 1.353326348274719e-08 0.001231540510193477 1.353326348274719e-08 1.353326348274719e-08 1.353326348274719e-08 0.9987683918234891 0.009993981456245729 2.070704400544204e-09 0.01264298804036512 0.0001204114608916455 2.070704400544204e-09 2.070704400544204e-09 0.9772426128303843 4.669760884473632e-09 4.669760884473632e-09 0.06274864637991474 4.669760884473632e-09 4.669760884473632e-09 4.669760884473632e-09 0.9372513302712808 1.619530239058858e-06 1.619530239058858e-06 1.619530239058858e-06 1.619530239058858e-06 1.619530239058858e-06 1.619530239058858e-06 0.9999902828185656 1.458187210823249e-06 1.458187210823249e-06 1.458187210823249e-06 1.458187210823249e-06 1.458187210823249e-06 1.458187210823249e-06 0.9999912508767351 0.0006349206349206348 0.0006349206349206348 0.0006349206349206348 0.0006349206349206348 0.0006349206349206348 0.0006349206349206348 0.9961904761904762 0.1428571428571428 0.1428571428571428 0.1428571428571428 0.1428571428571428 0.1428571428571428 0.1428571428571428 0.1428571428571428 0.1428571428571428 0.1428571428571428 0.1428571428571428 0.1428571428571428 0.1428571428571428 0.1428571428571428 0.1428571428571428 0.001906028866573084 5.758917323543173e-08 0.1289707806932297 5.758917323543173e-08 5.758917323543173e-08 5.758917323543173e-08 0.8691229600835044 1.429726504614506e-08 1.429726504614506e-08 0.1335443047295053 0.01930380983367892 1.429726504614506e-08 1.429726504614506e-08 0.8471518282477557 8.375593787721581e-08 8.375593787721581e-08 0.1639846619426084 0.2590037633218007 8.375593787721581e-08 8.375593787721581e-08 0.5770112397118394 0.0001698658060132495 0.0001698658060132495 0.3568880584338373 0.0001698658060132495 0.0001698658060132495 0.0001698658060132495 0.6422626125360964 0.03571428571428571 0.03571428571428571 0.03571428571428571 0.03571428571428571 0.03571428571428571 0.03571428571428571 0.7857142857142856 0.1428571428571428 0.1428571428571428 0.1428571428571428 0.1428571428571428 0.1428571428571428 0.1428571428571428 0.1428571428571428 0.1428571428571428 0.1428571428571428 0.1428571428571428 0.1428571428571428 0.1428571428571428 0.1428571428571428 0.1428571428571428 0.1428571428571428 0.1428571428571428 0.1428571428571428 0.1428571428571428 0.1428571428571428 0.1428571428571428 0.1428571428571428 0.04644880322181363 1.060644468792127e-06 0.008197721099294354 1.060644468792127e-06 1.060644468792127e-06 1.060644468792127e-06 0.9453492331010168 0.001510654528810456 8.137110308701621e-08 0.003776514265371509 8.137110308701621e-08 8.137110308701621e-08 8.137110308701621e-08 0.9947125057214056 1.377812804841083e-06 1.377812804841083e-06 0.00311661256455053 1.377812804841083e-06 1.377812804841083e-06 1.377812804841083e-06 0.9968764983714252 5.795656734842907e-06 5.795656734842907e-06 5.795656734842907e-06 5.795656734842907e-06 5.795656734842907e-06 5.795656734842907e-06 0.9999652260595908 0.0001311819493637675 0.0001311819493637675 0.0001311819493637675 0.0001311819493637675 0.0001311819493637675 0.0001311819493637675 0.9992129083038175 0.1428571428571428 0.1428571428571428 0.1428571428571428 0.1428571428571428 0.1428571428571428 0.1428571428571428 0.1428571428571428 0.1428571428571428 0.1428571428571428 0.1428571428571428 0.1428571428571428 0.1428571428571428 0.1428571428571428 0.1428571428571428 0.008928571428571428 0.008928571428571428 0.008928571428571428 0.008928571428571428 0.008928571428571428 0.008928571428571428 0.9464285714285714 3.680661400130957e-07 3.680661400130957e-07 0.643085527897021 3.680661400130957e-07 3.680661400130957e-07 3.680661400130957e-07 0.3569126317722789 5.330949901172186e-08 5.330949901172186e-08 0.2799510490856275 5.330949901172186e-08 5.330949901172186e-08 5.330949901172186e-08 0.7200486843668775 1.108442228545269e-06 1.108442228545269e-06 0.1899437687257459 0.002794382858162624 1.108442228545269e-06 1.108442228545269e-06 0.8072574146471773 2.124585705787371e-05 2.124585705787371e-05 0.08642814651143027 2.124585705787371e-05 2.124585705787371e-05 2.124585705787371e-05 0.9134656242032804 0.001763668430335097 0.001763668430335097 0.001763668430335097 0.001763668430335097 0.001763668430335097 0.001763668430335097 0.9894179894179894 0.1428571428571428 0.1428571428571428 0.1428571428571428 0.1428571428571428 0.1428571428571428 0.1428571428571428 0.1428571428571428 0.1428571428571428 0.1428571428571428 0.1428571428571428 0.1428571428571428 0.1428571428571428 0.1428571428571428 0.1428571428571428 0.1428571428571428 0.1428571428571428 0.1428571428571428 0.1428571428571428 0.1428571428571428 0.1428571428571428 0.1428571428571428 9.25417914334378e-09 9.25417914334378e-09 0.08019348674769619 9.25417914334378e-09 9.25417914334378e-09 9.25417914334378e-09 0.9198064669814081 0.0006199662180111739 0.0001549941275034271 0.03146311488835838 0.005889649910432304 3.430667511530293e-09 3.430667511530293e-09 0.9618722679943597 5.92810511493093e-09 5.92810511493093e-09 0.04156479637934104 5.92810511493093e-09 5.92810511493093e-09 5.92810511493093e-09 0.9584351739801333 6.692956600192221e-07 6.692956600192221e-07 0.0412152267439837 6.692956600192221e-07 6.692956600192221e-07 6.692956600192221e-07 0.9587814267777162 0.0007288629737609328 0.0007288629737609328 0.0007288629737609328 0.0007288629737609328 0.0007288629737609328 0.0007288629737609328 0.9956268221574344 0.1428571428571428 0.1428571428571428 0.1428571428571428 0.1428571428571428 0.1428571428571428 0.1428571428571428 0.1428571428571428</probabilities>
		</cpt>
	</nodes>
	<extensions>
		<genie version="1.0" app="GeNIe 2.2.2601.0 ACADEMIC" name="processed_trimmed" faultnameformat="nodestate">
			<node id="county_name">
				<name>county_name</name>
				<interior color="e5f6f7" />
				<outline color="000080" />
				<font color="000000" name="DejaVu Sans" size="8" />
				<position>106 10 178 58</position>
			</node>
			<node id="driver_gender">
				<name>driver_gender</name>
				<interior color="e5f6f7" />
				<outline color="000080" />
				<font color="000000" name="DejaVu Sans" size="8" />
				<position>298 10 370 58</position>
			</node>
			<node id="driver_age">
				<name>driver_age</name>
				<interior color="e5f6f7" />
				<outline color="000080" />
				<font color="000000" name="DejaVu Sans" size="8" />
				<position>586 10 658 58</position>
			</node>
			<node id="driver_race">
				<name>driver_race</name>
				<interior color="e5f6f7" />
				<outline color="000080" />
				<font color="000000" name="DejaVu Sans" size="8" />
				<position>202 10 274 58</position>
			</node>
			<node id="search_conducted">
				<name>search_conducted</name>
				<interior color="e5f6f7" />
				<outline color="000080" />
				<font color="000000" name="DejaVu Sans" size="8" />
				<position>394 10 466 58</position>
			</node>
			<node id="stop_outcome">
				<name>stop_outcome</name>
				<interior color="e5f6f7" />
				<outline color="000080" />
				<font color="000000" name="DejaVu Sans" size="8" />
				<position>490 10 562 58</position>
			</node>
			<node id="officer_race">
				<name>officer_race</name>
				<interior color="e5f6f7" />
				<outline color="000080" />
				<font color="000000" name="DejaVu Sans" size="8" />
				<position>178 105 250 153</position>
			</node>
			<node id="officer_age">
				<name>officer_age</name>
				<interior color="e5f6f7" />
				<outline color="000080" />
				<font color="000000" name="DejaVu Sans" size="8" />
				<position>10 10 82 58</position>
			</node>
			<textbox>
				<caption>Input file: processed-trimmed.csv\nData rows: 291411\n\nLearning algorithm: Bayesian Search\nElapsed time: 31.452 seconds\nBest score in iteration 14: -2.61384e+06\n\nAlgorithm parameters:\nMax parent count: 8\nIterations: 20\nSample size: 50\nSeed: 0\nLink probability: 0.1\nPrior link probability: 0.001\nMax search time: 0\nUse accuracy as score: no\nNo background knowledge</caption>
				<font color="000000" name="Arial" size="8" />
				<position>10 142 410 1077</position>
			</textbox>
		</genie>
	</extensions>
</smile>
