<?xml version="1.0" encoding="ISO-8859-1"?>
<!-- This network was created in GeNIe Academic, which can be used for educational and research purposes only -->
<smile version="1.0" id="Unnamed" numsamples="10000" discsamples="10000">
	<nodes>
		<cpt id="stop_outcome">
			<state id="Arrest" />
			<state id="Citation" />
			<state id="SFelony_Arrest" />
			<state id="Warning" />
			<probabilities>0.02261754017789402 0.6266441555010193 0.0008853475018268042 0.3498529568192599</probabilities>
		</cpt>
		<cpt id="county_name">
			<state id="SAbbeville_County" />
			<state id="SAiken_County" />
			<state id="SAllendale_County" />
			<state id="SAnderson_County" />
			<state id="SBamberg_County" />
			<state id="SBarnwell_County" />
			<state id="SBeaufort_County" />
			<state id="SBerkeley_County" />
			<state id="SCalhoun_County" />
			<state id="SCharleston_County" />
			<state id="SCherokee_County" />
			<state id="SChester_County" />
			<state id="SChesterfield_County" />
			<state id="SColleton_County" />
			<state id="SDarlington_County" />
			<state id="SDorchester_County" />
			<state id="SEdgefield_County" />
			<state id="SFairfield_County" />
			<state id="SFlorence_County" />
			<state id="SGeorgetown_County" />
			<state id="SGreenville_County" />
			<state id="SGreenwood_County" />
			<state id="SHampton_County" />
			<state id="SHorry_County" />
			<state id="SJasper_County" />
			<state id="SKershaw_County" />
			<state id="SLancaster_County" />
			<state id="SLaurens_County" />
			<state id="SLee_County" />
			<state id="SLexington_County" />
			<state id="SMarion_County" />
			<state id="SMarlboro_County" />
			<state id="SMccormick_County" />
			<state id="SNewberry_County" />
			<state id="SOconee_County" />
			<state id="SOrangeburg_County" />
			<state id="SPickens_County" />
			<state id="SRichland_County" />
			<state id="SSaluda_County" />
			<state id="SSpartanburg_County" />
			<state id="SSumter_County" />
			<state id="SUnion_County" />
			<state id="SWilliamsburg_County" />
			<state id="SYork_County" />
			<parents>stop_outcome</parents>
			<probabilities>0.003337885440889864 0.038537399120313 0.001668942981951698 0.04612350120639556 0.002730997274003258 0.006372326275322891 0.02108936432232308 0.02382036107331281 0.00515854994154968 0.01942042186338491 0.03155818520111703 0.01471703857001372 0.009558489151477572 0.009406767109755921 0.03322712766005519 0.01456531652829207 0.009255045068034269 0.008192990775982709 0.04991655224943684 0.01714459123756014 0.05310271512559153 0.03216507336800364 0.004551661774663075 0.1089364264791592 0.008799878942869314 0.02442724924019941 0.0232134729064262 0.02093764228060143 0.006068882191879589 0.05553026779313795 0.008192990775982709 0.009861933234920876 0.001062054815065093 0.01365498427796216 0.009406767109755921 0.03322712766005519 0.01153087569385904 0.06478531233815869 0.01532392673690033 0.03064785295078712 0.03838567707859134 0.005461994024992983 0.01304809611107556 0.04187528403818933 0.004331612006400139 0.03492122599368726 0.004315183642282369 0.04710559604769977 0.006500156069945734 0.00669729643935897 0.01894737994984256 0.03068818417267528 0.005377551188564808 0.02089687915848456 0.02441254907968727 0.01505385765393114 0.00973106767977377 0.01689931055649393 0.02449469090027611 0.03181626517542879 0.007108005542303212 0.01054700976428966 0.03704596108625214 0.01871738285219378 0.07398239974437094 0.02115973298436887 0.005076364513072364 0.08059755436245954 0.01168056688841577 0.01743049432963515 0.01515242783863776 0.02373898615085871 0.006407062006611707 0.05020508074458564 0.01253484182253979 0.009774876650754489 0.002387588919130728 0.01818619907905256 0.01434196187549446 0.03212292797229383 0.01772072876238242 0.05660119050777063 0.007316098154461628 0.05413693589010519 0.01947308760161118 0.008153944724467881 0.01064010382762369 0.05557167968972374 3.388034276065167e-07 0.04651127334525018 3.388034276065167e-07 0.1201535863698026 0.01162807243888325 3.388034276065167e-07 0.01162807243888325 0.05426309576888727 0.003876250015246154 0.04651127334525018 0.02713171728615744 0.0155039836507018 0.007752161227064703 0.007752161227064703 0.0155039836507018 0.01162807243888325 0.007752161227064703 0.003876250015246154 0.05426309576888727 0.02325580607433889 0.1046499415225284 3.388034276065167e-07 0.003876250015246154 0.07364265182798001 0.0155039836507018 0.01937989486252035 0.01162807243888325 0.0155039836507018 0.003876250015246154 0.05038718455706873 3.388034276065167e-07 3.388034276065167e-07 3.388034276065167e-07 0.01162807243888325 3.388034276065167e-07 0.02325580607433889 0.01162807243888325 0.05038718455706873 3.388034276065167e-07 0.05426309576888727 0.03100762849797599 3.388034276065167e-07 0.01162807243888325 0.03875945092161309 0.00537513119214326 0.03110317701560402 0.003609577151646525 0.07010230404346525 0.008258869458287929 0.009553609087985533 0.0168904669896053 0.01609596767138177 0.004394267836311741 0.01025002207062591 0.02776824160577685 0.01809692891727807 0.01202538474468096 0.0155368755585578 0.01694931879095519 0.01854812606096057 0.009053368776511458 0.01356534021333645 0.0239232572509173 0.01387921648720254 0.09694853409257394 0.02720914949295289 0.006905278027240431 0.0493472354340703 0.01148590989897363 0.02929838844087402 0.02265794352189464 0.02202038234060415 0.00839619032810434 0.04547282517853578 0.008386381694546025 0.005404557092818205 0.003305509511338754 0.01523280791825003 0.02584574942834708 0.02461967023355768 0.02849408048909218 0.05175035065585751 0.01008327530013456 0.07457504094605698 0.02207923414195404 0.006611019020490974 0.006630636287607605 0.05226039960088991</probabilities>
		</cpt>
		<cpt id="driver_gender">
			<state id="F" />
			<state id="M" />
			<parents>stop_outcome</parents>
			<probabilities>0.1729631390689803 0.8270368609310196 0.3278444343492053 0.6721555656507946 0.1046570563945081 0.8953429436054919 0.3942187913903498 0.6057812086096503</probabilities>
		</cpt>
		<cpt id="driver_age">
			<state id="S10s" />
			<state id="S20s" />
			<state id="S30s" />
			<state id="S40s" />
			<state id="S50s" />
			<state id="S60s" />
			<state id="S70s" />
			<state id="S80s" />
			<state id="S90s" />
			<parents>stop_outcome</parents>
			<probabilities>0.04915794407477011 0.3742982794842691 0.2680928502791131 0.1891973885838544 0.09027461738133764 0.02518586148274918 0.003489609516553031 0.0003034466403983514 2.556955048648421e-09 0.09697115726915372 0.3258456500365481 0.2248550196832454 0.1743104194142407 0.1100809918351339 0.04972865818782074 0.01532218760383847 0.002677823354528409 0.0002080926154903688 0.06589214697322807 0.4224759784605344 0.2674395299877925 0.1666658384805103 0.05426441333777241 0.02325712364322403 1.656372312742969e-06 1.656372312742969e-06 1.656372312742969e-06 0.08083294916476524 0.2756324116329051 0.2130337122637375 0.1900128493023717 0.1346627301327991 0.07326068405774593 0.02615962571071634 0.006071544183286819 0.0003334935516724284</probabilities>
		</cpt>
		<cpt id="driver_race">
			<state id="Black" />
			<state id="Hispanic" />
			<state id="Other" />
			<state id="White" />
			<parents>stop_outcome</parents>
			<probabilities>0.3529054747977101 0.1400394502622331 0.006827497630623174 0.5002275773094336 0.3399302342110143 0.04674964816529679 0.01071129341228272 0.6026088242114062 0.4379816937731996 0.08139786228589317 0.007755549261340768 0.4728648946795665 0.3105805730145443 0.02209885143093599 0.01026963935960786 0.6570509361949119</probabilities>
		</cpt>
		<cpt id="search_conducted">
			<state id="FALSE" />
			<state id="TRUE" />
			<parents>stop_outcome</parents>
			<probabilities>0.1521772193531141 0.8478227806468859 0.9932260378471124 0.006773962152887482 0.07752567791177829 0.9224743220882217 0.9986071739866157 0.001392826013384461</probabilities>
		</cpt>
		<cpt id="officer_race">
			<state id="Amerindian" />
			<state id="Asian" />
			<state id="Black" />
			<state id="Hispanic" />
			<state id="SMulti_Race" />
			<state id="Other" />
			<state id="White" />
			<parents>stop_outcome</parents>
			<probabilities>0.003186166163668314 0.001820667788173451 0.08648156706885493 0.01244121070868905 0.0007586134961218911 0.0003034473709569369 0.8950083274035354 0.004660179292357936 0.00245330237920421 0.105700094738014 0.01140676082338868 0.001796167814493423 0.000624277840759187 0.8733592171117825 0.003878040833363503 2.129621544955246e-06 0.09689990991700864 0.0116298632570006 2.129621544955246e-06 0.003878040833363503 0.8837098859161738 0.005914606049407979 0.00174593678712402 0.08501142706366174 0.01160361351323079 0.0009514374689004891 0.0003825367225182077 0.8943904423951567</probabilities>
		</cpt>
		<cpt id="officer_age">
			<state id="S0s" />
			<state id="S10s" />
			<state id="S20s" />
			<state id="S30s" />
			<state id="S40s" />
			<state id="S50s" />
			<state id="S60s" />
			<state id="S70s" />
			<parents>stop_outcome</parents>
			<probabilities>0.0007586130851826869 0.000455169001739384 0.2910028788987019 0.4890001433454569 0.1819147309008345 0.03125474347123462 0.005613718420275532 2.876574429729475e-09 0.001106176521011605 0.00136355422552333 0.2562003384203664 0.4589865889687427 0.2293290108450678 0.04374873364936908 0.008953458447932917 0.0003121389219860708 1.86341885183584e-06 1.86341885183584e-06 0.3488338724825211 0.4573593864134405 0.1550383118915937 0.03100915311340022 0.007753685842488932 1.86341885183584e-06 0.001108375604115543 0.001294739641723532 0.2439897597751165 0.4423693734920413 0.2568292611029511 0.04326588263775426 0.01096605233022232 0.0001765554160755992</probabilities>
		</cpt>
	</nodes>
	<extensions>
		<genie version="1.0" app="GeNIe 2.2.2601.0 ACADEMIC" name="processed_trimmed" faultnameformat="nodestate">
			<node id="county_name">
				<name>county_name</name>
				<interior color="e5f6f7" />
				<outline color="000080" />
				<font color="000000" name="DejaVu Sans" size="8" />
				<position>243 94 315 142</position>
			</node>
			<node id="driver_gender">
				<name>driver_gender</name>
				<interior color="e5f6f7" />
				<outline color="000080" />
				<font color="000000" name="DejaVu Sans" size="8" />
				<position>201 150 273 198</position>
			</node>
			<node id="driver_age">
				<name>driver_age</name>
				<interior color="e5f6f7" />
				<outline color="000080" />
				<font color="000000" name="DejaVu Sans" size="8" />
				<position>110 164 182 212</position>
			</node>
			<node id="driver_race">
				<name>driver_race</name>
				<interior color="e5f6f7" />
				<outline color="000080" />
				<font color="000000" name="DejaVu Sans" size="8" />
				<position>36 125 108 173</position>
			</node>
			<node id="search_conducted">
				<name>search_conducted</name>
				<interior color="e5f6f7" />
				<outline color="000080" />
				<font color="000000" name="DejaVu Sans" size="8" />
				<position>36 63 108 111</position>
			</node>
			<node id="stop_outcome">
				<name>stop_outcome</name>
				<interior color="ffff80" />
				<outline color="000080" />
				<font color="000000" name="DejaVu Sans" size="8" />
				<position>134 94 206 142</position>
			</node>
			<node id="officer_race">
				<name>officer_race</name>
				<interior color="e5f6f7" />
				<outline color="000080" />
				<font color="000000" name="DejaVu Sans" size="8" />
				<position>110 24 182 72</position>
			</node>
			<node id="officer_age">
				<name>officer_age</name>
				<interior color="e5f6f7" />
				<outline color="000080" />
				<font color="000000" name="DejaVu Sans" size="8" />
				<position>201 38 273 86</position>
			</node>
		</genie>
	</extensions>
</smile>
