<?xml version="1.0" encoding="ISO-8859-1"?>
<!-- This network was created in GeNIe Academic, which can be used for educational and research purposes only -->
<smile version="1.0" id="Unnamed" numsamples="10000" discsamples="10000">
	<nodes>
		<cpt id="county_name">
			<state id="Abbeville_County" />
			<state id="Aiken_County" />
			<state id="Allendale_County" />
			<state id="Anderson_County" />
			<state id="Bamberg_County" />
			<state id="Barnwell_County" />
			<state id="Beaufort_County" />
			<state id="Berkeley_County" />
			<state id="Calhoun_County" />
			<state id="Charleston_County" />
			<state id="Cherokee_County" />
			<state id="Chester_County" />
			<state id="Chesterfield_County" />
			<state id="Colleton_County" />
			<state id="Darlington_County" />
			<state id="Dorchester_County" />
			<state id="Edgefield_County" />
			<state id="Fairfield_County" />
			<state id="Florence_County" />
			<state id="Georgetown_County" />
			<state id="Greenville_County" />
			<state id="Greenwood_County" />
			<state id="Hampton_County" />
			<state id="Horry_County" />
			<state id="Jasper_County" />
			<state id="Kershaw_County" />
			<state id="Lancaster_County" />
			<state id="Laurens_County" />
			<state id="Lee_County" />
			<state id="Lexington_County" />
			<state id="Marion_County" />
			<state id="Marlboro_County" />
			<state id="Mccormick_County" />
			<state id="Newberry_County" />
			<state id="Oconee_County" />
			<state id="Orangeburg_County" />
			<state id="Pickens_County" />
			<state id="Richland_County" />
			<state id="Saluda_County" />
			<state id="Spartanburg_County" />
			<state id="Sumter_County" />
			<state id="Union_County" />
			<state id="Williamsburg_County" />
			<state id="York_County" />
			<probabilities>0.004670441599085581 0.03367748317595956 0.004004717469674301 0.05519341251311795 0.00703479172879884 0.007683358019823231 0.01826974430453354 0.02544858388560775 0.005027324637532865 0.01716134794474053 0.025750561841217 0.01611128823546294 0.01052812762436937 0.01624511937488067 0.02204446874964905 0.0267663058737208 0.00783777856530523 0.01154387165687318 0.03276125460609971 0.01699320112854902 0.08157187324912059 0.02350631658021196 0.005703343469976279 0.07029917342893473 0.01155073479222794 0.0217424907940398 0.01795747164589217 0.02306707591750761 0.007093128379314261 0.04867000235842288 0.01097423142242848 0.008239271983558425 0.002676700778529118 0.01704467464370969 0.01824229176311452 0.02951499158330037 0.02134442894346399 0.05508360234744186 0.008458892314910598 0.06075598371814726 0.02082283065650257 0.007546095312728122 0.009292763260513388 0.05408844772100232</probabilities>
		</cpt>
		<cpt id="driver_gender">
			<state id="F" />
			<state id="M" />
			<probabilities>0.3473655854940771 0.6526344145059229</probabilities>
		</cpt>
		<cpt id="driver_age">
			<state id="x10s" />
			<state id="x20s" />
			<state id="x30s" />
			<state id="x40s" />
			<state id="x50s" />
			<state id="x60s" />
			<state id="x70s" />
			<state id="x80s" />
			<state id="x90s" />
			<probabilities>0.09021629552355809 0.3094591544312215 0.2217345583267371 0.1801336633738868 0.1181835720941866 0.05738305598640794 0.01883282469874649 0.00380942140718677 0.0002474541580686832</probabilities>
		</cpt>
		<cpt id="driver_race">
			<state id="Black" />
			<state id="Hispanic" />
			<state id="Other" />
			<state id="White" />
			<probabilities>0.330042173966755 0.04026687301826967 0.01046713930792143 0.6192238137070539</probabilities>
		</cpt>
		<cpt id="officer_race">
			<state id="Amerindian" />
			<state id="Asian" />
			<state id="Black" />
			<state id="Hispanic" />
			<state id="Multi_Race" />
			<state id="Other" />
			<state id="White" />
			<probabilities>0.005065484115763445 0.002189830402120905 0.09801978936057149 0.0114996735108467 0.001476064325226337 0.0005358147816248375 0.8812133435038464</probabilities>
		</cpt>
		<cpt id="officer_age">
			<state id="x0s" />
			<state id="x10s" />
			<state id="x20s" />
			<state id="x30s" />
			<state id="x40s" />
			<state id="x50s" />
			<state id="x60s" />
			<state id="x70s" />
			<probabilities>0.001098530602720547 0.001318150934072722 0.2527971566030225 0.4538492752529065 0.237811500555914 0.0432862236284024 0.009581365901198303 0.0002577965217630022</probabilities>
		</cpt>
		<cpt id="county_racial_climate">
			<state id="State0" />
			<state id="State1" />
			<state id="State2" />
			<state id="State3" />
			<state id="State4" />
			<parents>county_name</parents>
			<probabilities>0.2188235466353175 0.3455511563889115 0.2223452527072202 0.2018092115458124 0.01147083272273841 0.3178933795426213 0.06547845823360249 0.0106902810340733 0.3837486402219539 0.2221892409677488 0.2418393957532222 0.2575839665784342 0.03466442095297995 0.4138751598531894 0.05203705686217407 0.3907110659320619 0.08306843368724849 0.04377106586547103 0.4287068555132316 0.05374257900198702 0.2011398441002986 0.2455593051270988 0.1449790343945991 0.2740133918929441 0.1343084244850593 0.1655496929287946 0.08579944708202099 0.211573807915012 0.2594956578670151 0.2775813942071575 0.06109851430578184 0.2648611674267766 0.2766345304886965 0.2373650582041083 0.1600407295746366 0.210600882818508 0.03966080597506118 0.4847390127042038 0.1596673494232778 0.1053319490789494 0.4636918437878333 0.3206816863511272 0.01192572584535628 0.02269980301701505 0.1810009409986681 0.2075328930354819 0.1838271031947664 0.296924345583718 0.05792919378986554 0.2537864643961682 0.124950962082132 0.2283326869519718 0.1550167480888259 0.3068661226298959 0.1848334802471746 0.04943720251328062 0.2939489303081805 0.03482718751004796 0.2670613154919078 0.3547253641765831 0.1723226619426119 0.02296512183735218 0.1903365666849992 0.2955872097121394 0.3187884398228973 0.2912527428619127 0.3251507741199002 0.00501114752492385 0.1524423936997334 0.2261429417935298 0.3609475740108188 0.1272847728076358 0.1782330253850563 0.01066886964423549 0.3228657581522535 0.2311002704633843 0.197037767671077 0.1456799942920357 0.205124038818673 0.2210579287548299 0.199593336373924 0.3052572345433572 0.02211364654045122 0.4527662918758942 0.02026949066637346 0.02773520940129576 0.08621064694200811 0.2804899667037374 0.3112893687258013 0.2942748082271575 0.3083035720274596 0.06132826343720287 0.07408517685496088 0.3933093986550908 0.1629735890252858 0.3163040226036126 0.2367819220113443 0.07521405776652847 0.1528653272236584 0.2188346703948563 0.1694496679659903 0.02386353480768246 0.3037739105239117 0.2211143250005479 0.2817985617018676 0.1284892571166801 0.2597394431358402 0.1884254286330465 0.2545321630539929 0.1688137080604404 0.3596161806482289 0.3168534089260508 0.1491427475014582 0.003976893712395501 0.1704107692118665 0.1516314378131932 0.1861702003587903 0.1550298829339047 0.2504983459354609 0.2566701329586507 0.1239840346121294 0.1815652434509109 0.1316797038292255 0.1411533396437665 0.4216176784639675 0.2208436514623566 0.2409658103868138 0.2481818580906598 0.07178117450841871 0.218227505551751 0.2102046006080208 0.3840737804816653 0.1788717573282711 0.1083762886014033 0.1184735729806397 0.01000104374222416 0.03843503698928871 0.2561205141769473 0.6354977363986642 0.05994566869287578 0.1450591455132697 0.01205545915747624 0.2810283701376304 0.314403802492928 0.2474532226986955 0.2811342373645369 0.06624053873721339 0.3047756069292887 0.07121702870513998 0.2766325882638211 0.2523331863134552 0.04020509087290215 0.275087842603817 0.1836950332088318 0.2486788470009938 0.02420401528075861 0.2405272776375902 0.2323800486881799 0.256688662259296 0.2461999961341753 0.2168247864612136 0.2439093756636318 0.1684241197993842 0.2224774720296807 0.1483642460460897 0.2829506592502566 0.3266554260282539 0.03526152019515864 0.1495960143944358 0.2055363801318951 0.23628921216268 0.07178677744223926 0.3420992632776157 0.3215649917760537 0.02825975534141124 0.4151883416017098 0.2236214936700417 0.01659943356952831 0.3257675260350444 0.0188232051236757 0.1312173527904765 0.01570574857719566 0.3699388356282624 0.1037748781078858 0.3793631848961795 0.1916589379688451 0.2825377448102293 0.1179863739488458 0.1071549120256645 0.3006620312464156 0.2124572575316561 0.2788037578230903 0.2775566965425613 0.1234907543775242 0.1076915337251683 0.1795096944494197 0.3154441221784076 0.1548168778634295 0.1100104626058303 0.2402188429029129 0.3168567713884587 0.3220035766468583 0.166517032677276 0.1494497226503632 0.04517289663704378 0.3305337134765785 0.06847150059941101 0.1814081271449519 0.1922092249183769 0.2273774338606817 0.04055985159316514 0.3335791487604086 0.4939888987517832 0.09691797918699004 0.03495412170765307 0.3267903833782666 0.05573965390699266 0.2696074894638016 0.2180884340629257 0.1297740391880133</probabilities>
		</cpt>
		<cpt id="officer_bias">
			<state id="State0" />
			<state id="State1" />
			<state id="State2" />
			<state id="State3" />
			<state id="State4" />
			<parents>officer_race officer_age county_racial_climate driver_race driver_age driver_gender</parents>
			<probabilities>0.5 0.5 0 0 0 0.5 0.5 0 0 0 0.5 0.5 0 0 0 0.5 0.5 0 0 0 0.5 0.5 0 0 0 0.5 0.5 0 0 0 0.5 0.5 0 0 0 0.5 0.5 0 0 0 0.5 0.5 0 0 0 0.5 0.5 0 0 0 0.5 0.5 0 0 0 0.5 0.5 0 0 0 0.5 0.5 0 0 0 0.5 0.5 0 0 0 0.5 0.5 0 0 0 0.5 0.5 0 0 0 0.5 0.5 0 0 0 0.5 0.5 0 0 0 0.5 0.5 0 0 0 0.5 0.5 0 0 0 0.5 0.5 0 0 0 0.5 0.5 0 0 0 0.5 0.5 0 0 0 0.5 0.5 0 0 0 0.5 0.5 0 0 0 0.5 0.5 0 0 0 0.5 0.5 0 0 0 0.5 0.5 0 0 0 0.5 0.5 0 0 0 0.5 0.5 0 0 0 0.5 0.5 0 0 0 0.5 0.5 0 0 0 0.5 0.5 0 0 0 0.5 0.5 0 0 0 0.5 0.5 0 0 0 0.5 0.5 0 0 0 0.5 0.5 0 0 0 0.5 0.5 0 0 0 0.5 0.5 0 0 0 0.5 0.5 0 0 0 0.5 0.5 0 0 0 0.5 0.5 0 0 0 0.5 0.5 0 0 0 0.5 0.5 0 0 0 0.5 0.5 0 0 0 0.5 0.5 0 0 0 0.5 0.5 0 0 0 0.5 0.5 0 0 0 0.5 0.5 0 0 0 0.5 0.5 0 0 0 0.5 0.5 0 0 0 0.5 0.5 0 0 0 0.5 0.5 0 0 0 0.5 0.5 0 0 0 0.5 0.5 0 0 0 0.5 0.5 0 0 0 0.5 0.5 0 0 0 0.5 0.5 0 0 0 0.5 0.5 0 0 0 0.5 0.5 0 0 0 0.5 0.5 0 0 0 0.5 0.5 0 0 0 0.5 0.5 0 0 0 0.5 0.5 0 0 0 0.5 0.5 0 0 0 0.5 0.5 0 0 0 0.5 0.5 0 0 0 0.5 0.5 0 0 0 0.5 0.5 0 0 0 0.5 0.5 0 0 0 0.5 0.5 0 0 0 0.5 0.5 0 0 0 0.5 0.5 0 0 0 0.5 0.5 0 0 0 0.5 0.5 0 0 0 0.5 0.5 0 0 0 0.5 0.5 0 0 0 0.5 0.5 0 0 0 0.5 0.5 0 0 0 0.5 0.5 0 0 0 0.5 0.5 0 0 0 0.5 0.5 0 0 0 0.5 0.5 0 0 0 0.5 0.5 0 0 0 0.5 0.5 0 0 0 0.5 0.5 0 0 0 0.5 0.5 0 0 0 0.5 0.5 0 0 0 0.5 0.5 0 0 0 0.5 0.5 0 0 0 0.5 0.5 0 0 0 0.5 0.5 0 0 0 0.5 0.5 0 0 0 0.5 0.5 0 0 0 0.5 0.5 0 0 0 0.5 0.5 0 0 0 0.5 0.5 0 0 0 0.5 0.5 0 0 0 0.5 0.5 0 0 0 0.5 0.5 0 0 0 0.5 0.5 0 0 0 0.5 0.5 0 0 0 0.5 0.5 0 0 0 0.5 0.5 0 0 0 0.5 0.5 0 0 0 0.5 0.5 0 0 0 0.5 0.5 0 0 0 0.5 0.5 0 0 0 0.5 0.5 0 0 0 0.5 0.5 0 0 0 0.5 0.5 0 0 0 0.5 0.5 0 0 0 0.5 0.5 0 0 0 0.5 0.5 0 0 0 0.5 0.5 0 0 0 0.5 0.5 0 0 0 0.5 0.5 0 0 0 0.5 0.5 0 0 0 0.5 0.5 0 0 0 0.5 0.5 0 0 0 0.5 0.5 0 0 0 0.5 0.5 0 0 0 0.5 0.5 0 0 0 0.5 0.5 0 0 0 0.5 0.5 0 0 0 0.5 0.5 0 0 0 0.5 0.5 0 0 0 0.5 0.5 0 0 0 0.5 0.5 0 0 0 0.5 0.5 0 0 0 0.5 0.5 0 0 0 0.5 0.5 0 0 0 0.5 0.5 0 0 0 0.5 0.5 0 0 0 0.5 0.5 0 0 0 0.5 0.5 0 0 0 0.5 0.5 0 0 0 0.5 0.5 0 0 0 0.5 0.5 0 0 0 0.5 0.5 0 0 0 0.5 0.5 0 0 0 0.5 0.5 0 0 0 0.5 0.5 0 0 0 0.5 0.5 0 0 0 0.5 0.5 0 0 0 0.5 0.5 0 0 0 0.5 0.5 0 0 0 0.5 0.5 0 0 0 0.5 0.5 0 0 0 0.5 0.5 0 0 0 0.5 0.5 0 0 0 0.5 0.5 0 0 0 0.5 0.5 0 0 0 0.5 0.5 0 0 0 0.5 0.5 0 0 0 0.5 0.5 0 0 0 0.5 0.5 0 0 0 0.5 0.5 0 0 0 0.5 0.5 0 0 0 0.5 0.5 0 0 0 0.5 0.5 0 0 0 0.5 0.5 0 0 0 0.5 0.5 0 0 0 0.5 0.5 0 0 0 0.5 0.5 0 0 0 0.5 0.5 0 0 0 0.5 0.5 0 0 0 0.5 0.5 0 0 0 0.5 0.5 0 0 0 0.5 0.5 0 0 0 0.5 0.5 0 0 0 0.5 0.5 0 0 0 0.5 0.5 0 0 0 0.5 0.5 0 0 0 0.5 0.5 0 0 0 0.5 0.5 0 0 0 0.5 0.5 0 0 0 0.5 0.5 0 0 0 0.5 0.5 0 0 0 0.5 0.5 0 0 0 0.5 0.5 0 0 0 0.5 0.5 0 0 0 0.5 0.5 0 0 0 0.5 0.5 0 0 0 0.5 0.5 0 0 0 0.5 0.5 0 0 0 0.5 0.5 0 0 0 0.5 0.5 0 0 0 0.5 0.5 0 0 0 0.5 0.5 0 0 0 0.5 0.5 0 0 0 0.5 0.5 0 0 0 0.5 0.5 0 0 0 0.5 0.5 0 0 0 0.5 0.5 0 0 0 0.5 0.5 0 0 0 0.5 0.5 0 0 0 0.5 0.5 0 0 0 0.5 0.5 0 0 0 0.5 0.5 0 0 0 0.5 0.5 0 0 0 0.5 0.5 0 0 0 0.5 0.5 0 0 0 0.5 0.5 0 0 0 0.5 0.5 0 0 0 0.5 0.5 0 0 0 0.5 0.5 0 0 0 0.5 0.5 0 0 0 0.5 0.5 0 0 0 0.5 0.5 0 0 0 0.5 0.5 0 0 0 0.5 0.5 0 0 0 0.5 0.5 0 0 0 0.5 0.5 0 0 0 0.5 0.5 0 0 0 0.5 0.5 0 0 0 0.5 0.5 0 0 0 0.5 0.5 0 0 0 0.5 0.5 0 0 0 0.5 0.5 0 0 0 0.5 0.5 0 0 0 0.5 0.5 0 0 0 0.5 0.5 0 0 0 0.5 0.5 0 0 0 0.5 0.5 0 0 0 0.5 0.5 0 0 0 0.5 0.5 0 0 0 0.5 0.5 0 0 0 0.5 0.5 0 0 0 0.5 0.5 0 0 0 0.5 0.5 0 0 0 0.5 0.5 0 0 0 0.5 0.5 0 0 0 0.5 0.5 0 0 0 0.5 0.5 0 0 0 0.5 0.5 0 0 0 0.5 0.5 0 0 0 0.5 0.5 0 0 0 0.5 0.5 0 0 0 0.5 0.5 0 0 0 0.5 0.5 0 0 0 0.5 0.5 0 0 0 0.5 0.5 0 0 0 0.5 0.5 0 0 0 0.5 0.5 0 0 0 0.5 0.5 0 0 0 0.5 0.5 0 0 0 0.5 0.5 0 0 0 0.5 0.5 0 0 0 0.5 0.5 0 0 0 0.5 0.5 0 0 0 0.5 0.5 0 0 0 0.5 0.5 0 0 0 0.5 0.5 0 0 0 0.5 0.5 0 0 0 0.5 0.5 0 0 0 0.5 0.5 0 0 0 0.5 0.5 0 0 0 0.5 0.5 0 0 0 0.5 0.5 0 0 0 0.5 0.5 0 0 0 0.5 0.5 0 0 0 0.5 0.5 0 0 0 0.5 0.5 0 0 0 0.5 0.5 0 0 0 0.5 0.5 0 0 0 0.5 0.5 0 0 0 0.5 0.5 0 0 0 0.5 0.5 0 0 0 0.5 0.5 0 0 0 0.5 0.5 0 0 0 0.5 0.5 0 0 0 0.5 0.5 0 0 0 0.5 0.5 0 0 0 0.5 0.5 0 0 0 0.5 0.5 0 0 0 0.5 0.5 0 0 0 0.5 0.5 0 0 0 0.5 0.5 0 0 0 0.5 0.5 0 0 0 0.5 0.5 0 0 0 0.5 0.5 0 0 0 0.5 0.5 0 0 0 0.5 0.5 0 0 0 0.5 0.5 0 0 0 0.5 0.5 0 0 0 0.5 0.5 0 0 0 0.5 0.5 0 0 0 0.5 0.5 0 0 0 0.5 0.5 0 0 0 0.5 0.5 0 0 0 0.5 0.5 0 0 0 0.5 0.5 0 0 0 0.5 0.5 0 0 0 0.5 0.5 0 0 0 0.5 0.5 0 0 0 0.5 0.5 0 0 0 0.5 0.5 0 0 0 0.5 0.5 0 0 0 0.5 0.5 0 0 0 0.5 0.5 0 0 0 0.5 0.5 0 0 0 0.5 0.5 0 0 0 0.5 0.5 0 0 0 0.5 0.5 0 0 0 0.5 0.5 0 0 0 0.5 0.5 0 0 0 0.5 0.5 0 0 0 0.5 0.5 0 0 0 0.5 0.5 0 0 0 0.5 0.5 0 0 0 0.5 0.5 0 0 0 0.5 0.5 0 0 0 0.5 0.5 0 0 0 0.5 0.5 0 0 0 0.5 0.5 0 0 0 0.5 0.5 0 0 0 0.5 0.5 0 0 0 0.5 0.5 0 0 0 0.5 0.5 0 0 0 0.5 0.5 0 0 0 0.5 0.5 0 0 0 0.5 0.5 0 0 0 0.5 0.5 0 0 0 0.5 0.5 0 0 0 0.5 0.5 0 0 0 0.5 0.5 0 0 0 0.5 0.5 0 0 0 0.5 0.5 0 0 0 0.5 0.5 0 0 0 0.5 0.5 0 0 0 0.5 0.5 0 0 0 0.5 0.5 0 0 0 0.5 0.5 0 0 0 0.5 0.5 0 0 0 0.5 0.5 0 0 0 0.5 0.5 0 0 0 0.5 0.5 0 0 0 0.5 0.5 0 0 0 0.5 0.5 0 0 0 0.5 0.5 0 0 0 0.5 0.5 0 0 0 0.5 0.5 0 0 0 0.5 0.5 0 0 0 0.5 0.5 0 0 0 0.5 0.5 0 0 0 0.5 0.5 0 0 0 0.5 0.5 0 0 0 0.5 0.5 0 0 0 0.5 0.5 0 0 0 0.5 0.5 0 0 0 0.5 0.5 0 0 0 0.5 0.5 0 0 0 0.5 0.5 0 0 0 0.5 0.5 0 0 0 0.5 0.5 0 0 0 0.5 0.5 0 0 0 0.5 0.5 0 0 0 0.5 0.5 0 0 0 0.5 0.5 0 0 0 0.5 0.5 0 0 0 0.5 0.5 0 0 0 0.5 0.5 0 0 0 0.5 0.5 0 0 0 0.5 0.5 0 0 0 0.5 0.5 0 0 0 0.5 0.5 0 0 0 0.5 0.5 0 0 0 0.5 0.5 0 0 0 0.5 0.5 0 0 0 0.5 0.5 0 0 0 0.5 0.5 0 0 0 0.5 0.5 0 0 0 0.5 0.5 0 0 0 0.5 0.5 0 0 0 0.5 0.5 0 0 0 0.5 0.5 0 0 0 0.5 0.5 0 0 0 0.5 0.5 0 0 0 0.5 0.5 0 0 0 0.5 0.5 0 0 0 0.5 0.5 0 0 0 0.5 0.5 0 0 0 0.5 0.5 0 0 0 0.5 0.5 0 0 0 0.5 0.5 0 0 0 0.5 0.5 0 0 0 0.5 0.5 0 0 0 0.5 0.5 0 0 0 0.5 0.5 0 0 0 0.5 0.5 0 0 0 0.5 0.5 0 0 0 0.5 0.5 0 0 0 0.5 0.5 0 0 0 0.5 0.5 0 0 0 0.5 0.5 0 0 0 0.5 0.5 0 0 0 0.5 0.5 0 0 0 0.5 0.5 0 0 0 0.5 0.5 0 0 0 0.5 0.5 0 0 0 0.5 0.5 0 0 0 0.5 0.5 0 0 0 0.5 0.5 0 0 0 0.5 0.5 0 0 0 0.5 0.5 0 0 0 0.5 0.5 0 0 0 0.5 0.5 0 0 0 0.5 0.5 0 0 0 0.5 0.5 0 0 0 0.5 0.5 0 0 0 0.5 0.5 0 0 0 0.5 0.5 0 0 0 0.5 0.5 0 0 0 0.5 0.5 0 0 0 0.5 0.5 0 0 0 0.5 0.5 0 0 0 0.5 0.5 0 0 0 0.5 0.5 0 0 0 0.5 0.5 0 0 0 0.5 0.5 0 0 0 0.5 0.5 0 0 0 0.5 0.5 0 0 0 0.5 0.5 0 0 0 0.5 0.5 0 0 0 0.5 0.5 0 0 0 0.5 0.5 0 0 0 0.5 0.5 0 0 0 0.5 0.5 0 0 0 0.5 0.5 0 0 0 0.5 0.5 0 0 0 0.5 0.5 0 0 0 0.5 0.5 0 0 0 0.5 0.5 0 0 0 0.5 0.5 0 0 0 0.5 0.5 0 0 0 0.5 0.5 0 0 0 0.5 0.5 0 0 0 0.5 0.5 0 0 0 0.5 0.5 0 0 0 0.5 0.5 0 0 0 0.5 0.5 0 0 0 0.5 0.5 0 0 0 0.5 0.5 0 0 0 0.5 0.5 0 0 0 0.5 0.5 0 0 0 0.5 0.5 0 0 0 0.5 0.5 0 0 0 0.5 0.5 0 0 0 0.5 0.5 0 0 0 0.5 0.5 0 0 0 0.5 0.5 0 0 0 0.5 0.5 0 0 0 0.5 0.5 0 0 0 0.5 0.5 0 0 0 0.5 0.5 0 0 0 0.5 0.5 0 0 0 0.5 0.5 0 0 0 0.5 0.5 0 0 0 0.5 0.5 0 0 0 0.5 0.5 0 0 0 0.5 0.5 0 0 0 0.5 0.5 0 0 0 0.5 0.5 0 0 0 0.5 0.5 0 0 0 0.5 0.5 0 0 0 0.5 0.5 0 0 0 0.5 0.5 0 0 0 0.5 0.5 0 0 0 0.5 0.5 0 0 0 0.5 0.5 0 0 0 0.5 0.5 0 0 0 0.5 0.5 0 0 0 0.5 0.5 0 0 0 0.5 0.5 0 0 0 0.5 0.5 0 0 0 0.5 0.5 0 0 0 0.5 0.5 0 0 0 0.5 0.5 0 0 0 0.5 0.5 0 0 0 0.5 0.5 0 0 0 0.5 0.5 0 0 0 0.5 0.5 0 0 0 0.5 0.5 0 0 0 0.5 0.5 0 0 0 0.5 0.5 0 0 0 0.5 0.5 0 0 0 0.5 0.5 0 0 0 0.5 0.5 0 0 0 0.5 0.5 0 0 0 0.5 0.5 0 0 0 0.5 0.5 0 0 0 0.5 0.5 0 0 0 0.5 0.5 0 0 0 0.5 0.5 0 0 0 0.5 0.5 0 0 0 0.5 0.5 0 0 0 0.5 0.5 0 0 0 0.5 0.5 0 0 0 0.5 0.5 0 0 0 0.5 0.5 0 0 0 0.5 0.5 0 0 0 0.5 0.5 0 0 0 0.5 0.5 0 0 0 0.5 0.5 0 0 0 0.5 0.5 0 0 0 0.5 0.5 0 0 0 0.5 0.5 0 0 0 0.5 0.5 0 0 0 0.5 0.5 0 0 0 0.5 0.5 0 0 0 0.5 0.5 0 0 0 0.5 0.5 0 0 0 0.5 0.5 0 0 0 0.5 0.5 0 0 0 0.5 0.5 0 0 0 0.5 0.5 0 0 0 0.5 0.5 0 0 0 0.5 0.5 0 0 0 0.5 0.5 0 0 0 0.5 0.5 0 0 0 0.5 0.5 0 0 0 0.5 0.5 0 0 0 0.5 0.5 0 0 0 0.5 0.5 0 0 0 0.5 0.5 0 0 0 0.5 0.5 0 0 0 0.5 0.5 0 0 0 0.5 0.5 0 0 0 0.5 0.5 0 0 0 0.5 0.5 0 0 0 0.5 0.5 0 0 0 0.5 0.5 0 0 0 0.5 0.5 0 0 0 0.5 0.5 0 0 0 0.5 0.5 0 0 0 0.5 0.5 0 0 0 0.5 0.5 0 0 0 0.5 0.5 0 0 0 0.5 0.5 0 0 0 0.5 0.5 0 0 0 0.5 0.5 0 0 0 0.5 0.5 0 0 0 0.5 0.5 0 0 0 0.5 0.5 0 0 0 0.5 0.5 0 0 0 0.5 0.5 0 0 0 0.5 0.5 0 0 0 0.5 0.5 0 0 0 0.5 0.5 0 0 0 0.5 0.5 0 0 0 0.5 0.5 0 0 0 0.5 0.5 0 0 0 0.5 0.5 0 0 0 0.5 0.5 0 0 0 0.5 0.5 0 0 0 0.5 0.5 0 0 0 0.5 0.5 0 0 0 0.5 0.5 0 0 0 0.5 0.5 0 0 0 0.5 0.5 0 0 0 0.5 0.5 0 0 0 0.5 0.5 0 0 0 0.5 0.5 0 0 0 0.5 0.5 0 0 0 0.5 0.5 0 0 0 0.5 0.5 0 0 0 0.5 0.5 0 0 0 0.5 0.5 0 0 0 0.5 0.5 0 0 0 0.5 0.5 0 0 0 0.5 0.5 0 0 0 0.5 0.5 0 0 0 0.5 0.5 0 0 0 0.5 0.5 0 0 0 0.5 0.5 0 0 0 0.5 0.5 0 0 0 0.5 0.5 0 0 0 0.5 0.5 0 0 0 0.5 0.5 0 0 0 0.5 0.5 0 0 0 0.5 0.5 0 0 0 0.5 0.5 0 0 0 0.5 0.5 0 0 0 0.5 0.5 0 0 0 0.5 0.5 0 0 0 0.5 0.5 0 0 0 0.5 0.5 0 0 0 0.5 0.5 0 0 0 0.5 0.5 0 0 0 0.5 0.5 0 0 0 0.5 0.5 0 0 0 0.5 0.5 0 0 0 0.5 0.5 0 0 0 0.5 0.5 0 0 0 0.5 0.5 0 0 0 0.5 0.5 0 0 0 0.5 0.5 0 0 0 0.5 0.5 0 0 0 0.5 0.5 0 0 0 0.5 0.5 0 0 0 0.5 0.5 0 0 0 0.5 0.5 0 0 0 0.5 0.5 0 0 0 0.5 0.5 0 0 0 0.5 0.5 0 0 0 0.5 0.5 0 0 0 0.5 0.5 0 0 0 0.5 0.5 0 0 0 0.5 0.5 0 0 0 0.5 0.5 0 0 0 0.5 0.5 0 0 0 0.5 0.5 0 0 0 0.5 0.5 0 0 0 0.5 0.5 0 0 0 0.5 0.5 0 0 0 0.5 0.5 0 0 0 0.5 0.5 0 0 0 0.5 0.5 0 0 0 0.5 0.5 0 0 0 0.5 0.5 0 0 0 0.5 0.5 0 0 0 0.5 0.5 0 0 0 0.5 0.5 0 0 0 0.5 0.5 0 0 0 0.5 0.5 0 0 0 0.5 0.5 0 0 0 0.5 0.5 0 0 0 0.5 0.5 0 0 0 0.5 0.5 0 0 0 0.5 0.5 0 0 0 0.5 0.5 0 0 0 0.5 0.5 0 0 0 0.5 0.5 0 0 0 0.5 0.5 0 0 0 0.5 0.5 0 0 0 0.5 0.5 0 0 0 0.5 0.5 0 0 0 0.5 0.5 0 0 0 0.5 0.5 0 0 0 0.5 0.5 0 0 0 0.5 0.5 0 0 0 0.5 0.5 0 0 0 0.5 0.5 0 0 0 0.5 0.5 0 0 0 0.5 0.5 0 0 0 0.5 0.5 0 0 0 0.5 0.5 0 0 0 0.5 0.5 0 0 0 0.5 0.5 0 0 0 0.5 0.5 0 0 0 0.5 0.5 0 0 0 0.5 0.5 0 0 0 0.5 0.5 0 0 0 0.5 0.5 0 0 0 0.5 0.5 0 0 0 0.5 0.5 0 0 0 0.5 0.5 0 0 0 0.5 0.5 0 0 0 0.5 0.5 0 0 0 0.5 0.5 0 0 0 0.5 0.5 0 0 0 0.5 0.5 0 0 0 0.5 0.5 0 0 0 0.5 0.5 0 0 0 0.5 0.5 0 0 0 0.5 0.5 0 0 0 0.5 0.5 0 0 0 0.5 0.5 0 0 0 0.5 0.5 0 0 0 0.5 0.5 0 0 0 0.5 0.5 0 0 0 0.5 0.5 0 0 0 0.5 0.5 0 0 0 0.5 0.5 0 0 0 0.5 0.5 0 0 0 0.5 0.5 0 0 0 0.5 0.5 0 0 0 0.5 0.5 0 0 0 0.5 0.5 0 0 0 0.5 0.5 0 0 0 0.5 0.5 0 0 0 0.5 0.5 0 0 0 0.5 0.5 0 0 0 0.5 0.5 0 0 0 0.5 0.5 0 0 0 0.5 0.5 0 0 0 0.5 0.5 0 0 0 0.5 0.5 0 0 0 0.5 0.5 0 0 0 0.5 0.5 0 0 0 0.5 0.5 0 0 0 0.5 0.5 0 0 0 0.5 0.5 0 0 0 0.5 0.5 0 0 0 0.5 0.5 0 0 0 0.5 0.5 0 0 0 0.5 0.5 0 0 0 0.5 0.5 0 0 0 0.5 0.5 0 0 0 0.5 0.5 0 0 0 0.5 0.5 0 0 0 0.5 0.5 0 0 0 0.5 0.5 0 0 0 0.5 0.5 0 0 0 0.5 0.5 0 0 0 0.5 0.5 0 0 0 0.5 0.5 0 0 0 0.5 0.5 0 0 0 0.5 0.5 0 0 0 0.5 0.5 0 0 0 0.5 0.5 0 0 0 0.5 0.5 0 0 0 0.5 0.5 0 0 0 0.5 0.5 0 0 0 0.5 0.5 0 0 0 0.5 0.5 0 0 0 0.5 0.5 0 0 0 0.5 0.5 0 0 0 0.5 0.5 0 0 0 0.5120689108715241 0.4879310793618271 9.704858838367553e-09 2.966438294658012e-17 6.179002476671438e-11 0.5016084813978997 0.4983763854796417 5.227121082458004e-06 1.745342262746757e-07 9.731467149692924e-06 0.5559635598899102 0.4100259283466274 0.004164688792771896 8.686778541200068e-06 0.0298371361921493 0.4767508200369845 0.4735789100319777 0.004778382334926647 0.02416170573365505 0.02073018186245605 0.5077546363334183 0.4837547958996699 0.007584436947220415 5.747757618798513e-05 0.0008486532435033571 0.5030434805834412 0.3577924058848501 0.100803859024775 2.233727130875976e-05 0.03833791723562501 0.4635344180014351 0.5364490977341002 4.224854845420748e-06 1.216259454250818e-05 9.681507670730415e-08 0.4019649108001375 0.2800368927759134 0.2577064768798852 9.460219228222184e-05 0.06019711735178171 0.5183582671171508 0.4816398978361355 1.104445476780789e-06 7.527768955737821e-11 7.30525959270735e-07 0.524902272834314 0.4631737530885437 0.0107000264028442 4.5295119280107e-06 0.001219418162369915 0.4841643085758698 0.5158356913967909 5.390929644119016e-19 2.733938563399555e-11 3.885383137297046e-23 0.5713244180224352 0.428133165467754 6.284850109660681e-07 6.043557554919541e-13 0.0005417880241955355 0.5 0.5 0 0 0 0.5 0.5 0 0 0 0.5 0.5 0 0 0 0.5 0.5 0 0 0 0.5 0.5 0 0 0 0.5 0.5 0 0 0 0.5067852932679727 0.4932147067304283 1.508949943363271e-12 1.622288294039897e-20 9.012734803331216e-14 0.4958037206325943 0.5041954877563274 6.553622204894503e-07 1.313306418634283e-07 4.918215930621992e-09 0.5062256603704499 0.4937743396291823 2.641507532910559e-13 1.210189648943685e-20 1.037198533154974e-13 0.5529243972911611 0.4470705310742636 5.397068832690441e-08 1.99265789892411e-14 5.017663867105739e-06 0.5126026566461684 0.4873973333827576 8.149410718098731e-09 3.298684561161077e-16 1.82166294368782e-09 0.5302469728866011 0.4696712663447151 7.537165879029773e-05 2.433782719194035e-11 6.389085555696025e-06 0.5 0.5 0 0 0 0.5371745608733015 0.3602211879589645 0.0007192910570683008 3.390175560820652e-09 0.1018849567204901 0.5087411963913703 0.491258803601159 5.566789433851692e-12 1.951514555253784e-18 1.903826168301571e-12 0.506889968076928 0.4931100319219257 2.264504280926539e-13 8.633363351763365e-19 9.198453210963342e-13 0.5 0.5 0 0 0 0.5 0.5 0 0 0 0.5 0.5 0 0 0 0.5 0.5 0 0 0 0.5 0.5 0 0 0 0.5 0.5 0 0 0 0.5 0.5 0 0 0 0.5 0.5 0 0 0 0.5 0.5 0 0 0 0.5099653319637623 0.4900346680249015 8.523764015534625e-12 1.514454402365614e-17 2.81238103148131e-12 0.5 0.5 0 0 0 0.5 0.5 0 0 0 0.5272841192598284 0.4727134066398699 1.867445813935524e-06 3.386319402847497e-13 6.066541490145504e-07 0.5 0.5 0 0 0 0.5 0.5 0 0 0 0.5 0.5 0 0 0 0.5 0.5 0 0 0 0.5072891844332271 0.4927108155641941 2.366000959107721e-12 1.451048237113046e-19 2.126728021837648e-13 0.5 0.5 0 0 0 0.5 0.5 0 0 0 0.5 0.5 0 0 0 0.5 0.5 0 0 0 0.5 0.5 0 0 0 0.5 0.5 0 0 0 0.5 0.5 0 0 0 0.5 0.5 0 0 0 0.4233653394248478 0.5549406580428597 0.00068142265486982 0.02050136382344038 0.000511216053982334 0.4806316324784869 0.5088720242769968 0.004007287263273085 0.002275050899810112 0.004214005081432849 0.4446153433774413 0.4413664215799147 0.1016523489387514 0.001144217829652778 0.01122166827423984 0.3556536553036631 0.2840049183656599 0.2446931747969865 0.0003195789641993314 0.1153286725694912 0.4803964114670907 0.4924667743435087 0.01290792535024101 0.009623486171636771 0.004605402667522929 0.4050595069174004 0.4141345767316284 0.110213338645966 0.06782153088731088 0.00277104681769419 0.4825300613636939 0.5040813738216148 0.005165162136752738 0.007421343151319256 0.000802059526619404 0.2994738784067862 0.22707619603972 0.2510542623058734 0.0006179554144701006 0.2217777078331504 0.5400994336602353 0.4455690536033667 0.009761989251034744 1.284391056833289e-07 0.004569395046257487 0.4765424313193495 0.3871475835482847 0.1149794147753603 0.0002417617391236358 0.02108880861788196 0.5110870593441986 0.4889122201148044 7.442176606827333e-08 6.134475865921062e-07 3.267164445183993e-08 0.3710826717955937 0.2553756297818285 0.1195571528349702 6.011795593164298e-05 0.2539244276316759 0.4900861846841131 0.5099138153158869 3.708992959249804e-19 2.190099551788216e-17 6.070755077520488e-25 0.4950406817109405 0.5049592933234152 2.434158792492574e-08 5.444711889847977e-10 7.958518930388519e-11 0.5 0.5 0 0 0 0.5 0.5 0 0 0 0.5 0.5 0 0 0 0.5 0.5 0 0 0 0.5022860851716181 0.497713914828382 4.885791326412368e-21 3.068200264258419e-27 6.908343727052773e-21 0.509352787133733 0.490647174760275 2.972683494692709e-08 4.673244346023509e-13 8.378689882642366e-09 0.5334063626229848 0.4608987013943016 0.005444941868124126 3.661314733084889e-07 0.0002496279831162807 0.5102537911680677 0.4331768799913188 0.05319505868463981 0.0002195596528649648 0.003154710503108937 0.5158841829093485 0.4841018071219872 1.346558552661238e-05 1.544520845057317e-09 5.42838616997212e-07 0.5467177899017429 0.4109040162905104 0.004410371169450097 0.000157347033095109 0.03781047560520149 0.4997510948401098 0.5002489045084226 5.943377115678104e-10 1.967665737484417e-12 5.51621942743928e-11 0.5179477989195543 0.3780607125474344 0.09065499878910932 3.10052072212856e-08 0.0133364587386947 0.5060718106344286 0.4939281218401736 6.361995338299761e-08 1.218259180017213e-11 3.893261621851881e-09 0.5121021806438044 0.4877993412304487 9.591639780920412e-05 2.000524490545886e-07 2.361675488491546e-06 0.4970029596808277 0.5029970403191723 1.497630249665598e-29 5.009399258820155e-23 6.05284124776363e-33 0.537394452998085 0.4625912368248731 9.929068647623009e-06 3.951930154530338e-14 4.381108354770973e-06 0.5 0.5 0 0 0 0.5 0.5 0 0 0 0.5 0.5 0 0 0 0.5 0.5 0 0 0 0.5 0.5 0 0 0 0.5 0.5 0 0 0 0.5012816064774864 0.4987183935225135 9.175523620179238e-24 1.501219014862956e-31 8.793887387991592e-25 0.4991931190511779 0.5008068809488202 1.971963877879547e-15 7.202507173726842e-18 8.581836982350537e-17 0.5011761539895834 0.4988238460104165 6.378934932502375e-24 7.444646837718678e-32 2.440504226591874e-25 0.5807341612635887 0.4190660900268133 1.713927914822996e-08 9.202406986024599e-15 0.0001997315703097506 0.5069712795860816 0.4930287204123422 1.086369317074175e-12 3.300271850666516e-20 4.896976176834289e-13 0.5063078604343362 0.4936921395624108 2.837689190479029e-12 3.442726420258822e-19 4.153814380301253e-13 0.5 0.5 0 0 0 0.5452885685260669 0.45452045794138 2.163997181428734e-05 1.372212138782166e-11 0.0001693335470165988 0.5016505949442018 0.4983494050557981 3.944012892314888e-23 1.110280361682513e-29 1.201729012542431e-23 0.5013012087705492 0.4986987912294509 2.077111076315929e-24 2.681026115781516e-30 2.105363585154591e-24 0.5 0.5 0 0 0 0.5 0.5 0 0 0 0.5 0.5 0 0 0 0.5 0.5 0 0 0 0.5 0.5 0 0 0 0.5 0.5 0 0 0 0.5 0.5 0 0 0 0.5 0.5 0 0 0 0.5 0.5 0 0 0 0.5018824376240208 0.4981175623759792 2.548649153425707e-23 4.442569344976462e-29 1.256227050915416e-25 0.5 0.5 0 0 0 0.5 0.5 0 0 0 0.5061199685913665 0.4938800314086326 2.538330888053185e-16 9.226708040004481e-21 4.143531778777153e-16 0.5 0.5 0 0 0 0.5 0.5 0 0 0 0.5 0.5 0 0 0 0.5 0.5 0 0 0 0.5013758760300742 0.4986241239699258 8.464248395978025e-24 1.170069416972127e-30 3.540480979561316e-24 0.5 0.5 0 0 0 0.5 0.5 0 0 0 0.5 0.5 0 0 0 0.5 0.5 0 0 0 0.5 0.5 0 0 0 0.5 0.5 0 0 0 0.5 0.5 0 0 0 0.5 0.5 0 0 0 0.4741329836024801 0.5238789025878963 9.033314533386824e-05 0.001872688219932583 2.509244435712679e-05 0.5000187333927787 0.4948504253180617 0.00475799867131042 0.000101835728996853 0.0002710068888522508 0.4870942811295501 0.3737735029376143 0.134299637801516 8.016897813862737e-06 0.004824561233505846 0.4723526993359339 0.324492059914301 0.1367931069982882 2.980106108106855e-05 0.06633233269039578 0.5265817104020628 0.4251207691435041 0.01125926489335952 0.0004838802795209968 0.03655437528155274 0.3459860629120703 0.2377550863479682 0.02452881574738579 2.456439145645804e-05 0.3917054706011193 0.5359890028686867 0.4578656114400719 0.004439368792633181 5.759294666135423e-05 0.001648423951946932 0.3158584677398684 0.2384338805085034 0.01845302936953944 9.875879441017891e-05 0.4271558635876786 0.5244125242566473 0.4755857570762507 1.556588254963105e-06 4.809729672537963e-11 1.620307496072233e-07 0.5187611809127294 0.4626044650127675 0.01665250431264195 1.09811181731371e-05 0.001970868643687971 0.5070893378325142 0.4929061402559887 6.614358621478294e-11 4.521240080049763e-06 6.052735031508054e-10 0.4506039011993853 0.3140304835632175 0.04987171156908513 8.701653554942707e-05 0.1854068871327626 0.4981275472159116 0.5018724527840883 2.471502232011176e-30 4.943528152089361e-28 1.168480330571707e-36 0.4878064627864233 0.5121935372129973 6.062588925670822e-14 5.185697079539271e-13 8.882674703411619e-17 0.5 0.5 0 0 0 0.5 0.5 0 0 0 0.5 0.5 0 0 0 0.5 0.5 0 0 0 0.5276284733399003 0.4723402809119088 2.711259414119254e-05 9.935457118643622e-14 4.133153950399738e-06 0.4925538990929915 0.5044711335491798 0.0028633043620188 4.45568972836336e-05 6.710609852622951e-05 0.435931839300933 0.3303623176523293 0.2238723448058467 2.296271166461518e-05 0.009810535529226254 0.3378791826567685 0.441608668253759 0.1144452871382105 0.09224020871197526 0.01382665323928667 0.4766369428526452 0.4079796180026058 0.08841005491066396 0.0009654840041157078 0.0260079002299691 0.5249845289172528 0.3728800412990239 0.09852177910321631 3.829869038825398e-05 0.003575351990118861 0.4198826797685884 0.5761590036886777 0.0002829515398143768 0.003667199847774871 8.165155144695026e-06 0.4248584447787249 0.3448158156021017 0.1522708270230872 0.0006213914991009824 0.07743352109698524 0.5065625199277413 0.4934374736493352 6.153387181354935e-09 6.626562070329848e-13 2.68873543669022e-10 0.4991116605332236 0.4553044918276337 0.0447728084768525 0.0002361203088297706 0.000574918853460531 0.4637375499279681 0.5362617638465285 9.858280376776913e-14 6.862254048524285e-07 7.59856988584542e-17 0.516595685731662 0.3200364428402478 2.065881625522053e-06 1.107569268630012e-12 0.1633658055453572 0.5 0.5 0 0 0 0.5 0.5 0 0 0 0.5 0.5 0 0 0 0.5 0.5 0 0 0 0.5 0.5 0 0 0 0.5 0.5 0 0 0 0.5156216261069715 0.484378287735363 8.413209395780525e-08 1.679859377708066e-15 2.025569831184229e-09 0.4902827594874213 0.5092344397365857 0.0004064257332263615 6.834377835910932e-05 8.031264407536096e-06 0.514329001181672 0.4856709360490939 5.911008424840909e-08 5.064127307755184e-16 3.659149286328441e-09 0.5591387064217492 0.4408428131477155 8.677308949788318e-09 1.037949597547279e-15 1.847175322539949e-05 0.5232718940704697 0.4767149260737613 1.246887282301969e-05 2.520545352576126e-13 7.109826940476068e-07 0.5364286524340978 0.4633988617575343 9.581478430464026e-05 1.390020800914341e-11 7.667101016309953e-05 0.5 0.5 0 0 0 0.5626301011319685 0.3862285288060254 0.0001184380517130283 2.086087579786216e-09 0.0510229299242053 0.5201272479433544 0.4798722777198067 4.099838992930794e-07 1.661961970191849e-14 6.435292304296668e-08 0.5158660353937876 0.4841336870730743 2.714973228646619e-07 6.24307913731421e-15 6.035808848782271e-09 0.5 0.5 0 0 0 0.5 0.5 0 0 0 0.5 0.5 0 0 0 0.5 0.5 0 0 0 0.5 0.5 0 0 0 0.5 0.5 0 0 0 0.5 0.5 0 0 0 0.5 0.5 0 0 0 0.5 0.5 0 0 0 0.5229261572312388 0.4770734796894217 2.111891529577785e-07 4.097407560890687e-13 1.518897768060089e-07 0.5 0.5 0 0 0 0.5 0.5 0 0 0 0.5375656875561662 0.4623410983916128 9.301477438358751e-05 3.444853269397133e-11 1.992433888718536e-07 0.5 0.5 0 0 0 0.5 0.5 0 0 0 0.5 0.5 0 0 0 0.5 0.5 0 0 0 0.5167990180402804 0.4832009321252733 2.656250964682709e-08 1.42318195399457e-14 2.327192261023702e-08 0.5 0.5 0 0 0 0.5 0.5 0 0 0 0.5 0.5 0 0 0 0.5 0.5 0 0 0 0.5 0.5 0 0 0 0.5 0.5 0 0 0 0.5 0.5 0 0 0 0.5 0.5 0 0 0 0.4179816577439836 0.5045066954287983 0.05760809198334901 0.01069052527988167 0.009213029563987537 0.4162279740216597 0.4916255518146807 0.03390496862831204 0.04450218356732553 0.01373932196802213 0.3484735940635447 0.3342469682779238 0.2654779232524219 0.00321719539298772 0.04858431901312195 0.3336253771097221 0.2278013179078952 0.4048502132971023 0.01296907839023241 0.02075401329504812 0.3743224379310253 0.496447659018074 0.003664708514686722 0.1160510527872921 0.009514141748921907 0.328267888087822 0.4499983673506502 0.1734780262437767 0.04269785211464638 0.005557866203104635 0.4932673757432552 0.4474531357781908 0.04356174035536801 0.003461395266452287 0.01225635285673375 0.2825766869333826 0.2198259569502242 0.3724007799661522 0.001965151190189135 0.123231424960052 0.495968673641226 0.385660912467075 0.08509478450820478 0.0002291112674969855 0.03304651811599727 0.4421824199610315 0.4039817388514572 0.1433675816049549 0.001679338420027157 0.008788921162529176 0.5072204155236556 0.4927329415845266 4.073634578184392e-07 4.614219724685257e-05 9.333111314333164e-08 0.3949932274122129 0.2870222462758668 0.01687070409001779 0.001984373062498877 0.2991294491594036 0.4771851121090016 0.522814887888405 2.160111825937228e-14 2.571750266561603e-12 2.301741095609558e-21 0.4682014533403411 0.531798217916147 7.479346291387795e-10 3.27990877265556e-07 4.699993114555124e-12 0.5 0.5 0 0 0 0.5 0.5 0 0 0 0.5 0.5 0 0 0 0.5 0.5 0 0 0 0.5091910280107925 0.4908089718435619 1.293648645532404e-10 1.502666951165827e-18 1.628069995062812e-11 0.4996008585864457 0.5003981843481028 6.250990580759841e-07 1.774250814567403e-08 3.142238853638573e-07 0.5327799702018389 0.4249612221448452 0.01504703486601493 3.99491558005012e-05 0.02717182363150047 0.4602501064696223 0.4757966388897221 0.05384993849485472 0.00529080941859984 0.00481250672720102 0.5066070818697636 0.4923482749048533 0.0007483666880780647 1.304937410854564e-05 0.0002832271631966743 0.5465712692793752 0.4072907216539289 0.00962388936648358 6.404156976151758e-05 0.03645007813045076 0.4791121057893515 0.5208828920973195 3.626127897246875e-06 1.312785457091348e-06 6.319997455502766e-08 0.5138204279801107 0.3915038247897218 0.09114874238001849 2.200031925295349e-05 0.003505004530896198 0.4993621702385118 0.5006378169998302 1.22494071679656e-08 4.269627871013942e-11 4.695544815157173e-10 0.5213478964053355 0.4774957978894895 0.001126286572956476 7.409046207104754e-09 3.001172317225125e-05 0.4879478316194021 0.5120521683797949 8.178297756082455e-21 8.02971964165327e-13 1.556250476349023e-23 0.5514485346861375 0.4485403216166537 3.224154779627053e-09 1.5307182267875e-14 1.114047303853734e-05 0.5 0.5 0 0 0 0.5 0.5 0 0 0 0.5 0.5 0 0 0 0.5 0.5 0 0 0 0.5 0.5 0 0 0 0.5 0.5 0 0 0 0.5051605475123281 0.4948394524876708 6.685616923413739e-16 1.485076294901073e-21 3.67386764017359e-16 0.4967862888117006 0.5032136619433948 3.439462603206638e-08 7.415373310919562e-09 7.434905444789861e-09 0.5047352038918564 0.4952647961081285 1.199252166503139e-14 5.458692577441571e-23 3.052438974012492e-15 0.593194398211339 0.4067446568329689 2.613873239798424e-13 6.381450966218301e-18 6.094495543065602e-05 0.5064497775954434 0.4935502224015722 2.872049720454408e-12 5.683394701277293e-20 1.124044756250084e-13 0.5228840942499843 0.4770955914476757 1.853975970491249e-05 3.703956793752305e-12 1.774538931302337e-06 0.5 0.5 0 0 0 0.5617119065970396 0.4339556089871222 0.0003110929036128198 2.470899228440559e-09 0.004021389041326259 0.5066476804892468 0.4933523195106627 3.665379960662051e-14 6.495759107113262e-20 5.379068591247642e-14 0.5052399574660622 0.4947600425338334 8.23413028468567e-14 1.438227947106692e-20 2.200118616196403e-14 0.5 0.5 0 0 0 0.5 0.5 0 0 0 0.5 0.5 0 0 0 0.5 0.5 0 0 0 0.5 0.5 0 0 0 0.5 0.5 0 0 0 0.5 0.5 0 0 0 0.5 0.5 0 0 0 0.5 0.5 0 0 0 0.5075795490543149 0.4924204509454072 2.548946937170578e-13 2.481430650370307e-19 2.295579584265267e-14 0.5 0.5 0 0 0 0.5 0.5 0 0 0 0.5103122381915066 0.4896877617783624 2.676475622125166e-11 2.689995030655991e-17 3.366099648506432e-12 0.5 0.5 0 0 0 0.5 0.5 0 0 0 0.5 0.5 0 0 0 0.5 0.5 0 0 0 0.5055427224995502 0.4944572775004071 3.201985298618674e-14 1.217103034163285e-21 1.079781090531686e-14 0.5 0.5 0 0 0 0.5 0.5 0 0 0 0.5 0.5 0 0 0 0.5 0.5 0 0 0 0.5 0.5 0 0 0 0.5 0.5 0 0 0 0.5 0.5 0 0 0 0.5 0.5 0 0 0 0.464152081427707 0.5143965179100681 0.003161397622636406 0.01658299868460624 0.001707004354982148 0.4888663075855482 0.4719477166936992 0.03402606171050085 0.003863786482885146 0.00129612752736668 0.4459436528681241 0.3805893562724116 0.146742327185213 0.001638503716737707 0.02508615995751349 0.5272420274670975 0.3260217739916524 0.0371146922092646 0.00335138176539578 0.1062701245665898 0.4753187389590515 0.4315936039721865 0.00791542140794344 0.01398907415827302 0.0711831615025454 0.3458538427571569 0.2595712607619569 0.047858006700717 0.007686769368370734 0.3390301204117984 0.5450996968849302 0.4305086229522688 0.01635936162503288 0.0007500999300657721 0.007282218607702236 0.2949973098000372 0.2268240586428151 0.04599575726798926 0.001156006154785252 0.4310268681343732 0.5376183417233785 0.4607769213561275 0.0003846586750248517 5.926457539008026e-07 0.001219485599715189 0.5252183482422088 0.4523474357788806 0.02217805631736021 2.947274016105369e-06 0.0002532123875343267 0.5249528267492701 0.4750467518434657 1.313239229599046e-10 4.194144274114215e-07 1.861512749745075e-09 0.4814748545772641 0.3647451534777852 0.08228951611628063 2.616502967067878e-06 0.07148785932570288 0.4924599677780502 0.5075400322219498 5.225530605047987e-21 2.734576296470531e-18 1.617351596769563e-26 0.4814473510467178 0.5185526407716615 7.663908182424649e-10 7.414182254118028e-09 1.047615450402534e-12 0.5 0.5 0 0 0 0.5 0.5 0 0 0 0.5 0.5 0 0 0 0.5 0.5 0 0 0 0.5060495736703214 0.4939504263289736 6.63566778497116e-13 4.29816752472095e-21 4.140459684727174e-14 0.5082666498692483 0.4917297598425699 3.387233333250167e-06 2.156759216298298e-09 2.008980893307723e-07 0.5303748354628921 0.4127805920289991 0.04740027831936579 2.095451605574173e-07 0.009444084643582571 0.4569368398251262 0.3986825165866029 0.1251041023757389 0.001312305420791777 0.01796423579174029 0.5139183261114344 0.4849841252189677 0.000824529940615852 4.363452529259741e-07 0.0002725823837290425 0.5020679178445471 0.356963334912592 0.0385065216025999 2.495673544146311e-05 0.1024372689048197 0.4852883595726482 0.5147114796967006 1.496834708540891e-07 6.302671956710041e-09 4.744508493692609e-09 0.3483372888278876 0.2412850946484801 0.3833899892165186 3.562845523965246e-05 0.02695199885187404 0.5161939243953124 0.4838016861914262 4.076549751477533e-06 3.505196745204663e-10 3.125129903100157e-07 0.5294536616287481 0.4632179969635037 0.007276366738755363 3.354070682223327e-06 4.862059831046417e-05 0.4920659075592477 0.5079340924407515 5.389255975896233e-23 7.184588824899893e-16 3.409868680494142e-26 0.5554165403713227 0.444417501662107 6.933866164948799e-06 4.153948172580308e-13 0.0001590240999899714 0.5 0.5 0 0 0 0.5 0.5 0 0 0 0.5 0.5 0 0 0 0.5 0.5 0 0 0 0.5 0.5 0 0 0 0.5 0.5 0 0 0 0.5033949928767703 0.4966050071232297 4.360626749671355e-17 1.568258714174796e-24 2.812138137271453e-18 0.4978760478608625 0.5021239517983153 1.634678881846993e-10 6.158175440585839e-11 1.157724817579856e-10 0.5031153843331981 0.4968846156668018 2.590452883035181e-17 3.127273492410443e-25 3.647805621570304e-18 0.5625310600250436 0.4374651390701442 4.619894190332681e-11 9.772231947251562e-18 3.800858613293721e-06 0.5110748009676612 0.4889251966806777 2.053812923523534e-09 3.424762356714738e-17 2.978481303039922e-10 0.5214039282306151 0.4785903153078996 4.580602414055033e-06 5.46239992745724e-13 1.175858524893947e-06 0.5 0.5 0 0 0 0.5230899476553008 0.3538421355012266 0.0001895122719526827 5.756571171614284e-09 0.1228783988149488 0.5043729698742913 0.4956270301257085 3.085405646297396e-16 2.194649578973626e-22 6.101706115213492e-17 0.503447089961233 0.4965529100387668 1.729648796733029e-16 3.525930672380669e-23 2.993510017667522e-17 0.5 0.5 0 0 0 0.5 0.5 0 0 0 0.5 0.5 0 0 0 0.5 0.5 0 0 0 0.5 0.5 0 0 0 0.5 0.5 0 0 0 0.5 0.5 0 0 0 0.5 0.5 0 0 0 0.5 0.5 0 0 0 0.5049865727331366 0.4950134272668629 2.403175464665135e-16 7.810609086872934e-22 1.542451809906412e-16 0.5 0.5 0 0 0 0.5 0.5 0 0 0 0.5236388323733495 0.4763609625706809 1.352299755292147e-07 1.067402414413039e-12 6.982492673463672e-08 0.5 0.5 0 0 0 0.5 0.5 0 0 0 0.5 0.5 0 0 0 0.5 0.5 0 0 0 0.503645640135842 0.496354359864158 8.570370576179359e-17 8.414528597346678e-24 5.705838211640272e-18 0.5 0.5 0 0 0 0.5 0.5 0 0 0 0.5 0.5 0 0 0 0.5 0.5 0 0 0 0.5 0.5 0 0 0 0.5 0.5 0 0 0 0.5 0.5 0 0 0 0.5 0.5 0 0 0 0.4391881823028688 0.5459374888984586 0.001304792198911697 0.01354856434039499 2.097225936594841e-05 0.487429613399731 0.4996582337444694 0.01035752132947027 0.0009639582889437089 0.001590673237385593 0.4430357190074741 0.3756200177640215 0.1763593000080227 0.000366613518090496 0.004618349702391003 0.3333111984049787 0.2465017792222249 0.2523451915676553 0.000305194849902179 0.1675366359552389 0.5130427626955473 0.4340597290261608 0.01093565887771335 0.003327895213538879 0.03863395418703989 0.3941870115332624 0.2836288155976208 0.09321412935288406 0.0007875399984711714 0.2281825035177616 0.5045636763067044 0.4858341600573262 0.00319229150769782 0.005401391095404883 0.00100848103286673 0.2854422314325089 0.1971651028399843 0.06333006523080315 0.0008443459845427226 0.453218254512161 0.5439683558010263 0.4542259153199036 0.001287903334660659 1.636227752288856e-07 0.0005176619216342265 0.5218242258911425 0.4187344182275377 0.04244385274274837 3.169722025114185e-05 0.01696580591832007 0.5114476181853509 0.4885168255143969 1.030556059930218e-07 3.508274047665402e-05 3.705041695696797e-07 0.3957209178650343 0.2460749785562133 0.2619025809561909 9.836428571130091e-05 0.09620315833685006 0.4950396465673146 0.5049603534326854 2.134600322293045e-23 1.099697535753791e-21 4.080073952474745e-30 0.4936207274407802 0.5063792719166924 5.941994680521741e-10 3.546606156838877e-11 1.286196708292275e-11 0.5 0.5 0 0 0 0.5 0.5 0 0 0 0.5 0.5 0 0 0 0.5 0.5 0 0 0 0.4827350005746763 0.5172649046660427 1.228666539686996e-10 9.463389327272078e-08 2.521144215676413e-12 0.482401898499969 0.5175981014908988 4.094372567549181e-17 9.132297135298992e-12 3.450649238898851e-21 0.407873425031902 0.5556622461073084 0.003400293257969741 0.03272789278756982 0.0003361428152499916 0.3302996156677847 0.6605440805014139 0.003841052092181676 0.001359997185687003 0.003955254552932606 0.426398998370713 0.5379444374554733 0.008458404993928107 0.02707802469149933 0.0001201344883862513 0.2419305829085703 0.3815308254564778 5.279012795574758e-05 0.3764654181989008 2.038330809515853e-05 0.4293870797925112 0.5704503542753553 0.0001547409441756518 7.225367106019762e-06 5.996208518949459e-07 0.2336105809459471 0.4506738007798234 1.446947521060188e-06 0.3157136892871397 4.820395687733636e-07 0.4950583793989652 0.5044462760261986 0.000452025262512859 2.564743709518384e-05 1.767187522812823e-05 0.5069013886937662 0.4913645705006273 0.001630685371665415 8.869731637447451e-05 1.465811756679976e-05 0.4860722704506207 0.5139276532232049 2.172711098189314e-08 5.442119681245917e-08 1.778665010313896e-10 0.488436382529239 0.5115632384656685 1.137674319770896e-07 2.642415902629252e-07 9.960701594880392e-10 0.5047116518035724 0.4952883456497167 1.63598999515677e-09 2.641732556859453e-10 6.465475507757676e-10 0.5 0.5 0 0 0 0.5 0.5 0 0 0 0.5 0.5 0 0 0 0.5 0.5 0 0 0 0.5 0.5 0 0 0 0.5 0.5 0 0 0 0.5 0.5 0 0 0 0.5062256603683111 0.4937743396310237 5.761637442125984e-13 2.969736047944691e-21 8.899253861508152e-14 0.4450136497729252 0.551527920013489 4.65467778516256e-05 0.003411047870991319 8.355647429893953e-07 0.5071839762710489 0.4928160237289126 3.115491747745774e-14 3.64923884703999e-19 7.212225382992416e-15 0.3754945733663985 0.6042355366234651 2.213606176756116e-06 0.02026741443981558 2.619641441769714e-07 0.5 0.5 0 0 0 0.4886786143535436 0.5113056649578944 4.032677197675428e-10 7.065492153355401e-07 1.50137360788899e-05 0.5 0.5 0 0 0 0.4808979614091674 0.5191019938714435 2.752534455163115e-12 4.471561465389763e-08 1.021738573500132e-12 0.5 0.5 0 0 0 0.5075013101476992 0.49249868985015 1.689789426184813e-12 1.821804307359029e-19 4.610676186651313e-13 0.5 0.5 0 0 0 0.5 0.5 0 0 0 0.5 0.5 0 0 0 0.5 0.5 0 0 0 0.5 0.5 0 0 0 0.5 0.5 0 0 0 0.5 0.5 0 0 0 0.5 0.5 0 0 0 0.5 0.5 0 0 0 0.4531904614148756 0.546809508507943 1.360194688512357e-13 2.766809450477176e-08 2.40895083625902e-09 0.5 0.5 0 0 0 0.4811743229468851 0.5188256763985141 4.315650383270849e-17 6.546006611518837e-10 4.593761218392284e-20 0.4756803384657292 0.5243196599267768 4.138843552637965e-15 1.607490007905089e-09 3.00753310487585e-19 0.4405863311727076 0.559084292246502 2.344100790873959e-07 0.0003291409461246021 1.224586793629122e-09 0.5 0.5 0 0 0 0.5 0.5 0 0 0 0.5 0.5 0 0 0 0.5 0.5 0 0 0 0.5 0.5 0 0 0 0.5 0.5 0 0 0 0.5 0.5 0 0 0 0.5 0.5 0 0 0 0.5 0.5 0 0 0 0.5 0.5 0 0 0 0.4976315827958379 0.5023519243406368 1.199366274563726e-05 3.838555936583743e-06 6.606448431702886e-07 0.4591776708255651 0.5327998415756172 0.005147863184638092 0.00251174292286203 0.0003628814913175327 0.3891500757567593 0.6009356235742276 0.003434812360606015 0.00627233539038038 0.0002071529180268194 0.4376434517251527 0.5535129320928727 0.007668662387667475 0.001077636654380076 9.731713992712393e-05 0.5141360604109831 0.4038077575613954 0.02755761562475765 0.0002657307333029624 0.05423283566956086 0.4284195817638343 0.5567113646239027 0.01330130816368947 0.001244453420631852 0.0003232920279416568 0.3460276257123125 0.6538763244863885 1.091205601109035e-06 9.493771184352532e-05 2.088385445845144e-08 0.4051848011846663 0.5387119142444242 0.009152748951862062 0.04569276174280829 0.001257773876239146 0.403005870302381 0.5521365727100621 0.0001009847649299763 0.04474944801653533 7.124206091611341e-06 0.3499679500625242 0.633647305859076 0.000938014020678783 0.01542381677577411 2.291328194686774e-05 0.4820188163990693 0.5179811652077783 4.565951564428799e-09 1.382079776930326e-08 6.402906468174124e-12 0.4230513585087368 0.5758205669677616 7.986217675829482e-06 0.001119753751969184 3.345538565234628e-07 0.4788399346582831 0.5211598457134983 7.862692915003688e-10 2.188398952818446e-07 2.054242890038765e-12 0.5538760913849029 0.4419943407297829 0.002727687231160758 3.930670563313457e-07 0.001401487587096977 0.5 0.5 0 0 0 0.4918628836092263 0.5081371162920181 6.217597770512002e-11 3.542654300771459e-11 1.153279842654653e-12 0.5 0.5 0 0 0 0.5 0.5 0 0 0 0.481267378086045 0.5187326152839461 1.753127481516573e-16 6.630008558691675e-09 3.161370012238655e-17 0.4840706533582841 0.5159293466236097 2.340641123675241e-17 1.810617094923986e-11 8.620515663197725e-22 0.4204474779263275 0.5694107713845926 0.001912085512409758 0.008138862302009189 9.080287466106179e-05 0.3769667206177775 0.4666609656861324 0.002605847110143271 0.007891977388915242 0.1458744891970317 0.4683038832756817 0.5208635337395475 0.002940070071932114 0.007874506669017328 1.800624382133836e-05 0.4677497764915176 0.5192636342523275 0.0007549666873722624 0.01155333988603805 0.0006782826827447273 0.4943283186731097 0.5045009974397235 0.0007611962113705262 0.0003873272168486473 2.216045894740494e-05 0.3992971503257159 0.5495639238851586 7.611461011713748e-06 0.05112624037301373 5.073955100008617e-06 0.5436199369379012 0.41359376024345 0.01503165361592175 3.154499642127417e-05 0.0277231042063056 0.472530065655439 0.5272755956223625 8.800635049342111e-05 9.781572793980324e-05 8.516643765224337e-06 0.4968526584656257 0.5031473415343742 5.904823485096768e-18 9.560980798445119e-18 1.379572603823142e-20 0.4796623658292513 0.520336622646094 5.544762111921189e-08 9.554247618011294e-07 6.522719249962171e-10 0.5008751456862123 0.4991248543137877 1.416234282014641e-19 2.144846286410323e-20 4.188743426035486e-20 0.5 0.5 0 0 0 0.5 0.5 0 0 0 0.5 0.5 0 0 0 0.5 0.5 0 0 0 0.5 0.5 0 0 0 0.5 0.5 0 0 0 0.5 0.5 0 0 0 0.5011761539892962 0.4988238460107039 4.4271371009137e-24 5.44396583667166e-32 4.805606978105142e-25 0.4708341668899581 0.5291590182808263 3.548908498935816e-06 2.57359575603938e-06 6.923249606748115e-07 0.5130988578182611 0.4869011420207914 1.47825891568334e-10 3.102777354404395e-15 1.311844246818825e-11 0.4379911806141759 0.5620074773685996 2.893664146013362e-11 1.341768803389117e-06 2.19484466991096e-10 0.5 0.5 0 0 0 0.4682489242654043 0.53174919115898 3.255477045177971e-12 1.88454913258251e-06 2.322757148482571e-11 0.5 0.5 0 0 0 0.4648408029112726 0.5351400589632325 4.736661626364278e-09 1.913337593628952e-05 1.289698021684018e-11 0.5 0.5 0 0 0 0.5066590229316299 0.4933409770682426 4.778873728935844e-14 8.356291706037375e-20 7.970898658013779e-14 0.5 0.5 0 0 0 0.5 0.5 0 0 0 0.5 0.5 0 0 0 0.5 0.5 0 0 0 0.5 0.5 0 0 0 0.5 0.5 0 0 0 0.5 0.5 0 0 0 0.5 0.5 0 0 0 0.5 0.5 0 0 0 0.4693224524984163 0.5306775383058948 2.580407309906425e-16 9.195607357068435e-09 8.124314935738229e-14 0.5 0.5 0 0 0 0.4798455272759748 0.5201544687380141 4.013930680471332e-17 3.986011007321645e-09 5.92420400217386e-20 0.494777726839459 0.5052222731605409 1.236465979804033e-24 9.39335892782747e-19 4.962885800625208e-29 0.4775712688774739 0.5224265897970333 8.592989557642741e-08 2.054495678769712e-06 8.999184247447403e-10 0.5 0.5 0 0 0 0.5 0.5 0 0 0 0.5 0.5 0 0 0 0.5 0.5 0 0 0 0.5 0.5 0 0 0 0.5 0.5 0 0 0 0.5 0.5 0 0 0 0.5 0.5 0 0 0 0.5 0.5 0 0 0 0.5 0.5 0 0 0 0.5014088782665 0.4983323198736586 0.0001743288086839963 4.468652112335317e-05 3.978653003415138e-05 0.5088442669865484 0.4809469459690239 0.009401016535529659 0.000492655067408548 0.0003151154414896924 0.5305414143587617 0.4564295321802613 0.005883320647680407 0.006591778895402012 0.0005539539178946436 0.4142050189203901 0.4915266915721916 0.0378429406966018 0.001306687029885669 0.05511866178093097 0.2838174532840399 0.2015242242387887 0.01800637305602234 9.381365490236772e-07 0.4966510112846 0.457849604880413 0.5288618716977732 0.008543554722931741 0.001653881252413319 0.003091087446468723 0.3801853401415909 0.6184898531513452 2.72012130481939e-05 0.0012975900300002 1.546401543637027e-08 0.4556421429945063 0.3225034015074139 0.151315057510101 0.0299477686294083 0.04059162935857034 0.4374568718847056 0.551489087962896 3.036137832001783e-05 0.01102253476727803 1.144006800328299e-06 0.3660263198694094 0.6314832347858353 0.0002535781393855535 0.002232201282724189 4.665922645480713e-06 0.496531880056458 0.5034679686719367 1.249768003233919e-07 2.201483413279847e-08 4.279970802621576e-09 0.4517057135626376 0.5478869339122618 0.0001859227285934988 0.0002213680050311659 6.179147603474265e-08 0.5122828876384572 0.4877171095490658 3.414032096730924e-10 3.488001133514397e-10 2.12227374491137e-09 0.5601576639338202 0.4348432296917296 0.001536169985417952 6.933351016943753e-07 0.003462243053930695 0.5 0.5 0 0 0 0.4985025051627768 0.5014974809887951 1.194336958198706e-08 5.853163882822853e-10 1.319742049133426e-09 0.5 0.5 0 0 0 0.5 0.5 0 0 0 0.4992580596682673 0.500741850741197 7.861309327287615e-08 1.402178814840527e-09 9.575263525742887e-09 0.4729499992506508 0.5270499919978364 3.317094890730157e-15 8.751509349548404e-09 2.192186313877107e-18 0.4298604933408866 0.4845835329323437 0.07318309557390569 0.00345587942695938 0.008916998725904535 0.3983610075427306 0.4268465717348723 0.0514526525503803 0.003001602993260902 0.1203381651787559 0.4900357244059445 0.4555366127856609 0.03319396403531066 0.002537922782853952 0.01869577599023008 0.4578225255207608 0.5362019538342268 0.003350178517340657 0.001738743776135208 0.0008865983515364901 0.48115548882884 0.5155859963527379 0.002654815732943623 0.0004514244573460655 0.0001522746281325144 0.3211717207471044 0.5305988957437116 2.950362380545314e-05 0.1481972639587739 2.615926604821004e-06 0.5264396946758509 0.4705274919752618 0.002747644703862755 8.955731753761056e-05 0.0001956113274867774 0.4937758525239193 0.5036872018095419 0.00232577403595085 9.46959190059593e-05 0.0001164757115821075 0.504143206527126 0.4958557783103952 6.699287817135279e-07 3.139014821410585e-07 3.13322149950447e-08 0.4986990086883154 0.5012910067196779 4.81054356350097e-06 3.471765493562485e-06 1.702282949520818e-06 0.5111402662837047 0.4888493788228077 4.414721205500568e-06 4.662071706344787e-06 1.278100575961415e-06 0.5 0.5 0 0 0 0.5 0.5 0 0 0 0.5 0.5 0 0 0 0.5 0.5 0 0 0 0.5 0.5 0 0 0 0.5 0.5 0 0 0 0.5 0.5 0 0 0 0.5143290005583638 0.485670936231178 6.076813712362785e-08 3.523509812244638e-16 2.442320524964777e-09 0.4999202972831934 0.5000556318093177 2.20661890695607e-05 2.023840846431407e-07 1.802334334688384e-06 0.5089153982084993 0.4910846017902023 8.261871407387404e-13 1.044367423351491e-17 4.722452944012609e-13 0.4789689988822596 0.5207476589703393 0.0001725737600246985 3.228493357694557e-06 0.0001075398940187145 0.5 0.5 0 0 0 0.4961548343855892 0.5038446127457468 2.178123812226811e-07 3.169771935040114e-09 3.318865108498802e-07 0.5 0.5 0 0 0 0.4846698897384468 0.515330109558412 4.691205078781533e-11 6.551400700809659e-10 1.089219951725272e-12 0.5 0.5 0 0 0 0.5107437026878398 0.4892562965743323 7.034993030436665e-10 7.753630314885279e-18 3.432847485736778e-11 0.5 0.5 0 0 0 0.5 0.5 0 0 0 0.5 0.5 0 0 0 0.5 0.5 0 0 0 0.5 0.5 0 0 0 0.5 0.5 0 0 0 0.5 0.5 0 0 0 0.5 0.5 0 0 0 0.5 0.5 0 0 0 0.4848068139198454 0.5151931860790087 4.735255179118975e-19 1.145862847771369e-12 4.357161133281452e-17 0.5 0.5 0 0 0 0.472086335756941 0.5279136473262007 1.206719671696122e-14 1.691684627511572e-08 1.703471180058424e-18 0.4972435938416808 0.5027564061583191 2.674767551696405e-29 2.496236650282134e-23 7.683244796980571e-33 0.4385433866640134 0.5589116109947866 5.449573745105423e-07 0.002544457011211175 3.726141718444821e-10 0.5 0.5 0 0 0 0.5 0.5 0 0 0 0.5 0.5 0 0 0 0.5 0.5 0 0 0 0.5 0.5 0 0 0 0.5 0.5 0 0 0 0.5 0.5 0 0 0 0.5 0.5 0 0 0 0.5 0.5 0 0 0 0.5 0.5 0 0 0 0.4967819576057318 0.5029784642661497 0.0002290782408031682 5.773655458376851e-06 4.726231856944984e-06 0.4848618410984205 0.433589352238816 0.07371184662817122 0.0005748569968030143 0.007262103037789323 0.4717715803617096 0.5126133744718954 0.008109810001857197 0.003062512615431501 0.004442722549106203 0.4008075996188281 0.4637501265041774 0.09133615005731283 0.000261953531243168 0.04384417028843844 0.4493126830989119 0.3446250455747383 0.1374238920977125 0.0009796849536381428 0.06765869427499908 0.4962029786464523 0.4639366739215514 0.01268942453394492 0.0001927584158530692 0.02697816448219837 0.4021180513804595 0.5974544141365905 0.0004101495210214219 1.726202431842687e-05 1.229376102337934e-07 0.4614991460696811 0.4695508253159156 0.05694035491344875 0.0100170123926021 0.001992661308352406 0.4886122958274133 0.5044858994253608 0.002636031151924623 0.003930366345002239 0.0003354072502988961 0.3805616072298976 0.5846574275715211 0.007865852417965946 0.02592023694498395 0.0009948758356314138 0.5040473978260475 0.4959525989987758 2.658825838396852e-09 2.699491732741806e-10 2.464015749329603e-10 0.4152327682710945 0.5778810302350178 3.317245900463249e-05 0.006852296033366543 7.33001516659538e-07 0.4806165723890708 0.51938339946089 9.878326763435952e-10 2.712169751576265e-08 4.050908728864237e-11 0.5538774826168323 0.4349911424161618 0.007456836409740672 3.065017346900274e-06 0.003671473539918441 0.5 0.5 0 0 0 0.4856708190136939 0.5143291778651118 1.193251064792196e-09 1.920775456470845e-09 7.167946091211368e-12 0.5 0.5 0 0 0 0.5 0.5 0 0 0 0.4838307905261158 0.5161691779803034 1.463881082290074e-12 3.149146874541215e-08 6.480908991851358e-13 0.4679872030350298 0.5320127417353232 8.626459000655022e-14 5.522956080982256e-08 9.784893355005204e-18 0.3595049621822693 0.5303515092016838 0.0005033380840492512 0.1096300022423215 1.018828967620879e-05 0.2959361740524974 0.6591706059335432 0.0007054479898000816 0.02181761480336425 0.02237015722079515 0.4242316307906147 0.5564976043905235 0.007421607065904075 0.01172240568684527 0.0001267520661123403 0.2963928562779313 0.4268935066786435 0.003021170656233556 0.2730470172768917 0.0006454491102999834 0.385877300900742 0.6108976825974273 0.0001100969301929907 0.003114658645393215 2.609262445912685e-07 0.2681455242622673 0.429033540288861 7.73915790984001e-07 0.3028172382776104 2.923255470342503e-06 0.5344596126386887 0.4273611816729923 0.02156541227193684 0.001338044150152054 0.01527574926623024 0.4459083670281717 0.5470130461990806 0.0002683435301835313 0.006794656425511551 1.558681705266468e-05 0.4851738533810576 0.5148254906842539 1.78272686891511e-07 4.756347512880509e-07 2.027250429520589e-09 0.5006927589217885 0.4993037850936826 3.375999421598567e-06 3.439763507520301e-08 4.558747209983815e-08 0.5035673760900476 0.496432623704119 1.371028016110773e-10 3.930387328799326e-12 6.480013270667773e-11 0.5 0.5 0 0 0 0.5 0.5 0 0 0 0.5 0.5 0 0 0 0.5 0.5 0 0 0 0.5 0.5 0 0 0 0.5 0.5 0 0 0 0.5 0.5 0 0 0 0.5047352038904647 0.4952647961095053 2.858724046912466e-14 6.898397800415347e-23 1.549536621093902e-15 0.4301131016958115 0.56381374573025 4.676246582354606e-07 0.006072671208753985 1.374052639359873e-08 0.5175611318699517 0.4824388620098605 2.725875440061366e-09 5.992537344011932e-14 3.394252357519251e-09 0.3534632759609356 0.5821748898108119 9.084762847778259e-07 0.06436089806335202 2.768861549599696e-08 0.5 0.5 0 0 0 0.4794358668359435 0.5205577757754102 8.117149083109324e-10 6.244313746388135e-06 1.122631849922128e-07 0.5 0.5 0 0 0 0.4912793640104879 0.5087206356058028 3.663169307593117e-11 3.454604010003234e-10 1.617043619549267e-12 0.5 0.5 0 0 0 0.5021083637171672 0.497891636282833 2.524818836714037e-20 2.614571701938186e-27 1.749509643544317e-21 0.5 0.5 0 0 0 0.5 0.5 0 0 0 0.5 0.5 0 0 0 0.5 0.5 0 0 0 0.5 0.5 0 0 0 0.5 0.5 0 0 0 0.5 0.5 0 0 0 0.5 0.5 0 0 0 0.5 0.5 0 0 0 0.4549928421010153 0.5450069655032862 7.000183184242336e-14 1.524743300505059e-08 1.771481953641386e-07 0.5 0.5 0 0 0 0.4637286316967689 0.5362690156694494 9.114768614860297e-14 2.352633690384305e-06 9.792459404300366e-17 0.4732787947667708 0.5267212005580767 4.716759094325413e-15 4.675147776201432e-09 3.964126966953063e-19 0.4413410751504111 0.5586565368065833 1.773775510062178e-07 2.20936559116297e-06 1.299863246763564e-09 0.5 0.5 0 0 0 0.5 0.5 0 0 0 0.5 0.5 0 0 0 0.5 0.5 0 0 0 0.5 0.5 0 0 0 0.5 0.5 0 0 0 0.5 0.5 0 0 0 0.5 0.5 0 0 0 0.5 0.5 0 0 0 0.5 0.5 0 0 0 0.4872716574756926 0.5126353834924802 7.31286368838804e-05 1.935724430924797e-05 4.731506339743392e-07 0.5103801986082168 0.4764360441886848 0.006573751844690954 0.001957041204903903 0.004652964153503426 0.3773252898498208 0.5064810907028073 0.0007086217191080826 0.1126063470292554 0.002878650699008339 0.4147892327690253 0.5500702759525895 0.01136302789754794 0.003748179927580443 0.02002928345325692 0.4223743858731237 0.3076816414031183 0.06017580815171093 0.001061894476856017 0.2087062700951909 0.4345480121035523 0.5316993563356676 0.03201905626644817 3.597888815837516e-05 0.001697596406173541 0.3639079352034141 0.635833667027196 1.769156169664471e-05 0.0002406998274237734 6.38026957757456e-09 0.4565175823965269 0.4338349843983803 0.04591704629262112 0.01483342099969055 0.04889696591278136 0.3735973063128759 0.5279840037119792 0.0001180649210858017 0.0982971297555516 3.495298507502044e-06 0.3011528626812199 0.5488457094947293 0.001595897165247959 0.148390641365285 1.488929351787779e-05 0.5100757198365287 0.4899211288035307 2.708363953468255e-06 2.851482510653122e-07 1.578477360456138e-07 0.4311270168884884 0.5569676626220879 0.0003424358310376842 0.01154499493797981 1.788972040631473e-05 0.5218706224300179 0.4781293057882163 6.511409933081701e-08 4.307859377769224e-10 6.236880407673954e-09 0.5428834953941076 0.4029069737736406 0.03680804383335507 4.691814961035805e-06 0.01739679518393583 0.5 0.5 0 0 0 0.4894267397600056 0.5105731368608676 4.836265840029326e-08 2.464257112216499e-08 5.037389717277778e-08 0.5 0.5 0 0 0 0.5 0.5 0 0 0 0.4807444716679359 0.5192555042466456 2.285509014273079e-13 2.408517924028309e-08 1.070798662215265e-14 0.4721630637881063 0.5278369264274521 2.814134498119202e-14 9.78441360515218e-09 1.954369566659615e-18 0.3996861616238934 0.5589796067802411 0.01314091056746608 0.02741821753652589 0.0007751034918736564 0.2979268502322421 0.4231864769643358 0.005878889171183277 0.03152598614646489 0.2414817974857741 0.4491622231188116 0.5359901717298392 0.008085409010041632 0.006710629148572568 5.156699273488749e-05 0.4692985879559985 0.5203264910619184 0.0001269826811341998 0.00656671898575764 0.003681219315191118 0.4486882280440785 0.5478078940293895 0.0006023798173399946 0.002873809630516343 2.768847867566463e-05 0.3598261203726547 0.5744698353428271 2.443827048393766e-05 0.06567273480263286 6.871211401330971e-06 0.5315142472145645 0.4628614749817609 0.003616852183827262 0.0003018437355338914 0.001705581884313301 0.4887718511605145 0.5093959107020969 0.001745076820902613 3.988079250044926e-05 4.72805239854929e-05 0.5033550661476922 0.4966435205297109 1.137463960232568e-06 1.798966398353929e-07 9.596199681459386e-08 0.4738721794735708 0.5261239768244215 4.478247665779124e-09 3.838642756319363e-06 5.810037989406474e-10 0.5023331067726455 0.4976668932265184 7.731750707644856e-13 7.756616205306973e-15 5.506538631382014e-14 0.5 0.5 0 0 0 0.5 0.5 0 0 0 0.5 0.5 0 0 0 0.5 0.5 0 0 0 0.5 0.5 0 0 0 0.5 0.5 0 0 0 0.5 0.5 0 0 0 0.5031153843323608 0.4968846156676393 3.737101343876048e-17 4.579503470586106e-25 1.588366447790675e-18 0.5126535271481748 0.4846265737159526 0.002431638266603832 8.29982297976716e-06 0.0002799610462889751 0.5106420660895084 0.4893579338849123 1.679070943394501e-11 2.353652525069655e-16 8.788397900420961e-12 0.4634617957769973 0.5365381836963898 1.535258175285005e-09 5.511889168262735e-09 1.347946557716287e-08 0.5 0.5 0 0 0 0.4774583570123672 0.5225415510041402 1.548999784251654e-11 9.194728834488558e-08 2.071402632804581e-11 0.5 0.5 0 0 0 0.4862935249886847 0.5137021196571304 8.940477042348702e-07 3.4426863438489e-06 1.862013685807067e-08 0.5 0.5 0 0 0 0.5091997616178149 0.4908002383569948 1.451686231993619e-11 1.32201749494658e-17 1.06735321307563e-11 0.5 0.5 0 0 0 0.5 0.5 0 0 0 0.5 0.5 0 0 0 0.5 0.5 0 0 0 0.5 0.5 0 0 0 0.5 0.5 0 0 0 0.5 0.5 0 0 0 0.5 0.5 0 0 0 0.5 0.5 0 0 0 0.4775104329594104 0.5224895668983209 1.33863347505529e-16 1.422680455760763e-10 4.279443800903637e-16 0.5 0.5 0 0 0 0.4705910479743057 0.5294088743963452 4.554470314203706e-14 7.762930345871965e-08 1.290618211619665e-17 0.4966150095935049 0.5033849904064953 1.75123503004973e-27 5.201752341346013e-22 2.211131786656788e-31 0.486350114957631 0.5136488668118009 1.015352276874317e-07 8.817935930963729e-07 3.49017473033648e-08 0.5 0.5 0 0 0 0.5 0.5 0 0 0 0.5 0.5 0 0 0 0.5 0.5 0 0 0 0.5 0.5 0 0 0 0.5 0.5 0 0 0 0.5 0.5 0 0 0 0.5 0.5 0 0 0 0.5 0.5 0 0 0 0.5 0.5 0 0 0 0.4879920704298336 0.511938959987864 6.065784777584017e-05 1.101768111567099e-06 7.209966415066467e-06 0.4684175831672275 0.5083058216144438 0.01645114489435026 0.00606455047880382 0.0007608998451744316 0.4275630359537436 0.5156541567863397 0.007926122741499203 0.04521962073711856 0.00363706378129906 0.4405340533928007 0.5536053617229535 0.003226623296621327 0.001413619708670702 0.001220341878953912 0.389397292700614 0.276592147335302 0.03688615229203657 0.0001789548859473951 0.2969454527860999 0.4043666324335325 0.5748517491565159 0.01150585529166831 0.00815774130933794 0.001118021808945365 0.3522778353210359 0.6464740239336682 1.629111782173254e-05 0.001231846498116828 3.129357296359655e-09 0.4792622362851812 0.4282597985563564 0.0381229496576346 0.04318188638431035 0.01117312911651744 0.4385842742396153 0.5588538420869593 3.621559237871553e-06 0.002557494441305951 7.676728815123608e-07 0.3111830752515582 0.5598047753024624 0.001324590015544335 0.1276638418661462 2.371756428892239e-05 0.4996152759893855 0.500384668608883 4.914070243481742e-08 6.092617845737992e-09 1.684112786043251e-10 0.4348043844140062 0.5613637167631036 0.0001667633745422894 0.003660890477159366 4.244971188651886e-06 0.4920018905727167 0.5079978414220307 7.160801422936975e-10 2.668705788324248e-07 4.185935284808726e-10 0.5508286762082846 0.4412199685996606 0.005864625450006485 4.666207131036139e-07 0.002086263121335254 0.5 0.5 0 0 0 0.4865687130840952 0.5134312713132527 1.139994412219443e-09 1.437268226399617e-08 8.997555375701462e-11 0.5 0.5 0 0 0 0.5 0.5 0 0 0 0.4935372107288954 0.5064627251206113 5.965978272040345e-08 2.024257013310745e-09 2.4664535958582e-09 0.5259314422408617 0.4740452354813621 1.979158042188373e-05 1.43590910869366e-12 3.530695918425661e-06 0.2295644763817722 0.3260999404809115 0.0001768318005770672 0.4441528748934975 5.876443241987422e-06 0.3730214719140175 0.5515726332858757 0.003013705844280342 0.07237439144951857 1.779750630780569e-05 0.4487816639750481 0.5507441570071416 0.0001175354832982055 0.0003166097082358962 4.003382627608126e-05 0.4827071103037336 0.416603670292123 0.0944579548271354 0.0006327264946026141 0.005598538082405362 0.460859786094478 0.5391336377309774 4.377947260142557e-14 6.576174500738543e-06 1.78910882821762e-16 0.4494805850748267 0.5001687812155919 0.01184796920018394 0.03615258592932746 0.002350078580069919 0.4078844124621859 0.5723435086292419 2.923320336306807e-10 0.01977207861585944 3.807679637477428e-13 0.4034677785302558 0.5320677094752251 2.126873965728234e-05 0.06444008810806659 3.155146795283744e-06 0.454585968660122 0.5454080203066911 9.115992218181848e-13 6.011032275102208e-06 1.147750412828315e-16 0.4166860403243545 0.5813155164417025 0.0001015078063137309 0.001896262456179612 6.72971449637542e-07 0.4885179659425179 0.5114820340574791 8.024384586404083e-19 3.107744177858662e-15 4.627406201110089e-24 0.4643988144067863 0.5356010982292484 4.190832399719424e-14 8.736392335298311e-08 7.003783144290302e-18 0.5 0.5 0 0 0 0.4802676433496531 0.5197323566355477 2.512292267687523e-16 1.479891957984236e-11 3.695170836128592e-21 0.5 0.5 0 0 0 0.5 0.5 0 0 0 0.5 0.5 0 0 0 0.5 0.5 0 0 0 0.5 0.5 0 0 0 0.4914646630250428 0.5077268889157077 0.0005609145704292033 0.000119386932226771 0.0001281465565936031 0.5060596891914609 0.4939403108067398 1.620168960672736e-12 8.790166773288494e-21 1.790120004548983e-13 0.5015575173738702 0.4984424826087038 1.483910121259977e-11 4.085225715077069e-15 2.58283524182239e-12 0.5218896645826391 0.4781089929301629 6.164760180508093e-07 3.923512792055457e-11 7.259719447891577e-07 0.477791377565811 0.5222071355925733 2.216038801396599e-10 1.486610083760501e-06 9.928218186533797e-12 0.5 0.5 0 0 0 0.5 0.5 0 0 0 0.5 0.5 0 0 0 0.5 0.5 0 0 0 0.5 0.5 0 0 0 0.5 0.5 0 0 0 0.5 0.5 0 0 0 0.5 0.5 0 0 0 0.5 0.5 0 0 0 0.5 0.5 0 0 0 0.4860406277893387 0.5139593722106387 5.867219315409895e-18 2.269396461475903e-14 3.257258515091196e-23 0.5 0.5 0 0 0 0.5181952128209676 0.4818045788668051 1.840695863625971e-07 3.346404980275545e-15 2.424263770721989e-08 0.5 0.5 0 0 0 0.5 0.5 0 0 0 0.5 0.5 0 0 0 0.506808084218383 0.4931919157808009 7.424552764569963e-13 2.029884251955109e-19 7.37265999136175e-14 0.5 0.5 0 0 0 0.5 0.5 0 0 0 0.5 0.5 0 0 0 0.5 0.5 0 0 0 0.4881928350103042 0.5118071649896936 2.645780674705935e-18 2.161448617565809e-15 7.228541128307915e-24 0.5 0.5 0 0 0 0.5 0.5 0 0 0 0.5 0.5 0 0 0 0.5 0.5 0 0 0 0.5 0.5 0 0 0 0.5 0.5 0 0 0 0.5061027108887838 0.4938972891096562 1.42287862218614e-12 1.77559554315298e-19 1.370708173866613e-13 0.4457755289976018 0.5523121146642267 0.0002461915233163916 0.001642192124503893 2.397269035128946e-05 0.3257944400617037 0.5199051914859548 0.004019605217735474 0.1502367424517023 4.402078290372778e-05 0.4400434188885522 0.4850920483158761 0.02736506059429451 0.02253965986488451 0.02495981233639268 0.4763275120120128 0.5053815013891317 0.01611529995895464 0.001630010571444806 0.0005456760684558439 0.400857145807221 0.4662779141486933 0.0609223629586686 0.05985420791155187 0.01208836917386512 0.351954702350921 0.5583589655565799 2.269284385933119e-06 0.08968406244297 3.651431513579284e-10 0.4192105893344368 0.4575547479133608 0.02173833738176037 0.05096645212797134 0.05052987324247091 0.4341085774440542 0.5655831260875086 1.254605358380183e-07 0.0003081669507611797 4.05714018273846e-09 0.3721613948151274 0.5856548987535477 0.004226661688193173 0.03772677653208054 0.0002302682110513155 0.4903172855047487 0.5096826774701828 1.83272056183349e-08 1.84283000750657e-08 2.695626936633193e-10 0.4382118415345806 0.5593417693360598 0.001676438961324433 0.000650746970260294 0.0001192031977747344 0.4485933071772059 0.5514066146658947 1.416344212496023e-11 7.814273572701397e-08 1.857066338228756e-16 0.4053028522460226 0.594197377713383 3.00477470311777e-09 0.0004997670355843522 2.352938256597375e-13 0.5 0.5 0 0 0 0.4787669981866131 0.5212330017844469 4.089997591344795e-15 2.893587998891279e-11 3.318796389394295e-20 0.5 0.5 0 0 0 0.5 0.5 0 0 0 0.5052168981988026 0.4947830968236029 4.56166662772975e-09 2.35265910450854e-13 4.156925269118485e-10 0.5119166937430999 0.4880832989145497 7.19697325595442e-09 5.939952391697796e-16 1.453766466964891e-10 0.425184918027221 0.5267878118013987 0.0001018845088164038 0.04791597942767222 9.406234891696554e-06 0.3606186682262562 0.5002466582250366 0.0002936585911434416 0.1387952987544043 4.571620315968317e-05 0.4691975729027061 0.5307997270381141 8.712800861605923e-07 1.550470701530374e-06 2.783083920761637e-07 0.4999661631286529 0.4206574453999989 0.07778159418594825 7.930469454138161e-05 0.001515492590858305 0.4657576988512639 0.5342418354948811 6.499660837468128e-15 4.656538483350293e-07 4.517878794414954e-17 0.4908037207492712 0.489576310397376 0.008155729451036141 0.007817123742296272 0.003647115660020244 0.4338302100308012 0.5654112998077585 5.709698138012833e-11 0.0007584901043135187 2.973128587311279e-14 0.474860930831011 0.5228240313415305 0.0004731408207338942 0.001801277597328079 4.061940939645125e-05 0.4810684545927221 0.5189315453040273 5.903725006560982e-17 1.032503477516295e-10 1.028261839758692e-20 0.4618719667468577 0.5378274565274104 0.0002657235560089932 3.105141067215654e-05 3.80175905086587e-06 0.4978298870836992 0.5021701129163009 5.986991342506322e-30 5.174535569476705e-26 5.286118759599416e-36 0.4798135035265804 0.5201864963516459 8.8497215327477e-18 1.217738276310039e-10 2.067599268678107e-21 0.5 0.5 0 0 0 0.4780682136038574 0.5219317862617181 7.427627306516993e-17 1.344244662492086e-10 2.157003987802957e-20 0.5 0.5 0 0 0 0.5 0.5 0 0 0 0.5 0.5 0 0 0 0.5 0.5 0 0 0 0.5 0.5 0 0 0 0.5176054478279632 0.4808110776171205 0.001212606074558696 1.394213914236931e-05 0.0003569263412149263 0.5011447142826648 0.4988552857173352 1.261251226919002e-23 2.766151725367636e-31 7.643768814018401e-25 0.4810812942777339 0.5189186913161414 4.418252151659472e-11 1.436162088113947e-08 3.21265429091329e-13 0.5118543697779689 0.4881456293716827 2.005653531796063e-10 2.274014752443426e-17 6.497830903578183e-10 0.4853897919710078 0.5146100128035707 1.186218373989135e-09 1.929556517048708e-07 1.083551629719115e-09 0.5 0.5 0 0 0 0.5 0.5 0 0 0 0.5 0.5 0 0 0 0.5 0.5 0 0 0 0.5 0.5 0 0 0 0.5 0.5 0 0 0 0.5 0.5 0 0 0 0.5 0.5 0 0 0 0.5 0.5 0 0 0 0.5 0.5 0 0 0 0.4881031735262303 0.5118968264737649 4.807271478627894e-19 4.8601930597001e-15 4.186515114937961e-24 0.5 0.5 0 0 0 0.5122046950537485 0.487795303392539 1.15030914436896e-09 1.513402950534618e-16 4.034032262115272e-10 0.5 0.5 0 0 0 0.5 0.5 0 0 0 0.5 0.5 0 0 0 0.5012857484749145 0.4987142515250856 1.930406314428196e-23 8.962458603949401e-32 2.278270629780192e-24 0.5 0.5 0 0 0 0.5 0.5 0 0 0 0.5 0.5 0 0 0 0.5 0.5 0 0 0 0.4899397318043192 0.5100602681956807 1.66153762169413e-19 8.309754238060317e-17 7.911819262991543e-25 0.5 0.5 0 0 0 0.5 0.5 0 0 0 0.5 0.5 0 0 0 0.5 0.5 0 0 0 0.5 0.5 0 0 0 0.5 0.5 0 0 0 0.501151318815943 0.4988486811840572 7.301090968031436e-24 8.242672871276432e-31 2.926280984373845e-24 0.4921837434305779 0.5077945958781979 1.933225646169684e-05 4.278736874511396e-07 1.900561075073807e-06 0.3480232988427132 0.5758062849248685 0.0002709271002884151 0.07589787550420307 1.61362792696e-06 0.4584658927741558 0.4382689508851063 0.0592467764305783 0.003523931707425839 0.04049444820273394 0.4729091380801499 0.5249977655950675 0.0006527037688133793 0.001368840267968364 7.155228800090316e-05 0.423226578006574 0.4448595888655566 0.1238682888329256 0.004351034517100843 0.003694509777842833 0.3955780116988689 0.5924162160866959 6.681608111461946e-08 0.0120057046948786 7.034755956862097e-10 0.389478129101534 0.4001627654328386 0.1197257541922302 0.08572738800358148 0.004905963269815827 0.4553890557705955 0.5444752260353097 5.869599716810608e-08 0.0001356582227130008 1.2753845357904e-09 0.4274370627071505 0.5562889307097266 0.002999651895570846 0.01316313831825319 0.0001112163692987445 0.5129163428355797 0.4870836526286358 4.130098543795205e-09 1.288224119497979e-12 4.043975517437855e-10 0.4833630147097375 0.5133660091883933 0.0003021906546480029 0.002782426604507423 0.0001863588427137248 0.4686572631083652 0.5313427357822477 3.415048203359228e-14 1.109352916363719e-09 4.168406645884177e-19 0.4550439159964849 0.5449555707697068 3.049135578409323e-12 5.132307589067118e-07 2.606882582913057e-16 0.5 0.5 0 0 0 0.4883105996092229 0.511689400390703 1.487668460353622e-18 7.421782890074695e-14 3.88267238868613e-23 0.5 0.5 0 0 0 0.5 0.5 0 0 0 0.4988401104065826 0.5011598893187345 2.440241921396455e-10 2.261435703165053e-12 2.839723314667957e-11 0.5287882913778668 0.4711064234116479 8.881934307266228e-05 1.529103766841297e-11 1.646585212172105e-05 0.2412967230201953 0.6085896735083844 0.0006864518295950648 0.1493836633919933 4.34882498318175e-05 0.2935304921940504 0.5627357489162874 1.287589856813974e-05 0.1437194458515448 1.437139549336724e-06 0.407081277473424 0.5887568226881461 0.0001381003561200611 0.004006163846205526 1.763563610434057e-05 0.4760676763589185 0.4935206033389699 0.02665928585408203 0.001035525547548346 0.002716908900481274 0.4570516880757 0.542927851519346 8.956425454367526e-14 2.046040486361533e-05 9.092622008496285e-16 0.2221861510470569 0.3001048672497155 0.000160016191334995 0.4775456842332085 3.281278684214208e-06 0.326979861250523 0.4623961234740631 4.689035142606196e-10 0.2106240148039273 2.582947529293661e-12 0.3014585408334303 0.4860658207577137 1.034806236841426e-05 0.2124649644790102 3.258674772400134e-07 0.4090465525402125 0.5855613898740474 8.607307813923448e-10 0.005392056724257461 7.520018198958631e-13 0.4116272365400405 0.5690713283323058 0.0002092061066431471 0.01906604761540765 2.618140560285901e-05 0.4736161867734456 0.5263838129339379 2.308303440260201e-14 2.925934599645804e-10 3.25514627567565e-19 0.4519341512813918 0.5480639996654111 1.298432741264738e-12 1.849051898506379e-06 3.381149835725111e-16 0.5 0.5 0 0 0 0.4996579905481811 0.5003420094518188 1.064102304641096e-44 8.309270192841568e-39 1.606544253038587e-48 0.5 0.5 0 0 0 0.5 0.5 0 0 0 0.5 0.5 0 0 0 0.5 0.5 0 0 0 0.5 0.5 0 0 0 0.4394313534182839 0.5484848744217621 0.0001309803559746635 0.01194089140208425 1.190040189520987e-05 0.5139505580102148 0.4860493591432045 7.102332719321676e-08 1.486258082533696e-15 1.182325197409454e-08 0.4783249243613267 0.5216750686145881 2.225366989559908e-11 7.001481370768571e-09 3.502232608494839e-13 0.5008906202704285 0.4991093797295715 6.70638380202536e-28 3.078073592607921e-32 1.389451462039819e-27 0.48581940054661 0.5141805911194974 7.015073163922614e-14 8.333723624491547e-09 9.870946004510031e-14 0.5 0.5 0 0 0 0.5 0.5 0 0 0 0.5 0.5 0 0 0 0.5 0.5 0 0 0 0.5 0.5 0 0 0 0.5 0.5 0 0 0 0.5 0.5 0 0 0 0.5 0.5 0 0 0 0.5 0.5 0 0 0 0.5 0.5 0 0 0 0.4911973398088464 0.5088026601911535 8.034386783738305e-21 9.688898439237781e-17 4.247673621410556e-26 0.5 0.5 0 0 0 0.520257214218263 0.4797424334651447 2.672948651246245e-07 1.921994656949307e-13 8.502153508218484e-08 0.5 0.5 0 0 0 0.5 0.5 0 0 0 0.5 0.5 0 0 0 0.5156776852279366 0.4843221646573104 1.379419420360239e-07 1.198884113604261e-15 1.217280988923023e-08 0.5 0.5 0 0 0 0.5 0.5 0 0 0 0.5 0.5 0 0 0 0.5 0.5 0 0 0 0.4925586717174611 0.507441328282539 3.57207568874655e-21 2.955735580464538e-18 1.262198614266907e-26 0.5 0.5 0 0 0 0.5 0.5 0 0 0 0.5 0.5 0 0 0 0.5 0.5 0 0 0 0.5 0.5 0 0 0 0.5 0.5 0 0 0 0.5140816564728065 0.4859182621849911 7.212443410588926e-08 4.795840662157435e-15 9.217763516311458e-09 0.3684232774219422 0.6208911507311673 0.0004216188200055126 0.01023744879204481 2.650423484002734e-05 0.2202866889100098 0.3963124729876369 0.001138436246203125 0.3821707994048383 9.160245131173253e-05 0.3943114817745613 0.5239123947236083 0.02292949133085322 0.05559795773124544 0.00324867443973178 0.4720688149453301 0.5201715952023597 0.007227260450394387 0.000182726996741657 0.0003496024051741097 0.3733205709026216 0.5236660318332598 0.04332792605296479 0.05615213248260154 0.003533338728552326 0.3600240077362082 0.5284261976712274 3.718848515809443e-06 0.1115455132851658 5.624588827589219e-07 0.3624111302814642 0.5640106455857377 0.02310980857938133 0.0489601894078014 0.00150822614561533 0.3976497599230979 0.5994392330994424 1.236984554084297e-07 0.002910883006040814 2.72963444606418e-10 0.2404611417900608 0.4074903551229368 0.001765850727580221 0.3502112913572074 7.136100221484866e-05 0.4420765265517777 0.557915547872036 4.209069105632907e-11 7.925534088257023e-06 7.388613720721638e-15 0.2324165870532302 0.3768191960463024 3.536305455551973e-05 0.3907278766753111 9.771706006973288e-07 0.4355644599555092 0.5644352176771363 2.068796963744519e-10 3.221604744963786e-07 4.355654501427662e-16 0.3453013003467236 0.6446453273262872 6.08763304321401e-08 0.01005331144909885 1.55997978604243e-12 0.5 0.5 0 0 0 0.4704478554841717 0.5295521439844816 2.10401516031008e-13 5.311363991089966e-10 1.379159290584093e-18 0.5 0.5 0 0 0 0.5 0.5 0 0 0 0.5127854223459354 0.4872145685160231 8.024184672316542e-09 3.194926276810742e-16 1.1138564523995e-09 0.5100747134078371 0.4899252842935997 2.148650777302649e-09 2.081495331271338e-16 1.499122128122092e-10 0.3556187775678968 0.4958408060050539 7.804683926894807e-06 0.148532269155868 3.425872545709177e-07 0.4695787596290991 0.5289042305664353 0.0008125651254280101 0.0003875309686271223 0.0003169137104106463 0.4504526092386613 0.5494171054918524 7.469817513415243e-05 5.378315252054051e-05 1.803941831541555e-06 0.5448114922403072 0.4395009390278152 0.01313632376162053 1.457607008659813e-07 0.00255109920955614 0.4789189242169576 0.5210810739023435 4.467726650794677e-17 1.880698627715637e-09 1.070413725202639e-19 0.4820941457733264 0.5109541348120771 0.003420617566562976 0.002622006997776247 0.0009090948502573092 0.4502731492041824 0.5496731328162289 3.17048892489693e-12 5.371797641766945e-05 6.6074642588064e-16 0.4434087348603064 0.5519126510881677 1.689496523268694e-05 0.004661348368062584 3.707182306654684e-07 0.4721942715497875 0.5278056790311514 6.331998888430546e-15 4.941905490525787e-08 2.483496535136268e-18 0.4331887376275507 0.5654315221535979 2.35423705330307e-06 0.001377313859950739 7.212184717856265e-08 0.4912653325356955 0.5087346674643044 1.160552048018209e-20 8.000771772205258e-17 1.001789791256114e-25 0.4702264252559353 0.5297735521265116 3.552739983500041e-15 2.261754942244947e-08 8.952121191849059e-20 0.5 0.5 0 0 0 0.4896152144848129 0.51038478551518 7.893345397510619e-21 7.286185259017925e-15 1.900119917343854e-24 0.5 0.5 0 0 0 0.5 0.5 0 0 0 0.5 0.5 0 0 0 0.5 0.5 0 0 0 0.5 0.5 0 0 0 0.5041819573958622 0.4957115822469348 6.321442240491433e-05 1.599701800400411e-06 4.164623299760214e-05 0.5046088416622668 0.4953911583377127 1.873224036883944e-14 1.168014455109773e-21 1.675900527821454e-15 0.4839558247617136 0.516044167214698 1.429922320949541e-10 7.878624946304176e-09 1.971140147575297e-12 0.5172836253045433 0.4827162727881739 2.731665129478474e-08 9.161110961382221e-13 7.45897154469135e-08 0.4778747838821564 0.5221247067120692 6.95609080987964e-13 5.094046363026002e-07 4.424911483032228e-13 0.5 0.5 0 0 0 0.5 0.5 0 0 0 0.5 0.5 0 0 0 0.5 0.5 0 0 0 0.5 0.5 0 0 0 0.5 0.5 0 0 0 0.5 0.5 0 0 0 0.5 0.5 0 0 0 0.5 0.5 0 0 0 0.5 0.5 0 0 0 0.4875696147806751 0.5124303852193116 5.082914492411119e-19 1.319032481087191e-14 1.969861980728515e-23 0.5 0.5 0 0 0 0.5116211675610062 0.488378831204681 1.142249027274839e-09 4.512124405214645e-17 9.206375186531782e-11 0.5 0.5 0 0 0 0.5 0.5 0 0 0 0.5 0.5 0 0 0 0.5051776836782282 0.4948223163217521 1.831280441402376e-14 6.186907475511694e-21 1.344253986044608e-15 0.5 0.5 0 0 0 0.5 0.5 0 0 0 0.5 0.5 0 0 0 0.5 0.5 0 0 0 0.4894878572018011 0.5105121427981982 2.432716445048757e-19 5.978500957868127e-16 2.633931278882995e-24 0.5 0.5 0 0 0 0.5 0.5 0 0 0 0.5 0.5 0 0 0 0.5 0.5 0 0 0 0.5 0.5 0 0 0 0.5 0.5 0 0 0 0.504639735660259 0.4953602643397119 1.919541306030197e-14 1.871698072557807e-21 9.75612004785894e-15 0.4748900379713742 0.5245370126567066 0.0005322294718094052 3.977966351219655e-05 9.402365973483776e-07 0.4256643337337343 0.5550725333029 0.000863322682518193 0.01836801819811914 3.179208272834467e-05 0.4830991456759668 0.4499165978094244 0.01682202097630555 0.00347266307790787 0.04668957246039543 0.4923821805084875 0.5065587768634542 0.0008832446205891387 0.0001388653339995002 3.693267346976253e-05 0.4524267909663194 0.4796514571658176 0.05325025686188015 0.01295530195971258 0.001716193046270344 0.400293561926813 0.5673705975738859 1.417241670215844e-10 0.03233584009248389 2.650929741717803e-10 0.4356534396785526 0.4451401669213436 0.02722646564249585 0.08175049859406899 0.01022942916353882 0.470935764584632 0.5290616928797731 5.081008019948848e-08 2.490362577632787e-06 1.3629370020965e-09 0.4019386576085155 0.595157779409564 0.001162295856717186 0.001735324529233225 5.94259597003284e-06 0.4889021183524146 0.511097881268701 6.916104479069393e-11 3.083864256080228e-10 1.336898000723034e-12 0.4329195087718812 0.5464536055407111 1.713233190910917e-05 0.02059640136487048 1.335199062811747e-05 0.4564725994268563 0.5435273715471652 2.421043123666397e-12 2.902355740039259e-08 2.97205554778574e-17 0.4360330007749346 0.5639460455598456 1.112996367943297e-10 2.095355391931881e-05 1.045134339164158e-15 0.5 0.5 0 0 0 0.482338045659202 0.5176619543334325 6.229332293119028e-16 7.364852316750553e-12 6.449996513219924e-21 0.5 0.5 0 0 0 0.5 0.5 0 0 0 0.4949614162370699 0.5050385280672819 5.284513480973557e-08 1.757821756923995e-09 1.092691662415608e-09 0.5115630637121635 0.4884369241389786 1.156728862135757e-08 1.507480197359591e-17 5.815692820425842e-10 0.2846502311837676 0.3959131031600802 5.301314002821643e-05 0.3193793375250233 4.314991100659046e-06 0.2390015801772526 0.3570334928950193 0.0004867942836975367 0.4034654692984281 1.26633456024659e-05 0.4423532955223448 0.5576350805635923 8.166256944261724e-07 1.078915070921193e-05 1.813765912613963e-08 0.5028685682914993 0.4681203521719451 0.002323722908749019 0.001448006196955959 0.02523935043085066 0.4564801811636269 0.5434940898243066 1.227911905402845e-13 2.572901194313233e-05 6.343748972217142e-16 0.433569846512556 0.455483217167148 0.008355882302053934 0.1017159505962133 0.0008751034220288626 0.4186399428625691 0.576726288160658 2.861499849557692e-10 0.004633768689645589 9.775694432497043e-13 0.4545948233342331 0.5430625429823335 0.0005702951311791762 0.001752601104894819 1.973744735936665e-05 0.4665356075751597 0.5334641799229458 2.112278633446081e-14 2.125018732647303e-07 2.65302215888029e-17 0.4679051439285266 0.5310643879511993 0.0009603825460714104 6.79426189524077e-05 2.142955250500574e-06 0.4942524557551846 0.5057475442448155 2.656273776905378e-23 3.703346469271633e-19 1.148571088535625e-28 0.4729328351416515 0.5270671602557757 9.864589808140992e-16 4.602571731492433e-09 2.685272715515153e-19 0.5 0.5 0 0 0 0.4846847120097412 0.5153152879892445 5.995828485295945e-18 1.01421774393278e-12 2.793378750520744e-22 0.5 0.5 0 0 0 0.5 0.5 0 0 0 0.5 0.5 0 0 0 0.5 0.5 0 0 0 0.5 0.5 0 0 0 0.5100226665793324 0.4874392457732877 0.001462117326562956 0.0002758063425971143 0.0008001639782199382 0.5030321735230809 0.4969678264769192 4.528358054452609e-17 1.022677228757387e-24 5.406026924488081e-18 0.4917631985634525 0.5082368011350135 1.129335457138878e-10 1.881365583184418e-10 4.639459954616289e-13 0.5010061145846245 0.4989938854153756 1.718863025378813e-26 3.360079673373744e-31 6.774217360946689e-27 0.4830675422325718 0.5169311970493693 1.121772372783951e-08 1.249277473291266e-06 2.228619458180876e-10 0.5 0.5 0 0 0 0.5 0.5 0 0 0 0.5 0.5 0 0 0 0.5 0.5 0 0 0 0.5 0.5 0 0 0 0.5 0.5 0 0 0 0.5 0.5 0 0 0 0.5 0.5 0 0 0 0.5 0.5 0 0 0 0.5 0.5 0 0 0 0.4866593576548369 0.5133406423451554 1.488819186601455e-18 7.770724097378784e-15 3.218159370538424e-23 0.5 0.5 0 0 0 0.5117207634870685 0.4882792358637566 4.171001398633157e-10 4.940339142823795e-17 2.320746048674404e-10 0.5 0.5 0 0 0 0.5 0.5 0 0 0 0.5 0.5 0 0 0 0.5034061262378653 0.4965938737621347 3.651961108955746e-17 3.063560460041669e-25 6.554619409170925e-18 0.5 0.5 0 0 0 0.5 0.5 0 0 0 0.5 0.5 0 0 0 0.5 0.5 0 0 0 0.4887169846647669 0.5112830153352312 2.012186366297019e-18 1.8793218346397e-15 3.593503373194377e-25 0.5 0.5 0 0 0 0.5 0.5 0 0 0 0.5 0.5 0 0 0 0.5 0.5 0 0 0 0.5 0.5 0 0 0 0.5 0.5 0 0 0 0.5030511894732714 0.4969488105267284 8.340820409059694e-17 6.965020630019621e-24 1.894274935990668e-18 0.4708117330201812 0.5289667577570757 0.0001941425898162059 1.189532154560387e-05 1.547131138114287e-05 0.294961948321755 0.5708217479320232 0.0001450119107676241 0.1340632498531735 8.041982280837849e-06 0.4220542106931768 0.3926825072967652 0.1402327593717412 0.00437153238266149 0.04065899025565525 0.4748068839703363 0.5213951170241354 0.001553176548271184 0.001947078660502283 0.0002977437967549764 0.4232101943609425 0.4781727926667027 0.01962966337727099 0.06967085274344137 0.009316496851642422 0.3805593944576341 0.5721455311726684 5.181794651197191e-07 0.04729455409129173 2.098940607198875e-09 0.3864322818271662 0.4139251233550558 0.1021546976797204 0.07082753258438872 0.02666036455366883 0.4420409821087532 0.5567060896863806 8.025306009631158e-08 0.001252842074706982 5.877099198488282e-09 0.4107707606494971 0.5620116556940238 0.008281801761635735 0.01865455674169833 0.0002812251531452072 0.4995643192370777 0.5004356806237309 6.982188383483841e-11 3.135134862673343e-11 3.801818795636259e-11 0.4590498053820488 0.5384495192776875 0.001129975987858837 0.00119468232763226 0.0001760170247725265 0.4594216372851041 0.5405783623082665 1.348598572548105e-12 4.0528079145601e-10 2.05329089166206e-17 0.4378791305158731 0.5621088096136205 3.948501834829311e-11 1.20598310154518e-05 6.140645728181549e-15 0.5 0.5 0 0 0 0.4841045903071321 0.5158954096917778 5.204332829249435e-17 1.089964836767239e-12 1.662185143229307e-21 0.5 0.5 0 0 0 0.5 0.5 0 0 0 0.5 0.5 0 0 0 0.5071493606213143 0.4928506393745051 4.152713942114618e-12 4.792519353520367e-18 2.781988997509315e-14 0.5 0.5 0 0 0 0.5 0.5 0 0 0 0.5 0.5 0 0 0 0.5236661476866323 0.476265617942547 6.164177608594344e-05 1.616072947941525e-08 6.576434005352201e-06 0.5 0.5 0 0 0 0.5420087769988956 0.4214816450224058 0.01242670416325855 1.98807101125295e-06 0.02408088574442871 0.5094227576221653 0.4905772423723485 1.637863574681414e-12 8.089418426397109e-17 3.848274254462511e-12 0.5377592681424722 0.4620905817884066 0.0001007483809916346 3.92043728836577e-10 4.94012960858609e-05 0.5 0.5 0 0 0 0.5127349441178448 0.4872650551040738 6.046711863670477e-10 6.496164496105581e-18 1.73410204842868e-10 0.5 0.5 0 0 0 0.5 0.5 0 0 0 0.5 0.5 0 0 0 0.5 0.5 0 0 0 0.5 0.5 0 0 0 0.5 0.5 0 0 0 0.5 0.5 0 0 0 0.5 0.5 0 0 0 0.5 0.5 0 0 0 0.5127159292164875 0.4872840301091692 6.585768563223773e-09 3.39737102484716e-11 3.405460103544998e-08 0.5 0.5 0 0 0 0.5090325257908862 0.4909674740093318 1.866270124992569e-10 2.044074392593185e-20 1.315505133658271e-11 0.5 0.5 0 0 0 0.5069333689467063 0.4930666310493115 3.925324041915152e-12 1.7720612429476e-19 5.6996690521934e-14 0.5 0.5 0 0 0 0.5 0.5 0 0 0 0.5 0.5 0 0 0 0.5 0.5 0 0 0 0.5 0.5 0 0 0 0.5 0.5 0 0 0 0.5 0.5 0 0 0 0.5 0.5 0 0 0 0.5 0.5 0 0 0 0.5 0.5 0 0 0 0.5 0.5 0 0 0 0.4821609588352817 0.5178390411646034 6.49608481650549e-19 1.146802979835519e-13 3.118870589433837e-23 0.5 0.5 0 0 0 0.5 0.5 0 0 0 0.5 0.5 0 0 0 0.5 0.5 0 0 0 0.5 0.5 0 0 0 0.5 0.5 0 0 0 0.5 0.5 0 0 0 0.5 0.5 0 0 0 0.5 0.5 0 0 0 0.5 0.5 0 0 0 0.5 0.5 0 0 0 0.5 0.5 0 0 0 0.5 0.5 0 0 0 0.5 0.5 0 0 0 0.5 0.5 0 0 0 0.5 0.5 0 0 0 0.5 0.5 0 0 0 0.5092335389950462 0.4907664609431024 1.424539391740213e-11 9.654032660394338e-16 4.760516345592901e-11 0.5 0.5 0 0 0 0.5121814345271564 0.4878185628061376 2.542511277779231e-09 1.879729315955319e-17 1.241947704813185e-10 0.5 0.5 0 0 0 0.5109981821219191 0.4889990888609651 2.57272726223051e-06 3.168156266540011e-09 1.531216973331407e-07 0.5092375516635442 0.4907624482986598 2.662475567048062e-11 5.822816922305055e-16 1.117064778713484e-11 0.5461827908283643 0.4498086737211933 0.001436281294492804 6.133331337725204e-05 0.002510920842572568 0.4644217247639467 0.5352848948621246 9.512475928784682e-11 0.0002933802733517917 5.452116573173566e-12 0.553157912630176 0.4441559804935889 0.002163158744763505 5.785668472445114e-10 0.0005229475529045882 0.5111344351728276 0.4888655648252678 1.822623219991749e-12 5.629394335798149e-19 8.191421198659777e-14 0.5397894299210754 0.4600170873437348 0.0001533513493746944 1.804488236954329e-10 4.013120536639986e-05 0.5 0.5 0 0 0 0.5 0.5 0 0 0 0.5 0.5 0 0 0 0.5 0.5 0 0 0 0.5 0.5 0 0 0 0.5 0.5 0 0 0 0.5 0.5 0 0 0 0.5104985618886214 0.4895014379772376 1.875454086975344e-11 9.843301694778413e-16 1.153856880821354e-10 0.5 0.5 0 0 0 0.5 0.5 0 0 0 0.5 0.5 0 0 0 0.5324168449993818 0.4643725530699807 0.003138314934147629 8.493269868278754e-07 7.14376695030429e-05 0.5 0.5 0 0 0 0.503358026887383 0.3795054127033871 0.04151228201068476 2.146276389054033e-05 0.07560281563465468 0.5138355311720045 0.4861644668288906 1.370646241590397e-09 1.001779623737081e-14 6.284486405589598e-10 0.5537764461172102 0.4444757371584009 0.001210033360479086 3.829234025068139e-09 0.0005377795346759709 0.5 0.5 0 0 0 0.5185436838016724 0.4814561334816133 1.743412485898708e-07 2.915181413475174e-16 8.375465480301279e-09 0.5 0.5 0 0 0 0.5 0.5 0 0 0 0.5 0.5 0 0 0 0.5 0.5 0 0 0 0.5 0.5 0 0 0 0.5 0.5 0 0 0 0.5 0.5 0 0 0 0.5 0.5 0 0 0 0.5 0.5 0 0 0 0.5187910900246751 0.481201238593992 1.805707179518657e-06 1.133053193439977e-09 5.86454110024214e-06 0.5 0.5 0 0 0 0.5021226750718575 0.4978773249281425 3.282894770270041e-20 9.361980252302382e-27 6.11173090272273e-23 0.5 0.5 0 0 0 0.5101831565233258 0.4898168432081609 1.808628820650221e-10 3.183660342519727e-16 8.76502400326271e-11 0.5 0.5 0 0 0 0.5 0.5 0 0 0 0.5 0.5 0 0 0 0.5 0.5 0 0 0 0.5 0.5 0 0 0 0.5 0.5 0 0 0 0.5 0.5 0 0 0 0.5 0.5 0 0 0 0.5 0.5 0 0 0 0.5 0.5 0 0 0 0.5 0.5 0 0 0 0.4738850534887436 0.526114946487287 1.588977627742668e-16 2.396906396175265e-11 4.50547747920831e-21 0.5 0.5 0 0 0 0.5 0.5 0 0 0 0.5 0.5 0 0 0 0.5 0.5 0 0 0 0.5 0.5 0 0 0 0.5 0.5 0 0 0 0.5 0.5 0 0 0 0.5 0.5 0 0 0 0.5 0.5 0 0 0 0.5 0.5 0 0 0 0.5 0.5 0 0 0 0.5 0.5 0 0 0 0.5 0.5 0 0 0 0.5 0.5 0 0 0 0.5 0.5 0 0 0 0.5 0.5 0 0 0 0.5 0.5 0 0 0 0.5135724102626934 0.486427584380866 1.357261228846015e-09 8.777585013549227e-14 3.999091647763619e-09 0.5 0.5 0 0 0 0.5178004682211478 0.4821994811093025 3.255997030368842e-08 1.678634894579375e-15 1.810957765156796e-08 0.5 0.5 0 0 0 0.5157992279819359 0.4841532344359125 3.915754966733045e-05 6.752287285849391e-08 8.312509611528415e-06 0.5135827448673423 0.4864172486792011 3.199766357802053e-09 5.604044767431425e-14 3.253634225225223e-09 0.5451562621872293 0.4048291148006944 0.01962170514661226 8.644545630909502e-06 0.03038427331983325 0.4478316646895754 0.5510754322851356 9.0322879483994e-09 0.001092893382503846 6.104971283573049e-10 0.5408631139207974 0.4587744093084228 0.0003270481829709978 4.97644020633831e-11 3.542853804421841e-05 0.5162740663007716 0.4837259336254373 1.431150902507373e-12 7.024867454747811e-17 7.235981210118495e-11 0.5558855033224839 0.4409371881194901 0.002820290878981763 1.162447189995724e-08 0.0003570060545721834 0.5 0.5 0 0 0 0.5 0.5 0 0 0 0.5 0.5 0 0 0 0.5 0.5 0 0 0 0.5 0.5 0 0 0 0.5 0.5 0 0 0 0.5 0.5 0 0 0 0.5044005767688292 0.4955994232311682 1.956408861763635e-15 1.382206569123277e-21 6.779877703680429e-16 0.5 0.5 0 0 0 0.5 0.5 0 0 0 0.5 0.5 0 0 0 0.5146671895541637 0.485330429131123 2.243287850600292e-06 3.945411140126327e-10 1.376323216592167e-07 0.5 0.5 0 0 0 0.5451074965682778 0.4528699515133333 5.092099501541552e-05 1.901794513688937e-07 0.001971440743922025 0.505800028740215 0.4941999712597743 7.52828650698713e-15 4.122482055300813e-20 3.120492842240732e-15 0.5234206701972443 0.4765777570748218 1.49635322577969e-06 1.300012442091973e-12 7.637340805797593e-08 0.5 0.5 0 0 0 0.5078881489383882 0.4921118510588985 2.453369356842473e-12 1.193155798628567e-20 2.598525101888118e-13 0.5 0.5 0 0 0 0.5 0.5 0 0 0 0.5 0.5 0 0 0 0.5 0.5 0 0 0 0.5 0.5 0 0 0 0.5 0.5 0 0 0 0.5 0.5 0 0 0 0.5 0.5 0 0 0 0.5 0.5 0 0 0 0.5077832655551825 0.4922167344258134 3.737988624801315e-12 4.08167643482246e-14 1.522514565210191e-11 0.5 0.5 0 0 0 0.5098149227258933 0.4901850771145137 5.397073746724141e-11 6.803088460458238e-17 1.05622217245636e-10 0.5 0.5 0 0 0 0.5042670785423471 0.4957329214576509 1.672495845841865e-15 4.767563458064653e-22 4.907597756115307e-16 0.5 0.5 0 0 0 0.5 0.5 0 0 0 0.5 0.5 0 0 0 0.5 0.5 0 0 0 0.5 0.5 0 0 0 0.5 0.5 0 0 0 0.5 0.5 0 0 0 0.5 0.5 0 0 0 0.5 0.5 0 0 0 0.5 0.5 0 0 0 0.5 0.5 0 0 0 0.4889958356612017 0.5110041643387981 5.471682559637829e-22 1.112444870595732e-16 4.135334432920812e-26 0.5 0.5 0 0 0 0.5 0.5 0 0 0 0.5 0.5 0 0 0 0.5 0.5 0 0 0 0.5 0.5 0 0 0 0.5 0.5 0 0 0 0.5 0.5 0 0 0 0.5 0.5 0 0 0 0.5 0.5 0 0 0 0.5 0.5 0 0 0 0.5 0.5 0 0 0 0.5 0.5 0 0 0 0.5 0.5 0 0 0 0.5 0.5 0 0 0 0.5 0.5 0 0 0 0.5 0.5 0 0 0 0.5 0.5 0 0 0 0.505678571850724 0.4943214281492314 2.952017711158837e-14 4.390687408523693e-19 1.503513265104771e-14 0.5 0.5 0 0 0 0.5075222716471645 0.4924777283473502 5.472589723857086e-12 3.788379459727248e-20 1.29701935439536e-14 0.5 0.5 0 0 0 0.506874246052759 0.4931257512142341 4.124484928939574e-11 2.036672215098693e-11 2.671395365706336e-09 0.505679452385613 0.4943205476143578 1.427531436226179e-14 4.214082241243367e-19 1.496931378150632e-14 0.5396995400228517 0.4586893062880747 0.001320537797670126 0.0001331773718113714 0.0001574385195921662 0.4781343174815126 0.5218645289499981 1.261603023509092e-12 1.153567157601628e-06 7.01930671450045e-14 0.5374389773338328 0.462344955139191 0.0002000905641243621 5.813163397435011e-11 1.597690472026644e-05 0.5068792894104205 0.493120710589579 3.851298240550784e-16 2.123774428118765e-22 2.880003580644204e-16 0.5246861400180278 0.4753124996171832 9.752972443786173e-07 4.838796159332808e-12 3.850627059550555e-07 0.5 0.5 0 0 0 0.5 0.5 0 0 0 0.5 0.5 0 0 0 0.5 0.5 0 0 0 0.5 0.5 0 0 0 0.5 0.5 0 0 0 0.5 0.5 0 0 0 0.5040178111250213 0.4959821888749763 2.04046502771648e-15 3.89421823412315e-22 3.236945314367875e-16 0.5 0.5 0 0 0 0.5 0.5 0 0 0 0.5 0.5 0 0 0 0.513436410495973 0.4865627220887164 5.940161896526952e-07 6.321494477912229e-11 2.733359060175159e-07 0.5 0.5 0 0 0 0.5337576803454185 0.4660209457954214 6.571415975210006e-05 1.12671917789311e-08 0.0001556484322164262 0.5052955293356935 0.4947044706642962 8.838121529219459e-15 1.1456716288495e-21 1.340686621041742e-15 0.5214397665628094 0.4785586404412864 1.295596270976547e-06 4.891577543827789e-13 2.973991439503459e-07 0.5 0.5 0 0 0 0.5072117163251301 0.4927882836741824 5.670750731153243e-13 6.963554960270884e-21 1.204868718847996e-13 0.5 0.5 0 0 0 0.5 0.5 0 0 0 0.5 0.5 0 0 0 0.5 0.5 0 0 0 0.5 0.5 0 0 0 0.5 0.5 0 0 0 0.5 0.5 0 0 0 0.5 0.5 0 0 0 0.5 0.5 0 0 0 0.5071009896499893 0.4928990103323121 2.416407718607453e-12 8.612028704666066e-15 1.527368009436961e-11 0.5 0.5 0 0 0 0.5022941181447419 0.4977058818552582 4.766968895020584e-19 5.638065223470237e-26 1.363150106964092e-20 0.5 0.5 0 0 0 0.5038958630641275 0.4961041369358712 9.68972897795435e-16 4.259271285596747e-22 1.41458306393082e-16 0.5 0.5 0 0 0 0.5 0.5 0 0 0 0.5 0.5 0 0 0 0.5 0.5 0 0 0 0.5 0.5 0 0 0 0.5 0.5 0 0 0 0.5 0.5 0 0 0 0.5 0.5 0 0 0 0.5 0.5 0 0 0 0.5 0.5 0 0 0 0.5 0.5 0 0 0 0.4899504186616137 0.5100495813383864 1.850721171488845e-22 1.644845018492823e-17 2.028603814067451e-26 0.5 0.5 0 0 0 0.5 0.5 0 0 0 0.5 0.5 0 0 0 0.5 0.5 0 0 0 0.5 0.5 0 0 0 0.5 0.5 0 0 0 0.5 0.5 0 0 0 0.5 0.5 0 0 0 0.5 0.5 0 0 0 0.5 0.5 0 0 0 0.5 0.5 0 0 0 0.5 0.5 0 0 0 0.5 0.5 0 0 0 0.5 0.5 0 0 0 0.5 0.5 0 0 0 0.5 0.5 0 0 0 0.5 0.5 0 0 0 0.5051840486708715 0.4948159513291068 1.318040166531031e-14 1.085392232183596e-19 8.437570391215431e-15 0.5 0.5 0 0 0 0.5068744294206295 0.4931255705762341 3.023920375982065e-12 2.343215882001817e-21 1.123010369634142e-13 0.5 0.5 0 0 0 0.5062984500021303 0.4937015446835347 3.955186265897355e-09 9.482735429450224e-12 1.349665937719218e-09 0.5051846596129049 0.4948153403870842 9.94509993694136e-15 2.377533254273011e-19 7.618208488151144e-16 0.5241458178362158 0.4758527007726635 1.130625045898703e-06 7.154473375697235e-09 3.436116014928103e-07 0.4800139771438204 0.5199856323585574 6.160844281486216e-13 3.904969428913206e-07 6.318044203749001e-14 0.5322143435867801 0.4677292723801668 4.656441347961007e-05 1.042787831478825e-11 9.819609145576147e-06 0.5062839625185227 0.4937160374814764 7.519941836068973e-16 3.455882495051116e-23 1.417590111205836e-16 0.5225853335670697 0.4774138274490926 7.099192224491463e-07 2.695626301470178e-12 1.29061919709537e-07 0.5 0.5 0 0 0 0.5 0.5 0 0 0 0.5 0.5 0 0 0 0.5 0.5 0 0 0 0.5 0.5 0 0 0 0.5 0.5 0 0 0 0.5 0.5 0 0 0 0.511179152943422 0.4888208458721631 7.937828690995036e-10 2.67670906564081e-15 3.906294720935371e-10 0.5 0.5 0 0 0 0.5 0.5 0 0 0 0.5 0.5 0 0 0 0.5348191909793113 0.4624121755435677 0.00228847536224951 9.049172492844218e-07 0.0004792531976221973 0.5 0.5 0 0 0 0.4748889722933985 0.3501473154617945 0.07669900132878547 1.243766521953625e-05 0.09825227325080212 0.5147319702287215 0.4852680239766761 3.419361095319063e-09 1.544600693387998e-14 2.375225848068056e-09 0.5557758695149 0.4402810731511426 0.002672487269597316 4.115892860090905e-09 0.001270565948467241 0.5 0.5 0 0 0 0.5197182380416768 0.4802815706282274 1.823943043586688e-07 1.366454603649519e-15 8.93578990187469e-09 0.5 0.5 0 0 0 0.5 0.5 0 0 0 0.5 0.5 0 0 0 0.5 0.5 0 0 0 0.5 0.5 0 0 0 0.5 0.5 0 0 0 0.5 0.5 0 0 0 0.5 0.5 0 0 0 0.5 0.5 0 0 0 0.5200363293779292 0.4799559987951081 4.298049628352993e-06 1.336983090878393e-08 3.360407503375912e-06 0.5 0.5 0 0 0 0.5088780672400151 0.4911219326209365 1.170122082470481e-10 8.619017383191196e-18 2.203617837870465e-11 0.5 0.5 0 0 0 0.5108437228178171 0.4891562765638789 3.756233072336408e-10 7.94344721726542e-16 2.426798400780983e-10 0.5 0.5 0 0 0 0.5 0.5 0 0 0 0.5 0.5 0 0 0 0.5 0.5 0 0 0 0.5 0.5 0 0 0 0.5 0.5 0 0 0 0.5 0.5 0 0 0 0.5 0.5 0 0 0 0.5 0.5 0 0 0 0.5 0.5 0 0 0 0.5 0.5 0 0 0 0.4722118539284328 0.5277881460471474 2.855554898286335e-16 2.44195103354425e-11 2.538270443241501e-20 0.5 0.5 0 0 0 0.5 0.5 0 0 0 0.5 0.5 0 0 0 0.5 0.5 0 0 0 0.5 0.5 0 0 0 0.5 0.5 0 0 0 0.5 0.5 0 0 0 0.5 0.5 0 0 0 0.5 0.5 0 0 0 0.5 0.5 0 0 0 0.5 0.5 0 0 0 0.5 0.5 0 0 0 0.5 0.5 0 0 0 0.5 0.5 0 0 0 0.5 0.5 0 0 0 0.5 0.5 0 0 0 0.5 0.5 0 0 0 0.5144551230928385 0.4855448646426558 6.428328381671883e-10 6.091648077652254e-13 1.162106380109846e-08 0.5 0.5 0 0 0 0.5189415240846696 0.4810582856180738 1.877755386637098e-07 3.138753847871403e-15 2.521714772319707e-09 0.5 0.5 0 0 0 0.5167393001691263 0.4831542708439389 8.856198543183794e-05 1.368439662187719e-07 1.773015753674516e-05 0.5144670927553475 0.4855328969219764 8.908472994832485e-09 2.344132716284645e-13 1.413968565179779e-09 0.548023008633448 0.4273570208287319 0.0226640417491661 0.0001112869359382948 0.001844641852715817 0.4429424655050282 0.5518335811545527 4.318199536923954e-08 0.005223907817493038 2.340930740335513e-09 0.5619477608055898 0.4356494440449198 0.00189439413213331 2.301813218577834e-09 0.000508398715543709 0.5173118007813294 0.4826881989263329 2.062742985152192e-10 3.752510193852907e-16 8.606301055056506e-11 0.5579262706229864 0.436442632953121 0.0002576397339527412 3.821364265589301e-08 0.005373418476297321 0.5 0.5 0 0 0 0.5 0.5 0 0 0 0.5 0.5 0 0 0 0.5 0.5 0 0 0 0.5 0.5 0 0 0 0.5 0.5 0 0 0 0.5 0.5 0 0 0 0.5 0.5 0 0 0 0.5 0.5 0 0 0 0.5 0.5 0 0 0 0.5 0.5 0 0 0 0.5 0.5 0 0 0 0.5 0.5 0 0 0 0.5 0.5 0 0 0 0.5 0.5 0 0 0 0.5 0.5 0 0 0 0.5 0.5 0 0 0 0.5 0.5 0 0 0 0.5 0.5 0 0 0 0.5 0.5 0 0 0 0.5 0.5 0 0 0 0.5 0.5 0 0 0 0.5 0.5 0 0 0 0.5 0.5 0 0 0 0.5 0.5 0 0 0 0.5 0.5 0 0 0 0.5 0.5 0 0 0 0.5 0.5 0 0 0 0.5 0.5 0 0 0 0.5 0.5 0 0 0 0.5 0.5 0 0 0 0.5 0.5 0 0 0 0.5 0.5 0 0 0 0.5 0.5 0 0 0 0.5 0.5 0 0 0 0.5 0.5 0 0 0 0.5 0.5 0 0 0 0.5 0.5 0 0 0 0.5 0.5 0 0 0 0.5 0.5 0 0 0 0.5 0.5 0 0 0 0.5 0.5 0 0 0 0.5 0.5 0 0 0 0.5 0.5 0 0 0 0.5 0.5 0 0 0 0.5 0.5 0 0 0 0.5 0.5 0 0 0 0.5 0.5 0 0 0 0.5 0.5 0 0 0 0.5 0.5 0 0 0 0.5 0.5 0 0 0 0.5 0.5 0 0 0 0.5 0.5 0 0 0 0.5 0.5 0 0 0 0.5 0.5 0 0 0 0.5 0.5 0 0 0 0.5 0.5 0 0 0 0.5 0.5 0 0 0 0.5 0.5 0 0 0 0.5 0.5 0 0 0 0.5 0.5 0 0 0 0.5 0.5 0 0 0 0.5 0.5 0 0 0 0.5 0.5 0 0 0 0.5 0.5 0 0 0 0.5 0.5 0 0 0 0.5 0.5 0 0 0 0.5 0.5 0 0 0 0.5 0.5 0 0 0 0.5 0.5 0 0 0 0.5 0.5 0 0 0 0.5 0.5 0 0 0 0.5 0.5 0 0 0 0.5 0.5 0 0 0 0.5 0.5 0 0 0 0.5 0.5 0 0 0 0.5 0.5 0 0 0 0.5 0.5 0 0 0 0.5 0.5 0 0 0 0.5 0.5 0 0 0 0.5 0.5 0 0 0 0.5 0.5 0 0 0 0.5 0.5 0 0 0 0.5 0.5 0 0 0 0.5 0.5 0 0 0 